{"learner":{"attributes":{"scikit_learn":"{\"_estimator_type\": \"regressor\"}"},"feature_names":[],"feature_types":[],"gradient_booster":{"model":{"cats":{"enc":[],"feature_segments":[],"sorted_idx":[]},"gbtree_model_param":{"num_parallel_tree":"1","num_trees":"300"},"iteration_indptr":[0,1,2,3,4,5,6,7,8,9,10,11,12,13,14,15,16,17,18,19,20,21,22,23,24,25,26,27,28,29,30,31,32,33,34,35,36,37,38,39,40,41,42,43,44,45,46,47,48,49,50,51,52,53,54,55,56,57,58,59,60,61,62,63,64,65,66,67,68,69,70,71,72,73,74,75,76,77,78,79,80,81,82,83,84,85,86,87,88,89,90,91,92,93,94,95,96,97,98,99,100,101,102,103,104,105,106,107,108,109,110,111,112,113,114,115,116,117,118,119,120,121,122,123,124,125,126,127,128,129,130,131,132,133,134,135,136,137,138,139,140,141,142,143,144,145,146,147,148,149,150,151,152,153,154,155,156,157,158,159,160,161,162,163,164,165,166,167,168,169,170,171,172,173,174,175,176,177,178,179,180,181,182,183,184,185,186,187,188,189,190,191,192,193,194,195,196,197,198,199,200,201,202,203,204,205,206,207,208,209,210,211,212,213,214,215,216,217,218,219,220,221,222,223,224,225,226,227,228,229,230,231,232,233,234,235,236,237,238,239,240,241,242,243,244,245,246,247,248,249,250,251,252,253,254,255,256,257,258,259,260,261,262,263,264,265,266,267,268,269,270,271,272,273,274,275,276,277,278,279,280,281,282,283,284,285,286,287,288,289,290,291,292,293,294,295,296,297,298,299,300],"tree_info":[0,0,0,0,0,0,0,0,0,0,0,0,0,0,0,0,0,0,0,0,0,0,0,0,0,0,0,0,0,0,0,0,0,0,0,0,0,0,0,0,0,0,0,0,0,0,0,0,0,0,0,0,0,0,0,0,0,0,0,0,0,0,0,0,0,0,0,0,0,0,0,0,0,0,0,0,0,0,0,0,0,0,0,0,0,0,0,0,0,0,0,0,0,0,0,0,0,0,0,0,0,0,0,0,0,0,0,0,0,0,0,0,0,0,0,0,0,0,0,0,0,0,0,0,0,0,0,0,0,0,0,0,0,0,0,0,0,0,0,0,0,0,0,0,0,0,0,0,0,0,0,0,0,0,0,0,0,0,0,0,0,0,0,0,0,0,0,0,0,0,0,0,0,0,0,0,0,0,0,0,0,0,0,0,0,0,0,0,0,0,0,0,0,0,0,0,0,0,0,0,0,0,0,0,0,0,0,0,0,0,0,0,0,0,0,0,0,0,0,0,0,0,0,0,0,0,0,0,0,0,0,0,0,0,0,0,0,0,0,0,0,0,0,0,0,0,0,0,0,0,0,0,0,0,0,0,0,0,0,0,0,0,0,0,0,0,0,0,0,0,0,0,0,0,0,0,0,0,0,0,0,0,0,0,0,0,0,0,0,0,0,0,0,0,0,0,0,0,0,0],"trees":[{"base_weights":[-7.266744E-2,-3.4685292E0,4.7170553E0,-4.37627E0,-9.8115754E-1,2.736277E0,6.276121E0,-8.115354E-1,-6.292044E-1,-2.956321E-1,-1.2782142E-2,2.753132E-1,5.6943643E-1,8.773809E-1,1.1584841E0],"categories":[],"categories_nodes":[],"categories_segments":[],"categories_sizes":[],"default_left":[0,0,0,0,0,0,0,0,0,0,0,0,0,0,0],"id":0,"left_children":[1,3,5,7,9,11,13,-1,-1,-1,-1,-1,-1,-1,-1],"loss_changes":[3.5327348E4,2.8665625E3,2.7770273E3,2.8206055E2,2.643795E2,3.285293E2,3.775625E2,0E0,0E0,0E0,0E0,0E0,0E0,0E0,0E0],"parents":[2147483647,0,0,1,1,2,2,3,3,4,4,5,5,6,6],"right_children":[2,4,6,8,10,12,14,-1,-1,-1,-1,-1,-1,-1,-1],"split_conditions":[3.1596667E2,1.2451667E2,5.5313336E2,3.8333333E-1,2.1925E2,4.2698334E2,7.1636664E2,-8.115354E-1,-6.292044E-1,-2.956321E-1,-1.2782142E-2,2.753132E-1,5.6943643E-1,8.773809E-1,1.1584841E0],"split_indices":[0,0,0,0,0,0,0,0,0,0,0,0,0,0,0],"split_type":[0,0,0,0,0,0,0,0,0,0,0,0,0,0,0],"sum_hessian":[2.172E3,1.271E3,9.01E2,9.31E2,3.4E2,3.97E2,5.04E2,3.62E2,5.69E2,1.73E2,1.67E2,1.78E2,2.19E2,2.77E2,2.27E2],"tree_param":{"num_deleted":"0","num_feature":"2","num_nodes":"15","size_leaf_vector":"1"}},{"base_weights":[4.3553516E-2,-2.501225E0,3.3145096E0,-3.5377805E0,-1.0582361E0,1.7255843E0,4.401941E0,-6.394877E-1,-4.9869445E-1,-2.1547258E-1,-8.369161E-2,1.162401E-1,3.7996352E-1,6.005509E-1,8.431213E-1],"categories":[],"categories_nodes":[],"categories_segments":[],"categories_sizes":[],"default_left":[0,0,0,0,0,0,0,0,0,0,0,0,0,0,0],"id":1,"left_children":[1,3,5,7,9,11,13,-1,-1,-1,-1,-1,-1,-1,-1],"loss_changes":[1.8013318E4,1.8175557E3,1.6325947E3,1.3253125E2,7.745618E1,2.4784753E2,3.1077637E2,0E0,0E0,0E0,0E0,0E0,0E0,0E0,0E0],"parents":[2147483647,0,0,1,1,2,2,3,3,4,4,5,5,6,6],"right_children":[2,4,6,8,10,12,14,-1,-1,-1,-1,-1,-1,-1,-1],"split_conditions":[3.3533333E1,2.64E1,4E1,2.0133333E1,3.067742E1,3.6083332E1,4.57E1,-6.394877E-1,-4.9869445E-1,-2.1547258E-1,-8.369161E-2,1.162401E-1,3.7996352E-1,6.005509E-1,8.431213E-1],"split_indices":[1,1,1,1,1,1,1,0,0,0,0,0,0,0,0],"split_type":[0,0,0,0,0,0,0,0,0,0,0,0,0,0,0],"sum_hessian":[2.164E3,1.217E3,9.47E2,7.08E2,5.09E2,3.85E2,5.62E2,3.38E2,3.7E2,3.3E2,1.79E2,1.52E2,2.33E2,3.22E2,2.4E2],"tree_param":{"num_deleted":"0","num_feature":"2","num_nodes":"15","size_leaf_vector":"1"}},{"base_weights":[-2.4507979E-2,-2.2106886E0,2.6864603E0,-2.9255388E0,-9.462217E-1,1.3113049E0,3.6857157E0,-5.2467054E-1,-3.974903E-1,9.6040577E-1,-1.7544836E-1,8.514161E-2,3.0800772E-1,5.2569634E-1,7.5389016E-1],"categories":[],"categories_nodes":[],"categories_segments":[],"categories_sizes":[],"default_left":[0,0,0,0,0,0,0,0,0,0,0,0,0,0,0],"id":2,"left_children":[1,3,5,7,9,11,13,-1,-1,-1,-1,-1,-1,-1,-1],"loss_changes":[1.2706486E4,1.0706113E3,1.3120454E3,1.1482031E2,4.4519424E2,1.9124438E2,2.2264941E2,0E0,0E0,0E0,0E0,0E0,0E0,0E0,0E0],"parents":[2147483647,0,0,1,1,2,2,3,3,4,4,5,5,6,6],"right_children":[2,4,6,8,10,12,14,-1,-1,-1,-1,-1,-1,-1,-1],"split_conditions":[3.31E1,2.7183332E1,4E1,2.2016666E1,2.73E1,3.6083332E1,4.7516666E1,-5.2467054E-1,-3.974903E-1,9.6040577E-1,-1.7544836E-1,8.514161E-2,3.0800772E-1,5.2569634E-1,7.5389016E-1],"split_indices":[1,1,1,1,1,1,1,0,0,0,0,0,0,0,0],"split_type":[0,0,0,0,0,0,0,0,0,0,0,0,0,0,0],"sum_hessian":[2.144E3,1.187E3,9.57E2,7.58E2,4.29E2,4.03E2,5.54E2,4.2E2,3.38E2,9E0,4.2E2,1.78E2,2.25E2,3.99E2,1.55E2],"tree_param":{"num_deleted":"0","num_feature":"2","num_nodes":"15","size_leaf_vector":"1"}},{"base_weights":[5.396165E-2,-1.6319271E0,2.549297E0,-2.5493913E0,-7.2465914E-1,1.8046923E0,3.4358256E0,-4.4592512E-1,-3.3895212E-1,-1.4598082E-1,3.866745E-2,1.8011141E-1,3.7627926E-1,5.069142E-1,6.865523E-1],"categories":[],"categories_nodes":[],"categories_segments":[],"categories_sizes":[],"default_left":[0,0,0,0,0,0,0,0,0,0,0,0,0,0,0],"id":3,"left_children":[1,3,5,7,9,11,13,-1,-1,-1,-1,-1,-1,-1,-1],"loss_changes":[9.264052E3,1.0917903E3,5.8303613E2,6.3929688E1,1.203082E2,1.7732227E2,8.8206055E1,0E0,0E0,0E0,0E0,0E0,0E0,0E0,0E0],"parents":[2147483647,0,0,1,1,2,2,3,3,4,4,5,5,6,6],"right_children":[2,4,6,8,10,12,14,-1,-1,-1,-1,-1,-1,-1,-1],"split_conditions":[3.495E1,2.5816668E1,4.275E1,2.2016666E1,3.31E1,3.8583332E1,4.9933334E1,-4.4592512E-1,-3.3895212E-1,-1.4598082E-1,3.866745E-2,1.8011141E-1,3.7627926E-1,5.069142E-1,6.865523E-1],"split_indices":[1,1,1,1,1,1,1,0,0,0,0,0,0,0,0],"split_type":[0,0,0,0,0,0,0,0,0,0,0,0,0,0,0],"sum_hessian":[2.202E3,1.314E3,8.88E2,6.53E2,6.61E2,4.83E2,4.05E2,4.2E2,2.33E2,5.54E2,1.07E2,2.16E2,2.67E2,3.09E2,9.6E1],"tree_param":{"num_deleted":"0","num_feature":"2","num_nodes":"15","size_leaf_vector":"1"}},{"base_weights":[-6.58857E-3,-1.4637766E0,2.1685035E0,-2.0709105E0,-5.3723603E-1,1.5395219E0,2.9123466E0,-3.7049046E-1,-2.8594923E-1,3.9369136E-1,-1.1780266E-1,8.8803574E-2,2.795157E-1,4.3837947E-1,5.903571E-1],"categories":[],"categories_nodes":[],"categories_segments":[],"categories_sizes":[],"default_left":[0,0,0,0,0,0,0,0,0,0,0,0,0,0,0],"id":4,"left_children":[1,3,5,7,9,11,13,-1,-1,-1,-1,-1,-1,-1,-1],"loss_changes":[6.905957E3,7.32542E2,4.062417E2,5.223755E1,3.0743622E2,9.542651E1,4.9773926E1,0E0,0E0,0E0,0E0,0E0,0E0,0E0,0E0],"parents":[2147483647,0,0,1,1,2,2,3,3,4,4,5,5,6,6],"right_children":[2,4,6,8,10,12,14,-1,-1,-1,-1,-1,-1,-1,-1],"split_conditions":[3.48E1,2.7416666E1,4.2666668E1,2.2016666E1,2.8E1,3.6083332E1,5.105E1,-3.7049046E-1,-2.8594923E-1,3.9369136E-1,-1.1780266E-1,8.8803574E-2,2.795157E-1,4.3837947E-1,5.903571E-1],"split_indices":[1,1,1,1,1,1,1,0,0,0,0,0,0,0,0],"split_type":[0,0,0,0,0,0,0,0,0,0,0,0,0,0,0],"sum_hessian":[2.179E3,1.305E3,8.74E2,7.88E2,5.17E2,4.74E2,4E2,4.22E2,3.66E2,3.2E1,4.85E2,8.3E1,3.91E2,3.28E2,7.2E1],"tree_param":{"num_deleted":"0","num_feature":"2","num_nodes":"15","size_leaf_vector":"1"}},{"base_weights":[1.6840454E-2,-1.7152424E0,2.5833497E0,-2.1018066E0,-3.8766572E-1,1.4085433E0,3.3328092E0,-4.234915E-1,-2.8842065E-1,-1.0320306E-1,1.7719505E-2,1.420333E-1,2.889774E-1,4.7033507E-1,6.707952E-1],"categories":[],"categories_nodes":[],"categories_segments":[],"categories_sizes":[],"default_left":[0,0,0,0,0,0,0,0,0,0,0,0,0,0,0],"id":5,"left_children":[1,3,5,7,9,11,13,-1,-1,-1,-1,-1,-1,-1,-1],"loss_changes":[9.762633E3,6.71303E2,7.763706E2,1.6283301E2,3.8287945E1,6.982153E1,1.782583E2,0E0,0E0,0E0,0E0,0E0,0E0,0E0,0E0],"parents":[2147483647,0,0,1,1,2,2,3,3,4,4,5,5,6,6],"right_children":[2,4,6,8,10,12,14,-1,-1,-1,-1,-1,-1,-1,-1],"split_conditions":[3.341E2,1.566E2,5.407E2,3.8333333E-1,2.7053333E2,4.2698334E2,7.605333E2,-4.234915E-1,-2.8842065E-1,-1.0320306E-1,1.7719505E-2,1.420333E-1,2.889774E-1,4.7033507E-1,6.707952E-1],"split_indices":[0,0,0,0,0,0,0,0,0,0,0,0,0,0,0],"split_type":[0,0,0,0,0,0,0,0,0,0,0,0,0,0,0],"sum_hessian":[2.196E3,1.311E3,8.85E2,1.015E3,2.96E2,3.45E2,5.4E2,3.59E2,6.56E2,1.96E2,1E2,1.5E2,1.95E2,3.71E2,1.69E2],"tree_param":{"num_deleted":"0","num_feature":"2","num_nodes":"15","size_leaf_vector":"1"}},{"base_weights":[-2.6807792E-2,-1.404659E0,2.1939056E0,-1.806014E0,-2.4189904E-1,1.5208066E0,3.0595193E0,-3.519954E-1,-2.4048543E-1,-8.942393E-2,2.8160054E-2,1.6628546E-1,3.1898648E-1,4.5242327E-1,6.179582E-1],"categories":[],"categories_nodes":[],"categories_segments":[],"categories_sizes":[],"default_left":[0,0,0,0,0,0,0,0,0,0,0,0,0,0,0],"id":6,"left_children":[1,3,5,7,9,11,13,-1,-1,-1,-1,-1,-1,-1,-1],"loss_changes":[6.657678E3,6.255217E2,4.8259424E2,1.1690088E2,4.5933384E1,1.0496802E2,6.373706E1,0E0,0E0,0E0,0E0,0E0,0E0,0E0,0E0],"parents":[2147483647,0,0,1,1,2,2,3,3,4,4,5,5,6,6],"right_children":[2,4,6,8,10,12,14,-1,-1,-1,-1,-1,-1,-1,-1],"split_conditions":[3.5996667E2,1.566E2,6.428E2,2.0166667E0,2.7053333E2,4.9706668E2,8.1095E2,-3.519954E-1,-2.4048543E-1,-8.942393E-2,2.8160054E-2,1.6628546E-1,3.1898648E-1,4.5242327E-1,6.179582E-1],"split_indices":[0,0,0,0,0,0,0,0,0,0,0,0,0,0,0],"split_type":[0,0,0,0,0,0,0,0,0,0,0,0,0,0,0],"sum_hessian":[2.176E3,1.343E3,8.33E2,9.98E2,3.45E2,4.69E2,3.64E2,4.33E2,5.65E2,1.97E2,1.48E2,2.33E2,2.36E2,2.83E2,8.1E1],"tree_param":{"num_deleted":"0","num_feature":"2","num_nodes":"15","size_leaf_vector":"1"}},{"base_weights":[4.7306553E-3,-8.4479624E-1,1.0100095E0,-1.2103091E0,-3.3230758E-1,4.0249562E-1,1.3467951E0,-2.1997099E-1,-1.6904013E-1,2.287925E-2,-9.1949835E-2,2.743047E-2,7.796447E-2,1.8086912E-1,2.5486264E-1],"categories":[],"categories_nodes":[],"categories_segments":[],"categories_sizes":[],"default_left":[0,0,0,0,0,0,0,0,0,0,0,0,0,0,0],"id":7,"left_children":[1,3,5,7,9,11,13,-1,-1,-1,-1,-1,-1,-1,-1],"loss_changes":[1.867822E3,2.2105011E2,2.0396161E2,1.6025513E1,5.7169487E1,6.617775E0,3.2656494E1,0E0,0E0,0E0,0E0,0E0,0E0,0E0,0E0],"parents":[2147483647,0,0,1,1,2,2,3,3,4,4,5,5,6,6],"right_children":[2,4,6,8,10,12,14,-1,-1,-1,-1,-1,-1,-1,-1],"split_conditions":[3.2316666E1,2.6E1,3.8583332E1,1.9783333E1,2.8E1,3.395E1,4.4433334E1,-2.1997099E-1,-1.6904013E-1,2.287925E-2,-9.1949835E-2,2.743047E-2,7.796447E-2,1.8086912E-1,2.5486264E-1],"split_indices":[1,1,1,1,1,1,1,0,0,0,0,0,0,0,0],"split_type":[0,0,0,0,0,0,0,0,0,0,0,0,0,0,0],"sum_hessian":[2.187E3,1.185E3,1.002E3,6.91E2,4.94E2,3.58E2,6.44E2,3.32E2,3.59E2,1.66E2,3.28E2,9.8E1,2.6E2,3.44E2,3E2],"tree_param":{"num_deleted":"0","num_feature":"2","num_nodes":"15","size_leaf_vector":"1"}},{"base_weights":[6.9001645E-2,-9.725106E-1,1.733157E0,-1.237668E0,-1.5587159E-1,1.1468126E0,2.357017E0,-2.7545592E-1,-1.5597917E-1,-5.872046E-2,4.329761E-2,1.21685825E-1,2.5239763E-1,3.4664962E-1,4.694105E-1],"categories":[],"categories_nodes":[],"categories_segments":[],"categories_sizes":[],"default_left":[0,0,0,0,0,0,0,0,0,0,0,0,0,0,0],"id":8,"left_children":[1,3,5,7,9,11,13,-1,-1,-1,-1,-1,-1,-1,-1],"loss_changes":[3.7771824E3,2.8932483E2,3.0480127E2,1.269574E2,2.968219E1,7.063049E1,4.154077E1,0E0,0E0,0E0,0E0,0E0,0E0,0E0,0E0],"parents":[2147483647,0,0,1,1,2,2,3,3,4,4,5,5,6,6],"right_children":[2,4,6,8,10,12,14,-1,-1,-1,-1,-1,-1,-1,-1],"split_conditions":[3.5996667E2,1.689E2,6.2293335E2,3.8333333E-1,2.9228333E2,4.9706668E2,7.996667E2,-2.7545592E-1,-1.5597917E-1,-5.872046E-2,4.329761E-2,1.21685825E-1,2.5239763E-1,3.4664962E-1,4.694105E-1],"split_indices":[0,0,0,0,0,0,0,0,0,0,0,0,0,0,0],"split_type":[0,0,0,0,0,0,0,0,0,0,0,0,0,0,0],"sum_hessian":[2.179E3,1.34E3,8.39E2,1.011E3,3.29E2,4.33E2,4.06E2,3.55E2,6.56E2,2.21E2,1.08E2,2.29E2,2.04E2,3.06E2,1E2],"tree_param":{"num_deleted":"0","num_feature":"2","num_nodes":"15","size_leaf_vector":"1"}},{"base_weights":[-4.0970273E-2,-7.2218364E-1,5.6363285E-1,-8.379274E-1,-4.1039255E-1,1.5445524E-1,8.206253E-1,-1.6682471E-1,-1.253818E-1,2.3675704E-1,-1.17109194E-1,6.424738E-1,1.1680931E-2,1.1844603E-1,1.882927E-1],"categories":[],"categories_nodes":[],"categories_segments":[],"categories_sizes":[],"default_left":[0,0,0,0,0,0,0,0,0,0,0,0,0,0,0],"id":9,"left_children":[1,3,5,7,9,11,13,-1,-1,-1,-1,-1,-1,-1,-1],"loss_changes":[8.913683E2,3.5988464E1,1.1992322E2,7.14032E0,1.6789818E2,1.3686012E2,1.8967194E1,0E0,0E0,0E0,0E0,0E0,0E0,0E0,0E0],"parents":[2147483647,0,0,1,1,2,2,3,3,4,4,5,5,6,6],"right_children":[2,4,6,8,10,12,14,-1,-1,-1,-1,-1,-1,-1,-1],"split_conditions":[3.0216667E1,2.685E1,3.7433334E1,1.6583334E1,2.73E1,3.035E1,4.8633335E1,-1.6682471E-1,-1.253818E-1,2.3675704E-1,-1.17109194E-1,6.424738E-1,1.1680931E-2,1.1844603E-1,1.882927E-1],"split_indices":[1,1,1,1,1,1,1,0,0,0,0,0,0,0,0],"split_type":[0,0,0,0,0,0,0,0,0,0,0,0,0,0,0],"sum_hessian":[2.164E3,1.018E3,1.146E3,7.41E2,2.77E2,4.43E2,7.03E2,1.53E2,5.88E2,4E1,2.37E2,9E0,4.34E2,5.75E2,1.28E2],"tree_param":{"num_deleted":"0","num_feature":"2","num_nodes":"15","size_leaf_vector":"1"}},{"base_weights":[-1.782495E-2,-9.0294284E-1,1.3045658E0,-1.1711468E0,-2.9848456E-1,9.118489E-1,1.9773209E0,-1.5734768E-1,-2.3318413E-1,-8.560181E-2,-1.1475637E-2,6.8555586E-2,1.8472715E-1,3.0677575E-1,6.032751E-1],"categories":[],"categories_nodes":[],"categories_segments":[],"categories_sizes":[],"default_left":[0,0,0,0,0,0,0,0,0,0,0,0,0,0,0],"id":10,"left_children":[1,3,5,7,9,11,13,-1,-1,-1,-1,-1,-1,-1,-1],"loss_changes":[2.5314895E3,2.0922314E2,2.2732983E2,4.6737427E1,2.1036419E1,6.333792E1,3.0892456E1,0E0,0E0,0E0,0E0,0E0,0E0,0E0,0E0],"parents":[2147483647,0,0,1,1,2,2,3,3,4,4,5,5,6,6],"right_children":[2,4,6,8,10,12,14,-1,-1,-1,-1,-1,-1,-1,-1],"split_conditions":[3.341E2,1.01166664E2,6.659667E2,7.766667E0,2.0706667E2,4.502E2,9.1581665E2,-1.5734768E-1,-2.3318413E-1,-8.560181E-2,-1.1475637E-2,6.8555586E-2,1.8472715E-1,3.0677575E-1,6.032751E-1],"split_indices":[0,0,0,0,0,0,0,0,0,0,0,0,0,0,0],"split_type":[0,0,0,0,0,0,0,0,0,0,0,0,0,0,0],"sum_hessian":[2.163E3,1.296E3,8.67E2,8.97E2,3.99E2,5.48E2,3.19E2,5.43E2,3.54E2,1.94E2,2.05E2,1.84E2,3.64E2,3.09E2,1E1],"tree_param":{"num_deleted":"0","num_feature":"2","num_nodes":"15","size_leaf_vector":"1"}},{"base_weights":[-7.552121E-2,-5.531639E-1,3.6841163E-1,-4.3490928E-1,-8.604319E-1,1.628414E-1,5.034558E-1,-7.892982E-2,1.0824564E0,-2.4167188E-1,-6.737822E-2,2.9183388E-2,-1.4235196E-2,7.548265E-2,1.3717727E-1],"categories":[],"categories_nodes":[],"categories_segments":[],"categories_sizes":[],"default_left":[0,0,0,0,0,0,0,0,0,0,0,0,0,0,0],"id":11,"left_children":[1,3,5,7,9,11,13,-1,-1,-1,-1,-1,-1,-1,-1],"loss_changes":[4.598163E2,3.7193756E1,3.0775894E1,3.141426E2,8.136917E1,2.2571344E0,6.783798E0,0E0,0E0,0E0,0E0,0E0,0E0,0E0,0E0],"parents":[2147483647,0,0,1,1,2,2,3,3,4,4,5,5,6,6],"right_children":[2,4,6,8,10,12,14,-1,-1,-1,-1,-1,-1,-1,-1],"split_conditions":[3.0866667E1,2.7E1,3.83E1,2.6933332E1,2.8383333E1,3.7733334E1,5.1983334E1,-7.892982E-2,1.0824564E0,-2.4167188E-1,-6.737822E-2,2.9183388E-2,-1.4235196E-2,7.548265E-2,1.3717727E-1],"split_indices":[1,1,1,1,1,1,1,0,0,0,0,0,0,0,0],"split_type":[0,0,0,0,0,0,0,0,0,0,0,0,0,0,0],"sum_hessian":[2.168E3,1.045E3,1.123E3,7.56E2,2.89E2,4.47E2,6.76E2,7.5E2,6E0,1.16E2,1.73E2,4.17E2,3E1,6.22E2,5.4E1],"tree_param":{"num_deleted":"0","num_feature":"2","num_nodes":"15","size_leaf_vector":"1"}},{"base_weights":[2.6534729E-2,-4.565963E-1,2.3834305E-1,-9.822937E-2,-4.0410405E-1,5.6281656E-2,4.025911E-1,-4.037796E-3,-6.595855E-2,1.0196509E-1,-9.177683E-3,6.020659E-2,1.1890308E-1],"categories":[],"categories_nodes":[],"categories_segments":[],"categories_sizes":[],"default_left":[0,0,0,0,0,0,0,0,0,0,0,0,0],"id":12,"left_children":[1,3,5,-1,7,9,11,-1,-1,-1,-1,-1,-1],"loss_changes":[2.2141602E2,4.8318634E0,4.475894E1,0E0,1.2696762E0,4.762266E1,6.4039917E0,0E0,0E0,0E0,0E0,0E0,0E0],"parents":[2147483647,0,0,1,1,2,2,4,4,5,5,6,6],"right_children":[2,4,6,-1,8,10,12,-1,-1,-1,-1,-1,-1],"split_conditions":[2.6E1,1.6766666E1,3.6083332E1,-9.822937E-2,1.7E1,2.73E1,5.1983334E1,-4.037796E-3,-6.595855E-2,1.0196509E-1,-9.177683E-3,6.020659E-2,1.1890308E-1],"split_indices":[1,1,1,0,1,1,1,0,0,0,0,0,0],"split_type":[0,0,0,0,0,0,0,0,0,0,0,0,0],"sum_hessian":[2.165E3,6.59E2,1.506E3,1.62E2,4.97E2,7.16E2,7.9E2,1.2E1,4.85E2,1.18E2,5.98E2,7.35E2,5.5E1],"tree_param":{"num_deleted":"0","num_feature":"2","num_nodes":"13","size_leaf_vector":"1"}},{"base_weights":[6.99153E-2,-5.156698E-1,1.0112011E0,-1.012332E0,-3.4255493E-1,6.997066E-1,1.4985791E0,-1.5822051E-1,-2.130454E-1,1.9125429E0,-6.6792786E-2,7.266573E-2,1.4340463E-1,1.955609E-1,2.580807E-1],"categories":[],"categories_nodes":[],"categories_segments":[],"categories_sizes":[],"default_left":[0,0,0,0,0,0,0,0,0,0,0,0,0,0,0],"id":13,"left_children":[1,3,5,7,9,11,13,-1,-1,-1,-1,-1,-1,-1,-1],"loss_changes":[1.2041246E3,1.1491562E2,1.25902466E2,1.2055664E0,9.131239E2,2.3902725E1,8.606506E0,0E0,0E0,0E0,0E0,0E0,0E0,0E0,0E0],"parents":[2147483647,0,0,1,1,2,2,3,3,4,4,5,5,6,6],"right_children":[2,4,6,8,10,12,14,-1,-1,-1,-1,-1,-1,-1,-1],"split_conditions":[3.5996667E2,3.8333333E-1,6.617E2,6.666667E-2,4.8333332E-1,4.9706668E2,7.1981665E2,-1.5822051E-1,-2.130454E-1,1.9125429E0,-6.6792786E-2,7.266573E-2,1.4340463E-1,1.955609E-1,2.580807E-1],"split_indices":[0,0,0,0,0,0,0,0,0,0,0,0,0,0,0],"split_type":[0,0,0,0,0,0,0,0,0,0,0,0,0,0,0],"sum_hessian":[2.184E3,1.346E3,8.38E2,3.47E2,9.99E2,5.12E2,3.26E2,3.25E2,2.2E1,6E0,9.93E2,2.29E2,2.83E2,9.7E1,2.29E2],"tree_param":{"num_deleted":"0","num_feature":"2","num_nodes":"15","size_leaf_vector":"1"}},{"base_weights":[-4.021604E-2,-3.0487746E-1,1.8991306E-1,-2.2223265E-1,-6.5018016E-1,5.669001E-1,1.6916092E-1,-4.9608495E-2,5.532413E-1,-1.7831437E-1,-6.784709E-2,-8.962291E-2,2.8061576E-2],"categories":[],"categories_nodes":[],"categories_segments":[],"categories_sizes":[],"default_left":[0,0,0,0,0,0,0,0,0,0,0,0,0],"id":14,"left_children":[1,3,5,7,9,-1,11,-1,-1,-1,-1,-1,-1],"loss_changes":[1.3308833E2,2.8499168E1,7.8979904E1,2.6376407E2,1.9550217E1,0E0,5.0345383E0,0E0,0E0,0E0,0E0,0E0,0E0],"parents":[2147483647,0,0,1,1,2,2,3,3,4,4,6,6],"right_children":[2,4,6,8,10,-1,12,-1,-1,-1,-1,-1,-1],"split_conditions":[3.0216667E1,2.7816668E1,3.035E1,2.7633333E1,2.8466667E1,5.669001E-1,3.0433332E1,-4.9608495E-2,5.532413E-1,-1.7831437E-1,-6.784709E-2,-8.962291E-2,2.8061576E-2],"split_indices":[1,1,1,1,1,0,1,0,0,0,0,0,0],"split_type":[0,0,0,0,0,0,0,0,0,0,0,0,0],"sum_hessian":[2.184E3,1.017E3,1.167E3,8.22E2,1.95E2,7E0,1.16E3,8.03E2,1.9E1,6.3E1,1.32E2,9E0,1.151E3],"tree_param":{"num_deleted":"0","num_feature":"2","num_nodes":"13","size_leaf_vector":"1"}},{"base_weights":[4.94789E-2,-5.0275636E-1,7.684221E-1,-8.0049306E-1,-3.8412705E-1,5.161768E-1,1.2369157E0,-1.2469491E-1,-1.743209E-1,1.2929046E0,-7.235515E-2,3.580354E-2,1.0869183E-1,1.806598E-1,2.4689397E-1],"categories":[],"categories_nodes":[],"categories_segments":[],"categories_sizes":[],"default_left":[0,0,0,0,0,0,0,0,0,0,0,0,0,0,0],"id":15,"left_children":[1,3,5,7,9,11,13,-1,-1,-1,-1,-1,-1,-1,-1],"loss_changes":[8.688519E2,4.298044E1,1.11332886E2,1.0242004E0,5.0610413E2,2.8987518E1,9.353546E0,0E0,0E0,0E0,0E0,0E0,0E0,0E0,0E0],"parents":[2147483647,0,0,1,1,2,2,3,3,4,4,5,5,6,6],"right_children":[2,4,6,8,10,12,14,-1,-1,-1,-1,-1,-1,-1,-1],"split_conditions":[2.9228333E2,3.8333333E-1,6.617E2,6.666667E-2,4.8333332E-1,4.2698334E2,8.1095E2,-1.2469491E-1,-1.743209E-1,1.2929046E0,-7.235515E-2,3.580354E-2,1.0869183E-1,1.806598E-1,2.4689397E-1],"split_indices":[0,0,0,0,0,0,0,0,0,0,0,0,0,0,0],"split_type":[0,0,0,0,0,0,0,0,0,0,0,0,0,0,0],"sum_hessian":[2.188E3,1.237E3,9.51E2,3.51E2,8.86E2,6.19E2,3.32E2,3.29E2,2.2E1,7E0,8.79E2,2.23E2,3.96E2,2.47E2,8.5E1],"tree_param":{"num_deleted":"0","num_feature":"2","num_nodes":"15","size_leaf_vector":"1"}},{"base_weights":[6.1190233E-2,-1.4218433E-1,1.5897025E-1,-1.2366502E-1,-8.498418E-1,1.6159848E0,3.9806105E-2,-2.3693776E-2,6.805011E-2,-2.1529812E-1,-8.398009E-2,7.812918E-2,4.5079184E-1,-1.1990092E-1,1.3141483E-2],"categories":[],"categories_nodes":[],"categories_segments":[],"categories_sizes":[],"default_left":[0,0,0,0,0,0,0,0,0,0,0,0,0,0,0],"id":16,"left_children":[1,3,5,7,9,11,13,-1,-1,-1,-1,-1,-1,-1,-1],"loss_changes":[4.2943874E1,8.576526E0,2.5249738E2,8.9769945E0,1.616559E0,1.470516E2,4.469618E1,0E0,0E0,0E0,0E0,0E0,0E0,0E0,0E0],"parents":[2147483647,0,0,1,1,2,2,3,3,4,4,5,5,6,6],"right_children":[2,4,6,8,10,12,14,-1,-1,-1,-1,-1,-1,-1,-1],"split_conditions":[2.64E1,2.6233334E1,2.8E1,2.6E1,2.6283333E1,2.7183332E1,2.8616667E1,-2.3693776E-2,6.805011E-2,-2.1529812E-1,-8.398009E-2,7.812918E-2,4.5079184E-1,-1.1990092E-1,1.3141483E-2],"split_indices":[1,1,1,1,1,1,1,0,0,0,0,0,0,0,0],"split_type":[0,0,0,0,0,0,0,0,0,0,0,0,0,0,0],"sum_hessian":[2.159E3,6.99E2,1.46E3,6.82E2,1.7E1,1.1E2,1.35E3,6.54E2,2.8E1,6E0,1.1E1,5.7E1,5.3E1,6.8E1,1.282E3],"tree_param":{"num_deleted":"0","num_feature":"2","num_nodes":"15","size_leaf_vector":"1"}},{"base_weights":[-1.2783291E-2,-1.8079808E-1,7.20365E-2,-1.2597719E-1,-6.4248765E-1,1.6981593E0,2.9702622E-2,-5.626018E-2,-1.794915E-2,-2.211022E-1,-4.634994E-2,2.1461478E-2,1.1355596E0,-2.1659718E-1,1.08450195E-2],"categories":[],"categories_nodes":[],"categories_segments":[],"categories_sizes":[],"default_left":[0,0,0,0,0,0,0,0,0,0,0,0,0,0,0],"id":17,"left_children":[1,3,5,7,9,11,13,-1,-1,-1,-1,-1,-1,-1,-1],"loss_changes":[3.0847372E1,1.793946E1,9.761112E1,1.7481632E0,1.8822502E1,2.996563E2,7.2821655E1,0E0,0E0,0E0,0E0,0E0,0E0,0E0,0E0],"parents":[2147483647,0,0,1,1,2,2,3,3,4,4,5,5,6,6],"right_children":[2,4,6,8,10,12,14,-1,-1,-1,-1,-1,-1,-1,-1],"split_conditions":[2.6933332E1,2.595E1,2.73E1,1.2466666E1,2.6133333E1,2.7183332E1,2.7933332E1,-5.626018E-2,-1.794915E-2,-2.211022E-1,-4.634994E-2,2.1461478E-2,1.1355596E0,-2.1659718E-1,1.08450195E-2],"split_indices":[1,1,1,1,1,1,1,0,0,0,0,0,0,0,0],"split_type":[0,0,0,0,0,0,0,0,0,0,0,0,0,0,0],"sum_hessian":[2.16E3,7.27E2,1.433E3,6.51E2,7.6E1,3.6E1,1.397E3,3.5E1,6.16E2,2.4E1,5.2E1,2.8E1,8E0,3.7E1,1.36E3],"tree_param":{"num_deleted":"0","num_feature":"2","num_nodes":"15","size_leaf_vector":"1"}},{"base_weights":[2.409156E-2,-1.1734705E-1,9.18297E-2,-1.0077372E-1,-7.174831E-1,1.1123581E0,2.3554456E-3,-1.9175898E-2,5.2390084E-2,-6.3493975E-2,-1.4623995E-1,1.09296985E-1,1.4554564E0,-5.7714432E-2,1.18145235E-2],"categories":[],"categories_nodes":[],"categories_segments":[],"categories_sizes":[],"default_left":[0,0,0,0,0,0,0,0,0,0,0,0,0,0,0],"id":18,"left_children":[1,3,5,7,9,11,13,-1,-1,-1,-1,-1,-1,-1,-1],"loss_changes":[2.0957033E1,6.5311003E0,1.3474542E2,5.495317E0,3.4771824E-1,4.0197516E2,3.522944E1,0E0,0E0,0E0,0E0,0E0,0E0,0E0,0E0],"parents":[2147483647,0,0,1,1,2,2,3,3,4,4,5,5,6,6],"right_children":[2,4,6,8,10,12,14,-1,-1,-1,-1,-1,-1,-1,-1],"split_conditions":[2.64E1,2.6233334E1,2.8E1,2.6E1,2.6283333E1,2.7933332E1,3.067742E1,-1.9175898E-2,5.2390084E-2,-6.3493975E-2,-1.4623995E-1,1.09296985E-1,1.4554564E0,-5.7714432E-2,1.18145235E-2],"split_indices":[1,1,1,1,1,1,1,0,0,0,0,0,0,0,0],"split_type":[0,0,0,0,0,0,0,0,0,0,0,0,0,0,0],"sum_hessian":[2.189E3,7.06E2,1.483E3,6.88E2,1.8E1,1.19E2,1.364E3,6.6E2,2.8E1,8E0,1E1,1.13E2,6E0,2.23E2,1.141E3],"tree_param":{"num_deleted":"0","num_feature":"2","num_nodes":"15","size_leaf_vector":"1"}},{"base_weights":[1.1999838E-2,-3.5366493E-1,7.554878E-1,-5.07937E-1,-1.10483445E-1,5.1822084E-1,1.0386443E0,-4.112499E-2,-1.4621973E-1,-3.778026E-2,3.402957E-3,5.820156E-2,1.0215037E-1,2.741933E-1,1.602412E-1],"categories":[],"categories_nodes":[],"categories_segments":[],"categories_sizes":[],"default_left":[0,0,0,0,0,0,0,0,0,0,0,0,0,0,0],"id":19,"left_children":[1,3,5,7,9,11,13,-1,-1,-1,-1,-1,-1,-1,-1],"loss_changes":[5.8611523E2,5.380223E1,4.6833496E1,8.913077E1,9.432113E0,6.6035156E0,6.4684143E0,0E0,0E0,0E0,0E0,0E0,0E0,0E0,0E0],"parents":[2147483647,0,0,1,1,2,2,3,3,4,4,5,5,6,6],"right_children":[2,4,6,8,10,12,14,-1,-1,-1,-1,-1,-1,-1,-1],"split_conditions":[4.3675E2,1.03166664E2,6.617E2,1.2633333E1,2.6571667E2,5.2918335E2,6.7035E2,-4.112499E-2,-1.4621973E-1,-3.778026E-2,3.402957E-3,5.820156E-2,1.0215037E-1,2.741933E-1,1.602412E-1],"split_indices":[0,0,0,0,0,0,0,0,0,0,0,0,0,0,0],"split_type":[0,0,0,0,0,0,0,0,0,0,0,0,0,0,0],"sum_hessian":[2.155E3,1.444E3,7.11E2,8.82E2,5.62E2,3.88E2,3.23E2,5.46E2,3.36E2,2.9E2,2.72E2,1.72E2,2.16E2,1.6E1,3.07E2],"tree_param":{"num_deleted":"0","num_feature":"2","num_nodes":"15","size_leaf_vector":"1"}},{"base_weights":[1.7786039E-2,1.2876602E-1,-4.8426606E-2,5.3131517E-2,1.2338815E0,-9.9718153E-1,-5.00639E-3,1.2632459E-2,-1.905205E-1,-2.5298366E-1,-1.0538781E-1,1.4937292E-1,-5.2658217E-3],"categories":[],"categories_nodes":[],"categories_segments":[],"categories_sizes":[],"default_left":[0,0,0,0,0,0,0,0,0,0,0,0,0],"id":20,"left_children":[1,3,5,7,-1,9,11,-1,-1,-1,-1,-1,-1],"loss_changes":[1.606745E1,4.6449344E2,5.550647E1,2.5349134E1,0E0,1.0319057E1,3.3586826E1,0E0,0E0,0E0,0E0,0E0,0E0],"parents":[2147483647,0,0,1,1,2,2,3,3,5,5,6,6],"right_children":[2,4,6,8,-1,10,12,-1,-1,-1,-1,-1,-1],"split_conditions":[2.775E1,2.7633333E1,2.8266666E1,2.73E1,1.2338815E0,2.8E1,2.8733334E1,1.2632459E-2,-1.905205E-1,-2.5298366E-1,-1.0538781E-1,1.4937292E-1,-5.2658217E-3],"split_indices":[1,1,1,1,0,1,1,0,0,0,0,0,0],"split_type":[0,0,0,0,0,0,0,0,0,0,0,0,0],"sum_hessian":[2.18E3,8.18E2,1.362E3,8.1E2,8E0,5.9E1,1.303E3,7.94E2,1.6E1,2.1E1,3.8E1,3.7E1,1.266E3],"tree_param":{"num_deleted":"0","num_feature":"2","num_nodes":"13","size_leaf_vector":"1"}},{"base_weights":[-1.0486713E-2,-4.1733846E-1,5.310445E-1,-5.141177E-1,-2.4107306E-1,3.4029433E-1,9.009511E-1,-5.425759E-2,-1.4139871E-1,-5.1776163E-2,-2.5113218E-2,3.2646835E-2,7.96057E-2,1.3616602E-1,4.050145E-1],"categories":[],"categories_nodes":[],"categories_segments":[],"categories_sizes":[],"default_left":[0,0,0,0,0,0,0,0,0,0,0,0,0,0,0],"id":21,"left_children":[1,3,5,7,9,11,13,-1,-1,-1,-1,-1,-1,-1,-1],"loss_changes":[4.773715E2,2.0665726E1,6.480527E1,5.0821915E1,2.7730312E0,1.273362E1,2.3604721E1,0E0,0E0,0E0,0E0,0E0,0E0,0E0,0E0],"parents":[2147483647,0,0,1,1,2,2,3,3,4,4,5,5,6,6],"right_children":[2,4,6,8,10,12,14,-1,-1,-1,-1,-1,-1,-1,-1],"split_conditions":[2.9228333E2,8.253333E1,6.617E2,1.2633333E1,1.7366667E2,4.9706668E2,9.1581665E2,-5.425759E-2,-1.4139871E-1,-5.1776163E-2,-2.5113218E-2,3.2646835E-2,7.96057E-2,1.3616602E-1,4.050145E-1],"split_indices":[0,0,0,0,0,0,0,0,0,0,0,0,0,0,0],"split_type":[0,0,0,0,0,0,0,0,0,0,0,0,0,0,0],"sum_hessian":[2.167E3,1.238E3,9.29E2,7.97E2,4.41E2,6.14E2,3.15E2,5.42E2,2.55E2,2.19E2,2.22E2,3.31E2,2.83E2,3.06E2,9E0],"tree_param":{"num_deleted":"0","num_feature":"2","num_nodes":"15","size_leaf_vector":"1"}},{"base_weights":[-3.4151718E-2,3.750499E-2,-2.1675532E-1,-3.642487E-2,1.060203E-1,-1.3286208E-1,-2.0549054E-1,6.332261E-3,-1.1947465E-1,7.897124E-1,1.1032803E-2,-2.025012E-3,-3.564109E-2],"categories":[],"categories_nodes":[],"categories_segments":[],"categories_sizes":[],"default_left":[0,0,0,0,0,0,0,0,0,0,0,0,0],"id":22,"left_children":[1,3,5,7,9,-1,11,-1,-1,-1,-1,-1,-1],"loss_changes":[2.8226725E1,7.8474264E0,3.5812283E0,4.020993E1,1.409241E2,0E0,1.8498077E0,0E0,0E0,0E0,0E0,0E0,0E0],"parents":[2147483647,0,0,1,1,2,2,3,3,4,4,6,6],"right_children":[2,4,6,8,10,-1,12,-1,-1,-1,-1,-1,-1],"split_conditions":[3.9083332E1,2.6933332E1,3.9233334E1,2.595E1,2.7E1,-1.3286208E-1,4.0166668E1,6.332261E-3,-1.1947465E-1,7.897124E-1,1.1032803E-2,-2.025012E-3,-3.564109E-2],"split_indices":[1,1,1,1,1,0,1,0,0,0,0,0,0],"split_type":[0,0,0,0,0,0,0,0,0,0,0,0,0],"sum_hessian":[2.149E3,1.541E3,6.08E2,7.37E2,8.04E2,1E1,5.98E2,6.65E2,7.2E1,6E0,7.98E2,5.2E1,5.46E2],"tree_param":{"num_deleted":"0","num_feature":"2","num_nodes":"13","size_leaf_vector":"1"}},{"base_weights":[4.093408E-2,-2.7084407E-1,4.4103038E-1,-5.3313947E-1,-1.6189201E-1,3.080049E-1,8.646816E-1,-8.2425706E-2,-1.235271E-1,1.363664E0,-3.5585158E-2,3.561735E-2,7.787984E-2,1.3235064E-1,2.749768E-1],"categories":[],"categories_nodes":[],"categories_segments":[],"categories_sizes":[],"default_left":[0,0,0,0,0,0,0,0,0,0,0,0,0,0,0],"id":23,"left_children":[1,3,5,7,9,11,13,-1,-1,-1,-1,-1,-1,-1,-1],"loss_changes":[2.7528137E2,3.499066E1,5.3793045E1,7.82547E-1,4.5593765E2,1.0824043E1,5.8356476E0,0E0,0E0,0E0,0E0,0E0,0E0,0E0,0E0],"parents":[2147483647,0,0,1,1,2,2,3,3,4,4,5,5,6,6],"right_children":[2,4,6,8,10,12,14,-1,-1,-1,-1,-1,-1,-1,-1],"split_conditions":[2.891E2,3.8333333E-1,7.1981665E2,6.666667E-2,4.8333332E-1,5.804167E2,9.1581665E2,-8.2425706E-2,-1.235271E-1,1.363664E0,-3.5585158E-2,3.561735E-2,7.787984E-2,1.3235064E-1,2.749768E-1],"split_indices":[0,0,0,0,0,0,0,0,0,0,0,0,0,0,0],"split_type":[0,0,0,0,0,0,0,0,0,0,0,0,0,0,0],"sum_hessian":[2.206E3,1.239E3,9.67E2,3.62E2,8.77E2,7.37E2,2.3E2,3.39E2,2.3E1,6E0,8.71E2,5.01E2,2.36E2,2.21E2,9E0],"tree_param":{"num_deleted":"0","num_feature":"2","num_nodes":"15","size_leaf_vector":"1"}},{"base_weights":[-4.9722306E-2,-3.56821E-1,4.375432E-1,-4.7351703E-1,-1.241768E-1,3.4145936E-1,7.0761615E-1,-4.3309554E-2,-1.15513094E-1,-2.9148055E-2,-1.4273774E-4,3.664146E-2,6.49519E-2,1.0258542E-1,1.6264029E-1],"categories":[],"categories_nodes":[],"categories_segments":[],"categories_sizes":[],"default_left":[0,0,0,0,0,0,0,0,0,0,0,0,0,0,0],"id":24,"left_children":[1,3,5,7,9,11,13,-1,-1,-1,-1,-1,-1,-1,-1],"loss_changes":[3.2421844E2,3.5749084E1,2.1090408E1,4.3950592E1,3.0792089E0,4.1079636E0,3.4804382E0,0E0,0E0,0E0,0E0,0E0,0E0,0E0,0E0],"parents":[2147483647,0,0,1,1,2,2,3,3,4,4,5,5,6,6],"right_children":[2,4,6,8,10,12,14,-1,-1,-1,-1,-1,-1,-1,-1],"split_conditions":[3.5996667E2,1.03166664E2,7.1981665E2,5.5E0,2.7053333E2,4.9706668E2,8.466E2,-4.3309554E-2,-1.15513094E-1,-2.9148055E-2,-1.4273774E-4,3.664146E-2,6.49519E-2,1.0258542E-1,1.6264029E-1],"split_indices":[0,0,0,0,0,0,0,0,0,0,0,0,0,0,0],"split_type":[0,0,0,0,0,0,0,0,0,0,0,0,0,0,0],"sum_hessian":[2.167E3,1.33E3,8.37E2,8.84E2,4.46E2,6.19E2,2.18E2,4.88E2,3.96E2,3E2,1.46E2,2.29E2,3.9E2,1.81E2,3.7E1],"tree_param":{"num_deleted":"0","num_feature":"2","num_nodes":"15","size_leaf_vector":"1"}},{"base_weights":[-1.4816988E-2,1.5497185E-1,-2.7595454E-1,2.0386054E-1,7.2059706E-2,-1.1392654E-1,-3.3646992E-1,2.4274053E-2,1.004644E0,-4.2306244E-2,2.7358003E-2,-2.5367502E-2,2.199375E-2,-4.4312526E-2,-6.609584E-2],"categories":[],"categories_nodes":[],"categories_segments":[],"categories_sizes":[],"default_left":[0,0,0,0,0,0,0,0,0,0,0,0,0,0,0],"id":25,"left_children":[1,3,5,7,9,11,13,-1,-1,-1,-1,-1,-1,-1,-1],"loss_changes":[9.770541E1,5.237713E0,8.250473E0,2.6035767E2,1.6553963E1,2.6935148E0,2.4592056E0,0E0,0E0,0E0,0E0,0E0,0E0,0E0,0E0],"parents":[2147483647,0,0,1,1,2,2,3,3,4,4,5,5,6,6],"right_children":[2,4,6,8,10,12,14,-1,-1,-1,-1,-1,-1,-1,-1],"split_conditions":[3.5316666E1,2.8E1,3.9083332E1,2.7933332E1,2.9283333E1,3.8583332E1,4.5166668E1,2.4274053E-2,1.004644E0,-4.2306244E-2,2.7358003E-2,-2.5367502E-2,2.199375E-2,-4.4312526E-2,-6.609584E-2],"split_indices":[1,1,1,1,1,1,1,0,0,0,0,0,0,0,0],"split_type":[0,0,0,0,0,0,0,0,0,0,0,0,0,0,0],"sum_hessian":[2.202E3,1.333E3,8.69E2,8.34E2,4.99E2,2.39E2,6.3E2,8.27E2,7E0,1.12E2,3.87E2,2.05E2,3.4E1,3.59E2,2.71E2],"tree_param":{"num_deleted":"0","num_feature":"2","num_nodes":"15","size_leaf_vector":"1"}},{"base_weights":[2.97267E-2,-1.6731456E-1,4.4477177E-1,-4.2994472E-1,-8.0101155E-2,3.6486885E-1,7.152665E-1,-6.547851E-2,-1.13586746E-1,3.6040682E-1,-2.26541E-2,1.2755668E-1,5.2791156E-2,1.04912505E-1,2.4493568E-1],"categories":[],"categories_nodes":[],"categories_segments":[],"categories_sizes":[],"default_left":[0,0,0,0,0,0,0,0,0,0,0,0,0,0,0],"id":26,"left_children":[1,3,5,7,9,11,13,-1,-1,-1,-1,-1,-1,-1,-1],"loss_changes":[1.7673167E2,3.3203804E1,1.4394791E1,1.4326553E0,1.5650334E2,7.4624863E0,6.3149414E0,0E0,0E0,0E0,0E0,0E0,0E0,0E0,0E0],"parents":[2147483647,0,0,1,1,2,2,3,3,4,4,5,5,6,6],"right_children":[2,4,6,8,10,12,14,-1,-1,-1,-1,-1,-1,-1,-1],"split_conditions":[4.3675E2,3.8333333E-1,7.5543335E2,6.666667E-2,7.5E-1,4.6281668E2,9.1581665E2,-6.547851E-2,-1.13586746E-1,3.6040682E-1,-2.26541E-2,1.2755668E-1,5.2791156E-2,1.04912505E-1,2.4493568E-1],"split_indices":[0,0,0,0,0,0,0,0,0,0,0,0,0,0,0],"split_type":[0,0,0,0,0,0,0,0,0,0,0,0,0,0,0],"sum_hessian":[2.159E3,1.463E3,6.96E2,3.63E2,1.1E3,5.39E2,1.57E2,3.4E2,2.3E1,2.8E1,1.072E3,3.9E1,5E2,1.47E2,1E1],"tree_param":{"num_deleted":"0","num_feature":"2","num_nodes":"15","size_leaf_vector":"1"}},{"base_weights":[2.5386333E-3,1.5402249E-1,-2.89962E-1,2.5595647E-1,2.3119155E-2,-2.1302186E-1,-4.0844503E-1,3.024459E-2,1.1105056E0,-1.3451132E-1,1.307309E-2,-2.4891496E-2,-4.0688924E-2,-5.285616E-2,-7.299768E-2],"categories":[],"categories_nodes":[],"categories_segments":[],"categories_sizes":[],"default_left":[0,0,0,0,0,0,0,0,0,0,0,0,0,0,0],"id":27,"left_children":[1,3,5,7,9,11,13,-1,-1,-1,-1,-1,-1,-1,-1],"loss_changes":[9.775298E1,1.9260685E1,6.4824295E0,3.6079425E2,3.1934298E1,8.427124E-1,6.215706E-1,0E0,0E0,0E0,0E0,0E0,0E0,0E0,0E0],"parents":[2147483647,0,0,1,1,2,2,3,3,4,4,5,5,6,6],"right_children":[2,4,6,8,10,12,14,-1,-1,-1,-1,-1,-1,-1,-1],"split_conditions":[3.6883335E1,2.775E1,4.4633335E1,2.7633333E1,2.81E1,4.0333332E1,4.7316666E1,3.024459E-2,1.1105056E0,-1.3451132E-1,1.307309E-2,-2.4891496E-2,-4.0688924E-2,-5.285616E-2,-7.299768E-2],"split_indices":[1,1,1,1,1,1,1,0,0,0,0,0,0,0,0],"split_type":[0,0,0,0,0,0,0,0,0,0,0,0,0,0,0],"sum_hessian":[2.208E3,1.456E3,7.52E2,8.16E2,6.4E2,4.59E2,2.93E2,8.08E2,8E0,4E1,6E2,1.98E2,2.61E2,1.16E2,1.77E2],"tree_param":{"num_deleted":"0","num_feature":"2","num_nodes":"15","size_leaf_vector":"1"}},{"base_weights":[-1.4407942E-2,-2.2482343E-1,3.513284E-1,-5.2646065E-1,-8.427679E-2,3.3566865E-1,3.2276276E-1,-7.068295E-2,-1.9176896E-1,2.6234138E-1,-3.9605215E-2,2.5879916E-2,6.9265105E-2],"categories":[],"categories_nodes":[],"categories_segments":[],"categories_sizes":[],"default_left":[0,0,0,0,0,0,0,0,0,0,0,0,0],"id":28,"left_children":[1,3,5,7,9,11,-1,-1,-1,-1,-1,-1,-1],"loss_changes":[1.6661208E2,5.7967834E1,1.9197891E1,2.383348E1,2.6371683E2,1.2884979E1,0E0,0E0,0E0,0E0,0E0,0E0,0E0],"parents":[2147483647,0,0,1,1,2,2,3,3,4,4,5,5],"right_children":[2,4,6,8,10,12,-1,-1,-1,-1,-1,-1,-1],"split_conditions":[3.7528333E2,2.0166667E0,9.1581665E2,7.5E-1,7.766667E0,5.4913336E2,3.2276276E-1,-7.068295E-2,-1.9176896E-1,2.6234138E-1,-3.9605215E-2,2.5879916E-2,6.9265105E-2],"split_indices":[0,0,0,0,0,0,0,0,0,0,0,0,0],"split_type":[0,0,0,0,0,0,0,0,0,0,0,0,0],"sum_hessian":[2.166E3,1.376E3,7.9E2,4.36E2,9.4E2,7.83E2,7E0,3.88E2,4.8E1,8.1E1,8.59E2,2.83E2,5E2],"tree_param":{"num_deleted":"0","num_feature":"2","num_nodes":"13","size_leaf_vector":"1"}},{"base_weights":[-6.9500827E-3,1.4175875E-1,-3.2085136E-1,2.273699E-1,9.089578E-3,-2.5274646E-1,-3.932386E-1,2.9620832E-2,8.829064E-1,-6.8800144E-2,8.212242E-3,-4.2503428E-2,-0E0,-5.7741303E-2,-8.433172E-2],"categories":[],"categories_nodes":[],"categories_segments":[],"categories_sizes":[],"default_left":[0,0,0,0,0,0,0,0,0,0,0,0,0,0,0],"id":29,"left_children":[1,3,5,7,9,11,13,-1,-1,-1,-1,-1,-1,-1,-1],"loss_changes":[1.02149704E2,1.669062E1,3.0830765E0,1.9726447E2,1.0603563E1,1.3251324E0,9.2653275E-1,0E0,0E0,0E0,0E0,0E0,0E0,0E0,0E0],"parents":[2147483647,0,0,1,1,2,2,3,3,4,4,5,5,6,6],"right_children":[2,4,6,8,10,12,14,-1,-1,-1,-1,-1,-1,-1,-1],"split_conditions":[3.7733334E1,2.8733334E1,4.3866665E1,2.8616667E1,2.945E1,4.3633335E1,5.14E1,2.9620832E-2,8.829064E-1,-6.8800144E-2,8.212242E-3,-4.2503428E-2,-0E0,-5.7741303E-2,-8.433172E-2],"split_indices":[1,1,1,1,1,1,1,0,0,0,0,0,0,0,0],"split_type":[0,0,0,0,0,0,0,0,0,0,0,0,0,0,0],"sum_hessian":[2.186E3,1.482E3,7.04E2,8.98E2,5.84E2,3.67E2,3.37E2,8.91E2,7E0,5E1,5.34E2,3.51E2,1.6E1,2.75E2,6.2E1],"tree_param":{"num_deleted":"0","num_feature":"2","num_nodes":"15","size_leaf_vector":"1"}},{"base_weights":[2.8861962E-2,2.1966875E-1,-1.3989858E-1,9.755071E-2,5.94303E-1,-2.6519595E-2,-2.6606804E-1,2.1787236E-2,-2.1378064E-1,6.232104E-1,7.286857E-2,-1.1761342E-1,-2.643374E-4,-2.9007554E-2,-5.1131852E-2],"categories":[],"categories_nodes":[],"categories_segments":[],"categories_sizes":[],"default_left":[0,0,0,0,0,0,0,0,0,0,0,0,0,0,0],"id":30,"left_children":[1,3,5,7,9,11,13,-1,-1,-1,-1,-1,-1,-1,-1],"loss_changes":[7.05995E1,4.6706974E1,1.6432514E1,4.2356346E1,1.12904366E2,1.0376769E1,2.1805344E0,0E0,0E0,0E0,0E0,0E0,0E0,0E0,0E0],"parents":[2147483647,0,0,1,1,2,2,3,3,4,4,5,5,6,6],"right_children":[2,4,6,8,10,12,14,-1,-1,-1,-1,-1,-1,-1,-1],"split_conditions":[3.035E1,2.7183332E1,4.0166668E1,2.7E1,2.73E1,3.0566668E1,4.3866665E1,2.1787236E-2,-2.1378064E-1,6.232104E-1,7.286857E-2,-1.1761342E-1,-2.643374E-4,-2.9007554E-2,-5.1131852E-2],"split_indices":[1,1,1,1,1,1,1,0,0,0,0,0,0,0,0],"split_type":[0,0,0,0,0,0,0,0,0,0,0,0,0,0,0],"sum_hessian":[2.191E3,1.03E3,1.161E3,7.78E2,2.52E2,6.14E2,5.47E2,7.58E2,2E1,1E1,2.42E2,2E1,5.94E2,2.16E2,3.31E2],"tree_param":{"num_deleted":"0","num_feature":"2","num_nodes":"15","size_leaf_vector":"1"}},{"base_weights":[1.413733E-2,2.3609178E-1,-1.19278185E-1,1.4095242E-1,3.0257661E0,-1.1942972E-2,-2.4332678E-1,2.5425712E-2,-1.9426563E-1,8.7603366E-1,3.1405473E-1,-6.092116E-2,7.9748165E-3,-3.4336884E-2,-6.589075E-2],"categories":[],"categories_nodes":[],"categories_segments":[],"categories_sizes":[],"default_left":[0,0,0,0,0,0,0,0,0,0,0,0,0,0,0],"id":31,"left_children":[1,3,5,7,9,11,13,-1,-1,-1,-1,-1,-1,-1,-1],"loss_changes":[6.5009575E1,2.170614E2,1.8061464E1,1.8786575E1,6.5833664E1,1.6970078E1,2.6825562E0,0E0,0E0,0E0,0E0,0E0,0E0,0E0,0E0],"parents":[2147483647,0,0,1,1,2,2,3,3,4,4,5,5,6,6],"right_children":[2,4,6,8,10,12,14,-1,-1,-1,-1,-1,-1,-1,-1],"split_conditions":[2.8E1,2.7633333E1,3.9083332E1,2.7416666E1,2.775E1,2.9283333E1,5.015E1,2.5425712E-2,-1.9426563E-1,8.7603366E-1,3.1405473E-1,-6.092116E-2,7.9748165E-3,-3.4336884E-2,-6.589075E-2],"split_indices":[1,1,1,1,1,1,1,0,0,0,0,0,0,0,0],"split_type":[0,0,0,0,0,0,0,0,0,0,0,0,0,0,0],"sum_hessian":[2.193E3,8.25E2,1.368E3,7.98E2,2.7E1,7.36E2,6.32E2,7.88E2,1E1,8E0,1.9E1,1.07E2,6.29E2,5.43E2,8.9E1],"tree_param":{"num_deleted":"0","num_feature":"2","num_nodes":"15","size_leaf_vector":"1"}},{"base_weights":[1.8765124E-2,1.4881098E-1,-1.6229233E-1,8.718167E-2,2.4202709E-1,-1.000858E-1,-2.6653093E-1,1.9805491E-2,-2.1124826E-1,2.7284765E-1,2.0352697E-2,-6.583547E-3,-1.841494E-2,-6.407773E-2,-4.0606823E-2],"categories":[],"categories_nodes":[],"categories_segments":[],"categories_sizes":[],"default_left":[0,0,0,0,0,0,0,0,0,0,0,0,0,0,0],"id":32,"left_children":[1,3,5,7,9,11,13,-1,-1,-1,-1,-1,-1,-1,-1],"loss_changes":[5.1133327E1,7.075447E0,5.654825E0,3.8744587E1,8.2908875E1,4.113202E-1,1.7906189E-1,0E0,0E0,0E0,0E0,0E0,0E0,0E0,0E0],"parents":[2147483647,0,0,1,1,2,2,3,3,4,4,5,5,6,6],"right_children":[2,4,6,8,10,12,14,-1,-1,-1,-1,-1,-1,-1,-1],"split_conditions":[3.4083332E1,2.7183332E1,4.3866665E1,2.7E1,2.775E1,3.62E1,4.4433334E1,1.9805491E-2,-2.1124826E-1,2.7284765E-1,2.0352697E-2,-6.583547E-3,-1.841494E-2,-6.407773E-2,-4.0606823E-2],"split_indices":[1,1,1,1,1,1,1,0,0,0,0,0,0,0,0],"split_type":[0,0,0,0,0,0,0,0,0,0,0,0,0,0,0],"sum_hessian":[2.172E3,1.266E3,9.06E2,7.66E2,5E2,5.71E2,3.35E2,7.47E2,1.9E1,3.6E1,4.64E2,1.24E2,4.47E2,2.5E1,3.1E2],"tree_param":{"num_deleted":"0","num_feature":"2","num_nodes":"15","size_leaf_vector":"1"}},{"base_weights":[-4.9786154E-2,-3.6246526E-1,3.5383326E-1,-6.4130056E-1,-2.09849E-1,1.2908106E-1,5.5563515E-1,-6.7300625E-2,-2.574732E-1,1.7680332E-1,-5.949418E-2,4.4562235E-2,1.377303E-2,7.931765E-2,1.2138392E-1],"categories":[],"categories_nodes":[],"categories_segments":[],"categories_sizes":[],"default_left":[0,0,0,0,0,0,0,0,0,0,0,0,0,0,0],"id":33,"left_children":[1,3,5,7,9,11,13,-1,-1,-1,-1,-1,-1,-1,-1],"loss_changes":[2.786622E2,5.2470047E1,4.326644E1,9.254796E1,1.7123427E2,2.717722E0,5.4006042E0,0E0,0E0,0E0,0E0,0E0,0E0,0E0,0E0],"parents":[2147483647,0,0,1,1,2,2,3,3,4,4,5,5,6,6],"right_children":[2,4,6,8,10,12,14,-1,-1,-1,-1,-1,-1,-1,-1],"split_conditions":[2.786E2,2.0166667E0,5.4913336E2,3.8333333E-1,7.766667E0,3.4016666E2,7.8238336E2,-6.7300625E-2,-2.574732E-1,1.7680332E-1,-5.949418E-2,4.4562235E-2,1.377303E-2,7.931765E-2,1.2138392E-1],"split_indices":[0,0,0,0,0,0,0,0,0,0,0,0,0,0,0],"split_type":[0,0,0,0,0,0,0,0,0,0,0,0,0,0,0],"sum_hessian":[2.208E3,1.245E3,9.63E2,4.39E2,8.06E2,4.57E2,5.06E2,3.58E2,8.1E1,8.8E1,7.18E2,9.9E1,3.58E2,3.93E2,1.13E2],"tree_param":{"num_deleted":"0","num_feature":"2","num_nodes":"15","size_leaf_vector":"1"}},{"base_weights":[8.195243E-3,1.1931828E-1,-2.2709787E-1,2.015531E-1,2.742922E-2,-1.9037658E-1,-3.946495E-1,2.4019467E-2,8.102352E-1,-2.910273E-1,2.4319122E-2,-7.572913E-2,-2.8734423E-2,-6.624902E-2,-1.349098E-2],"categories":[],"categories_nodes":[],"categories_segments":[],"categories_sizes":[],"default_left":[0,0,0,0,0,0,0,0,0,0,0,0,0,0,0],"id":34,"left_children":[1,3,5,7,9,11,13,-1,-1,-1,-1,-1,-1,-1,-1],"loss_changes":[5.67255E1,1.1023533E1,3.9251175E0,1.9093442E2,1.6022363E2,1.3569489E0,4.3572617E-1,0E0,0E0,0E0,0E0,0E0,0E0,0E0,0E0],"parents":[2147483647,0,0,1,1,2,2,3,3,4,4,5,5,6,6],"right_children":[2,4,6,8,10,12,14,-1,-1,-1,-1,-1,-1,-1,-1],"split_conditions":[3.7733334E1,2.73E1,4.885E1,2.7183332E1,2.7933332E1,3.8066666E1,5.5433334E1,2.4019467E-2,8.102352E-1,-2.910273E-1,2.4319122E-2,-7.572913E-2,-2.8734423E-2,-6.624902E-2,-1.349098E-2],"split_indices":[1,1,1,1,1,1,1,0,0,0,0,0,0,0,0],"split_type":[0,0,0,0,0,0,0,0,0,0,0,0,0,0,0],"sum_hessian":[2.172E3,1.477E3,6.95E2,7.76E2,7.01E2,5.73E2,1.22E2,7.68E2,8E0,4.4E1,6.57E2,1.9E1,5.54E2,1.13E2,9E0],"tree_param":{"num_deleted":"0","num_feature":"2","num_nodes":"15","size_leaf_vector":"1"}},{"base_weights":[-3.9413292E-2,1.23553075E-1,-1.3316326E-1,9.702584E-2,3.471704E-1,-1.959344E0,-8.466727E-2,1.9799566E-2,-1.634611E-1,-1.6188604E-1,-4.5977068E-1,4.0213218E-1,-1.7915675E-2],"categories":[],"categories_nodes":[],"categories_segments":[],"categories_sizes":[],"default_left":[0,0,0,0,0,0,0,0,0,0,0,0,0],"id":35,"left_children":[1,3,5,7,-1,9,11,-1,-1,-1,-1,-1,-1],"loss_changes":[3.373979E1,4.228235E1,1.23115265E2,2.319564E1,0E0,2.8854782E1,9.5605125E1,0E0,0E0,0E0,0E0,0E0,0E0],"parents":[2147483647,0,0,1,1,2,2,3,3,5,5,6,6],"right_children":[2,4,6,8,-1,10,12,-1,-1,-1,-1,-1,-1],"split_conditions":[2.73E1,2.7183332E1,2.7816668E1,2.7E1,3.471704E-1,2.7633333E1,2.8E1,1.9799566E-2,-1.634611E-1,-1.6188604E-1,-4.5977068E-1,4.0213218E-1,-1.7915675E-2],"split_indices":[1,1,1,1,0,1,1,0,0,0,0,0,0],"split_type":[0,0,0,0,0,0,0,0,0,0,0,0,0],"sum_hessian":[2.208E3,8.04E2,1.404E3,7.94E2,1E1,3.6E1,1.368E3,7.76E2,1.8E1,1.8E1,1.8E1,1.4E1,1.354E3],"tree_param":{"num_deleted":"0","num_feature":"2","num_nodes":"13","size_leaf_vector":"1"}},{"base_weights":[2.8556334E-3,-2.8186986E-1,3.5163188E-1,-4.1893137E-1,-1.8686303E-1,1.774177E-1,5.070174E-1,-3.917808E-2,-3.0741215E-1,4.2569232E-1,-4.6764106E-2,1.8122055E-2,3.98876E-2,6.0698733E-2,9.3760945E-2],"categories":[],"categories_nodes":[],"categories_segments":[],"categories_sizes":[],"default_left":[0,0,0,0,0,0,0,0,0,0,0,0,0,0,0],"id":36,"left_children":[1,3,5,7,9,11,13,-1,-1,-1,-1,-1,-1,-1,-1],"loss_changes":[2.1503825E2,1.5145462E1,2.5955864E1,1.2553718E2,2.1048926E2,1.9083357E0,4.5933075E0,0E0,0E0,0E0,0E0,0E0,0E0,0E0,0E0],"parents":[2147483647,0,0,1,1,2,2,3,3,4,4,5,5,6,6],"right_children":[2,4,6,8,10,12,14,-1,-1,-1,-1,-1,-1,-1,-1],"split_conditions":[2.7053333E2,5.2E0,5.4913336E2,2.2E0,7.766667E0,4.2698334E2,6.617E2,-3.917808E-2,-3.0741215E-1,4.2569232E-1,-4.6764106E-2,1.8122055E-2,3.98876E-2,6.0698733E-2,9.3760945E-2],"split_indices":[0,0,0,0,0,0,0,0,0,0,0,0,0,0,0],"split_type":[0,0,0,0,0,0,0,0,0,0,0,0,0,0,0],"sum_hessian":[2.165E3,1.191E3,9.74E2,4.85E2,7.06E2,4.61E2,5.13E2,4.35E2,5E1,2.5E1,6.81E2,2.48E2,2.13E2,1.99E2,3.14E2],"tree_param":{"num_deleted":"0","num_feature":"2","num_nodes":"15","size_leaf_vector":"1"}},{"base_weights":[1.7526668E-2,-2.3633657E-1,2.7547133E-1,-1.2831973E-1,-3.4951982E-1,1.5629113E-1,4.9793014E-1,-3.3007868E-2,8.330408E-1,-1.3043039E-1,-3.7158463E-2,2.5819596E-2,-5.370988E-2,6.926543E-2,1.1933478E-1],"categories":[],"categories_nodes":[],"categories_segments":[],"categories_sizes":[],"default_left":[0,0,0,0,0,0,0,0,0,0,0,0,0,0,0],"id":37,"left_children":[1,3,5,7,9,11,13,-1,-1,-1,-1,-1,-1,-1,-1],"loss_changes":[1.424483E2,1.3100441E1,2.824118E1,2.3121165E2,2.8425926E1,1.6578522E0,5.33757E0,0E0,0E0,0E0,0E0,0E0,0E0,0E0,0E0],"parents":[2147483647,0,0,1,1,2,2,3,3,4,4,5,5,6,6],"right_children":[2,4,6,8,10,12,14,-1,-1,-1,-1,-1,-1,-1,-1],"split_conditions":[2.1135E2,1.2633333E1,6.428E2,1.175E1,4.0133335E1,6.393E2,8.1455E2,-3.3007868E-2,8.330408E-1,-1.3043039E-1,-3.7158463E-2,2.5819596E-2,-5.370988E-2,6.926543E-2,1.1933478E-1],"split_indices":[0,0,0,0,0,0,0,0,0,0,0,0,0,0,0],"split_type":[0,0,0,0,0,0,0,0,0,0,0,0,0,0,0],"sum_hessian":[2.175E3,1.095E3,1.08E3,5.63E2,5.32E2,7.05E2,3.75E2,5.55E2,8E0,1.06E2,4.26E2,6.99E2,6E0,2.99E2,7.6E1],"tree_param":{"num_deleted":"0","num_feature":"2","num_nodes":"15","size_leaf_vector":"1"}},{"base_weights":[-2.8702315E-2,-2.650478E-1,2.2818124E-1,-3.8383707E-1,-1.6838E-1,1.35353E-1,4.2725027E-1,-5.3719383E-2,-3.7017292E-1,1.18794E0,-4.277152E-2,9.221663E-3,3.3960614E-2,2.896271E-1,6.325175E-2],"categories":[],"categories_nodes":[],"categories_segments":[],"categories_sizes":[],"default_left":[0,0,0,0,0,0,0,0,0,0,0,0,0,0,0],"id":38,"left_children":[1,3,5,7,9,11,13,-1,-1,-1,-1,-1,-1,-1,-1],"loss_changes":[1.3207349E2,1.2690498E1,1.8899319E1,4.536882E1,4.675014E2,4.0933695E0,1.3202782E1,0E0,0E0,0E0,0E0,0E0,0E0,0E0,0E0],"parents":[2147483647,0,0,1,1,2,2,3,3,4,4,5,5,6,6],"right_children":[2,4,6,8,10,12,14,-1,-1,-1,-1,-1,-1,-1,-1],"split_conditions":[2.3561667E2,7.0333333E0,6.659667E2,5.5E0,7.766667E0,4.502E2,6.7035E2,-5.3719383E-2,-3.7017292E-1,1.18794E0,-4.277152E-2,9.221663E-3,3.3960614E-2,2.896271E-1,6.325175E-2],"split_indices":[0,0,0,0,0,0,0,0,0,0,0,0,0,0,0],"split_type":[0,0,0,0,0,0,0,0,0,0,0,0,0,0,0],"sum_hessian":[2.175E3,1.134E3,1.041E3,5.06E2,6.28E2,7.12E2,3.29E2,4.94E2,1.2E1,8E0,6.2E2,3.58E2,3.54E2,7E0,3.22E2],"tree_param":{"num_deleted":"0","num_feature":"2","num_nodes":"15","size_leaf_vector":"1"}},{"base_weights":[-3.9051145E-2,-2.3384827E-1,1.5408203E-1,-1.2215556E-1,-3.2432285E-1,4.5751594E-2,2.4360177E-1,-4.318142E-2,7.004844E-1,-2.3062555E-1,-3.1506024E-2,-4.495361E-4,1.4214262E-2,1.2753755E-1,3.756737E-2],"categories":[],"categories_nodes":[],"categories_segments":[],"categories_sizes":[],"default_left":[0,0,0,0,0,0,0,0,0,0,0,0,0,0,0],"id":39,"left_children":[1,3,5,7,9,11,13,-1,-1,-1,-1,-1,-1,-1,-1],"loss_changes":[7.9806046E1,1.0413471E1,1.0135056E1,3.13982E2,8.170972E1,1.0643309E0,2.202919E0,0E0,0E0,0E0,0E0,0E0,0E0,0E0,0E0],"parents":[2147483647,0,0,1,1,2,2,3,3,4,4,5,5,6,6],"right_children":[2,4,6,8,10,12,14,-1,-1,-1,-1,-1,-1,-1,-1],"split_conditions":[1.9715E2,4E0,4.9706668E2,3.2333333E0,1.0866667E1,3.341E2,4.9971667E2,-4.318142E-2,7.004844E-1,-2.3062555E-1,-3.1506024E-2,-4.495361E-4,1.4214262E-2,1.2753755E-1,3.756737E-2],"split_indices":[0,0,0,0,0,0,0,0,0,0,0,0,0,0,0],"split_type":[0,0,0,0,0,0,0,0,0,0,0,0,0,0,0],"sum_hessian":[2.12E3,1.057E3,1.063E3,4.76E2,5.81E2,4.84E2,5.79E2,4.61E2,1.5E1,5.9E1,5.22E2,2.21E2,2.63E2,8E0,5.71E2],"tree_param":{"num_deleted":"0","num_feature":"2","num_nodes":"15","size_leaf_vector":"1"}},{"base_weights":[1.7166935E-2,2.2501369E-1,-3.1820476E-1,3.1771484E-1,8.2882665E-2,-2.4604198E-1,-5.249633E-1,4.3825574E-2,6.5616333E-1,-2.3607714E-1,2.4335522E-2,-2.8625289E-2,-4.8369236E-2,-7.724457E-2,-9.8907E-2],"categories":[],"categories_nodes":[],"categories_segments":[],"categories_sizes":[],"default_left":[0,0,0,0,0,0,0,0,0,0,0,0,0,0,0],"id":40,"left_children":[1,3,5,7,9,11,13,-1,-1,-1,-1,-1,-1,-1,-1],"loss_changes":[1.4953299E2,1.7230629E1,1.1772026E1,1.2995721E2,5.594096E1,2.0154495E0,1.6511917E-1,0E0,0E0,0E0,0E0,0E0,0E0,0E0,0E0],"parents":[2147483647,0,0,1,1,2,2,3,3,4,4,5,5,6,6],"right_children":[2,4,6,8,10,12,14,-1,-1,-1,-1,-1,-1,-1,-1],"split_conditions":[3.5316666E1,2.775E1,4.6216667E1,2.7633333E1,2.8E1,4.0333332E1,5.14E1,4.3825574E-2,6.5616333E-1,-2.3607714E-1,2.4335522E-2,-2.8625289E-2,-4.8369236E-2,-7.724457E-2,-9.8907E-2],"split_indices":[1,1,1,1,1,1,1,0,0,0,0,0,0,0,0],"split_type":[0,0,0,0,0,0,0,0,0,0,0,0,0,0,0],"sum_hessian":[2.146E3,1.326E3,8.2E2,8E2,5.26E2,6.1E2,2.1E2,7.91E2,9E0,2.2E1,5.04E2,2.83E2,3.27E2,1.49E2,6.1E1],"tree_param":{"num_deleted":"0","num_feature":"2","num_nodes":"15","size_leaf_vector":"1"}},{"base_weights":[-3.6109466E-2,-3.164805E-1,2.1788846E-1,-3.8487306E-1,-8.771506E-2,1.1497666E-1,3.4229934E-1,-3.5472002E-2,-1.1189238E-1,-0E0,-5.581494E-2,7.3766805E-2,1.6315635E-2,1.8189554E-1,5.2563895E-2],"categories":[],"categories_nodes":[],"categories_segments":[],"categories_sizes":[],"default_left":[0,0,0,0,0,0,0,0,0,0,0,0,0,0,0],"id":41,"left_children":[1,3,5,7,9,11,13,-1,-1,-1,-1,-1,-1,-1,-1],"loss_changes":[1.5480643E2,1.5894264E1,1.4308651E1,4.0187912E1,5.6983433E0,2.4793282E0,4.735512E0,0E0,0E0,0E0,0E0,0E0,0E0,0E0,0E0],"parents":[2147483647,0,0,1,1,2,2,3,3,4,4,5,5,6,6],"right_children":[2,4,6,8,10,12,14,-1,-1,-1,-1,-1,-1,-1,-1],"split_conditions":[1.7366667E2,7.46E1,5.5313336E2,7.766667E0,1.406E2,1.8261667E2,5.5785E2,-3.5472002E-2,-1.1189238E-1,-0E0,-5.581494E-2,7.3766805E-2,1.6315635E-2,1.8189554E-1,5.2563895E-2],"split_indices":[0,0,0,0,0,0,0,0,0,0,0,0,0,0,0],"split_type":[0,0,0,0,0,0,0,0,0,0,0,0,0,0,0],"sum_hessian":[2.173E3,1.034E3,1.139E3,7.94E2,2.4E2,6.26E2,5.13E2,5.24E2,2.7E2,1.78E2,6.2E1,2.1E1,6.05E2,8E0,5.05E2],"tree_param":{"num_deleted":"0","num_feature":"2","num_nodes":"15","size_leaf_vector":"1"}},{"base_weights":[3.0494552E-2,2.3614708E-1,-2.970553E-1,2.7490065E-1,1.4916128E-1,-1.3505271E-1,-3.7756374E-1,3.8670804E-2,3.5992393E-1,-4.245402E-2,3.0350175E-2,-8.20939E-2,-1.8090537E-2,-4.9311493E-2,-7.68758E-2],"categories":[],"categories_nodes":[],"categories_segments":[],"categories_sizes":[],"default_left":[0,0,0,0,0,0,0,0,0,0,0,0,0,0,0],"id":42,"left_children":[1,3,5,7,9,11,13,-1,-1,-1,-1,-1,-1,-1,-1],"loss_changes":[1.4721558E2,4.2761993E0,1.0674278E1,5.9160744E1,6.9931936E0,1.9682326E0,3.5243835E0,0E0,0E0,0E0,0E0,0E0,0E0,0E0,0E0],"parents":[2147483647,0,0,1,1,2,2,3,3,4,4,5,5,6,6],"right_children":[2,4,6,8,10,12,14,-1,-1,-1,-1,-1,-1,-1,-1],"split_conditions":[3.5316666E1,2.8833334E1,4.0166668E1,2.8616667E1,2.9283333E1,3.5616665E1,4.6216667E1,3.8670804E-2,3.5992393E-1,-4.245402E-2,3.0350175E-2,-8.20939E-2,-1.8090537E-2,-4.9311493E-2,-7.68758E-2],"split_indices":[1,1,1,1,1,1,1,0,0,0,0,0,0,0,0],"split_type":[0,0,0,0,0,0,0,0,0,0,0,0,0,0,0],"sum_hessian":[2.186E3,1.344E3,8.42E2,9.25E2,4.19E2,2.82E2,5.6E2,9.1E2,1.5E1,3.6E1,3.83E2,1.4E1,2.68E2,3.38E2,2.22E2],"tree_param":{"num_deleted":"0","num_feature":"2","num_nodes":"15","size_leaf_vector":"1"}},{"base_weights":[1.3196763E-2,1.9109598E-1,-2.3857424E-1,2.3460227E-1,7.473619E-2,-1.302539E-1,-3.661151E-1,3.319975E-2,4.7209522E-1,-1.7165782E-2,2.6926355E-2,-9.92847E-2,-1.9677041E-2,-5.009232E-2,-7.043305E-2],"categories":[],"categories_nodes":[],"categories_segments":[],"categories_sizes":[],"default_left":[0,0,0,0,0,0,0,0,0,0,0,0,0,0,0],"id":43,"left_children":[1,3,5,7,9,11,13,-1,-1,-1,-1,-1,-1,-1,-1],"loss_changes":[9.824047E1,6.3296814E0,1.2232628E1,6.678682E1,6.064809E0,1.3116722E0,1.1749153E0,0E0,0E0,0E0,0E0,0E0,0E0,0E0,0E0],"parents":[2147483647,0,0,1,1,2,2,3,3,4,4,5,5,6,6],"right_children":[2,4,6,8,10,12,14,-1,-1,-1,-1,-1,-1,-1,-1],"split_conditions":[3.4083332E1,2.8733334E1,4.2483334E1,2.8616667E1,3.0216667E1,3.4183334E1,4.7316666E1,3.319975E-2,4.7209522E-1,-1.7165782E-2,2.6926355E-2,-9.92847E-2,-1.9677041E-2,-5.009232E-2,-7.043305E-2],"split_indices":[1,1,1,1,1,1,1,0,0,0,0,0,0,0,0],"split_type":[0,0,0,0,0,0,0,0,0,0,0,0,0,0,0],"sum_hessian":[2.194E3,1.287E3,9.07E2,9.33E2,3.54E2,4.93E2,4.14E2,9.24E2,9E0,1.18E2,2.36E2,6E0,4.87E2,2.46E2,1.68E2],"tree_param":{"num_deleted":"0","num_feature":"2","num_nodes":"15","size_leaf_vector":"1"}},{"base_weights":[2.4819128E-2,-1.6843992E-1,2.1205741E-1,-4.8130877E-2,-2.761106E-1,1.09981224E-1,3.291457E-1,-2.5364313E-2,1.2200676E0,-2.4682005E-1,-3.316627E-2,7.62961E-3,2.5299218E-2,4.4116057E-2,8.206035E-2],"categories":[],"categories_nodes":[],"categories_segments":[],"categories_sizes":[],"default_left":[0,0,0,0,0,0,0,0,0,0,0,0,0,0,0],"id":44,"left_children":[1,3,5,7,9,11,13,-1,-1,-1,-1,-1,-1,-1,-1],"loss_changes":[7.742694E1,1.3419855E1,1.2740223E1,4.1823785E2,4.7064198E1,1.6278558E0,4.4735947E0,0E0,0E0,0E0,0E0,0E0,0E0,0E0,0E0],"parents":[2147483647,0,0,1,1,2,2,3,3,4,4,5,5,6,6],"right_children":[2,4,6,8,10,12,14,-1,-1,-1,-1,-1,-1,-1,-1],"split_conditions":[1.9715E2,7.766667E0,5.5313336E2,7.0333333E0,1.175E1,3.5996667E2,7.8238336E2,-2.5364313E-2,1.2200676E0,-2.4682005E-1,-3.316627E-2,7.62961E-3,2.5299218E-2,4.4116057E-2,8.206035E-2],"split_indices":[0,0,0,0,0,0,0,0,0,0,0,0,0,0,0],"split_type":[0,0,0,0,0,0,0,0,0,0,0,0,0,0,0],"sum_hessian":[2.139E3,1.051E3,1.088E3,4.99E2,5.52E2,5.84E2,5.04E2,4.92E2,7E0,2.8E1,5.24E2,2.6E2,3.24E2,3.93E2,1.11E2],"tree_param":{"num_deleted":"0","num_feature":"2","num_nodes":"15","size_leaf_vector":"1"}},{"base_weights":[-6.4134814E-2,2.1612781E-1,-1.6018482E-1,4.594118E-2,2.5673944E-1,-6.288067E-1,-6.726685E-2,-3.667229E-3,1.598341E-2,4.550508E-2,2.4343932E-2,-2.565551E-2,-3.9309344E-1,9.629157E-1,-1.5187487E-2],"categories":[],"categories_nodes":[],"categories_segments":[],"categories_sizes":[],"default_left":[0,0,0,0,0,0,0,0,0,0,0,0,0,0,0],"id":45,"left_children":[1,3,5,7,9,11,13,-1,-1,-1,-1,-1,-1,-1,-1],"loss_changes":[5.8246563E1,3.6266613E0,6.9861404E1,4.511668E-1,1.0170879E0,2.262207E2,2.2330621E2,0E0,0E0,0E0,0E0,0E0,0E0,0E0,0E0],"parents":[2147483647,0,0,1,1,2,2,3,3,4,4,5,5,6,6],"right_children":[2,4,6,8,10,12,14,-1,-1,-1,-1,-1,-1,-1,-1],"split_conditions":[2.4633333E1,1.5666667E1,2.7933332E1,1.3483334E1,2.3E1,2.7183332E1,2.8E1,-3.667229E-3,1.598341E-2,4.550508E-2,2.4343932E-2,-2.565551E-2,-3.9309344E-1,9.629157E-1,-1.5187487E-2],"split_indices":[1,1,1,1,1,1,1,0,0,0,0,0,0,0,0],"split_type":[0,0,0,0,0,0,0,0,0,0,0,0,0,0,0],"sum_hessian":[2.165E3,5.51E2,1.614E3,1.09E2,4.42E2,2.66E2,1.348E3,4.3E1,6.6E1,3.45E2,9.7E1,2.12E2,5.4E1,6E0,1.342E3],"tree_param":{"num_deleted":"0","num_feature":"2","num_nodes":"15","size_leaf_vector":"1"}},{"base_weights":[5.6352124E-2,-7.452605E-2,3.0978987E-1,-2.5083083E-1,8.676226E-3,2.670653E-1,4.6130475E-1,-2.9887885E-2,-2.3239669E-1,6.3174236E-1,-7.685566E-3,8.3176754E-2,4.0371183E-2,6.7906335E-2,1.6282746E-1],"categories":[],"categories_nodes":[],"categories_segments":[],"categories_sizes":[],"default_left":[0,0,0,0,0,0,0,0,0,0,0,0,0,0,0],"id":46,"left_children":[1,3,5,7,9,11,13,-1,-1,-1,-1,-1,-1,-1,-1],"loss_changes":[7.264961E1,2.1268597E1,4.392151E0,3.4718178E1,2.2040317E2,1.7172661E0,2.439186E0,0E0,0E0,0E0,0E0,0E0,0E0,0E0,0E0],"parents":[2147483647,0,0,1,1,2,2,3,3,4,4,5,5,6,6],"right_children":[2,4,6,8,10,12,14,-1,-1,-1,-1,-1,-1,-1,-1],"split_conditions":[4.2698334E2,3.2333333E0,7.6343335E2,2.2E0,4E0,4.4346667E2,9.1581665E2,-2.9887885E-2,-2.3239669E-1,6.3174236E-1,-7.685566E-3,8.3176754E-2,4.0371183E-2,6.7906335E-2,1.6282746E-1],"split_indices":[0,0,0,0,0,0,0,0,0,0,0,0,0,0,0],"split_type":[0,0,0,0,0,0,0,0,0,0,0,0,0,0,0],"sum_hessian":[2.186E3,1.44E3,7.46E2,4.64E2,9.76E2,5.85E2,1.61E2,4.41E2,2.3E1,1.4E1,9.62E2,3E1,5.55E2,1.52E2,9E0],"tree_param":{"num_deleted":"0","num_feature":"2","num_nodes":"15","size_leaf_vector":"1"}},{"base_weights":[2.9962279E-2,-1.2801537E-1,1.6505453E-1,-2.304527E-2,-2.6454586E-1,6.2167488E-2,2.6483202E-1,-2.6088852E-2,3.133952E-1,-9.800851E-2,-2.8330522E-2,2.530247E-2,3.9415695E-3,2.032204E-1,4.0277183E-2],"categories":[],"categories_nodes":[],"categories_segments":[],"categories_sizes":[],"default_left":[0,0,0,0,0,0,0,0,0,0,0,0,0,0,0],"id":47,"left_children":[1,3,5,7,9,11,13,-1,-1,-1,-1,-1,-1,-1,-1],"loss_changes":[4.618401E1,1.4087404E1,1.179427E1,1.5569151E2,1.2617029E1,1.9723616E0,6.856575E0,0E0,0E0,0E0,0E0,0E0,0E0,0E0,0E0],"parents":[2147483647,0,0,1,1,2,2,3,3,4,4,5,5,6,6],"right_children":[2,4,6,8,10,12,14,-1,-1,-1,-1,-1,-1,-1,-1],"split_conditions":[1.566E2,1.2633333E1,4.9706668E2,7.0333333E0,3.23E1,2.489E2,4.9971667E2,-2.6088852E-2,3.133952E-1,-9.800851E-2,-2.8330522E-2,2.530247E-2,3.9415695E-3,2.032204E-1,4.0277183E-2],"split_indices":[0,0,0,0,0,0,0,0,0,0,0,0,0,0,0],"split_type":[0,0,0,0,0,0,0,0,0,0,0,0,0,0,0],"sum_hessian":[2.163E3,9.95E2,1.168E3,5.65E2,4.3E2,5.78E2,5.9E2,5.28E2,3.7E1,8.5E1,3.45E2,1.58E2,4.2E2,7E0,5.83E2],"tree_param":{"num_deleted":"0","num_feature":"2","num_nodes":"15","size_leaf_vector":"1"}},{"base_weights":[-3.5554133E-2,-1.8364166E-1,1.5656397E-1,-3.195974E-1,-8.1739075E-2,1.1094734E-1,3.3015084E-1,-1.7830787E-2,-3.0562657E-1,6.266798E-1,-2.3239702E-2,7.194925E-2,1.6455257E-2,3.9280917E-2,7.010586E-2],"categories":[],"categories_nodes":[],"categories_segments":[],"categories_sizes":[],"default_left":[0,0,0,0,0,0,0,0,0,0,0,0,0,0,0],"id":48,"left_children":[1,3,5,7,9,11,13,-1,-1,-1,-1,-1,-1,-1,-1],"loss_changes":[6.254999E1,1.6980022E1,7.2974586E0,1.7426196E2,1.7879646E2,1.751502E0,1.3817444E0,0E0,0E0,0E0,0E0,0E0,0E0,0E0,0E0],"parents":[2147483647,0,0,1,1,2,2,3,3,4,4,5,5,6,6],"right_children":[2,4,6,8,10,12,14,-1,-1,-1,-1,-1,-1,-1,-1],"split_conditions":[2.891E2,7.0333333E0,7.277167E2,2.7833333E0,8.583333E0,2.9731668E2,8.032833E2,-1.7830787E-2,-3.0562657E-1,6.266798E-1,-2.3239702E-2,7.194925E-2,1.6455257E-2,3.9280917E-2,7.010586E-2],"split_indices":[0,0,0,0,0,0,0,0,0,0,0,0,0,0,0],"split_type":[0,0,0,0,0,0,0,0,0,0,0,0,0,0,0],"sum_hessian":[2.198E3,1.243E3,9.55E2,5.3E2,7.13E2,7.59E2,1.96E2,4.69E2,6.1E1,1.1E1,7.02E2,1.6E1,7.43E2,1.13E2,8.3E1],"tree_param":{"num_deleted":"0","num_feature":"2","num_nodes":"15","size_leaf_vector":"1"}},{"base_weights":[4.109136E-2,-2.5449697E-2,1.8725088E-1,-1.8349785E-1,2.0709598E-2,1.5961675E-1,5.716818E-2,-2.6203422E-2,-9.176551E-2,5.1691854E-1,-2.4339443E-3,8.125492E-2,2.2921972E-2],"categories":[],"categories_nodes":[],"categories_segments":[],"categories_sizes":[],"default_left":[0,0,0,0,0,0,0,0,0,0,0,0,0],"id":49,"left_children":[1,3,5,7,9,11,-1,-1,-1,-1,-1,-1,-1],"loss_changes":[2.1366987E1,1.1040759E1,2.9181957E0,2.1889772E0,1.3545822E2,2.9921904E0,0E0,0E0,0E0,0E0,0E0,0E0,0E0],"parents":[2147483647,0,0,1,1,2,2,3,3,4,4,5,5],"right_children":[2,4,6,8,10,12,-1,-1,-1,-1,-1,-1,-1],"split_conditions":[4.502E2,3E-1,8.032833E2,6.666667E-2,4.8333332E-1,4.6281668E2,5.716818E-2,-2.6203422E-2,-9.176551E-2,5.1691854E-1,-2.4339443E-3,8.125492E-2,2.2921972E-2],"split_indices":[0,0,0,0,0,0,0,0,0,0,0,0,0],"split_type":[0,0,0,0,0,0,0,0,0,0,0,0,0],"sum_hessian":[2.187E3,1.5E3,6.87E2,3.42E2,1.158E3,5.94E2,9.3E1,3.27E2,1.5E1,1.3E1,1.145E3,2.5E1,5.69E2],"tree_param":{"num_deleted":"0","num_feature":"2","num_nodes":"13","size_leaf_vector":"1"}},{"base_weights":[2.951192E-2,2.7680728E-1,-2.7593696E-1,1.9401318E-1,3.9898482E-1,-9.601673E-2,-4.2798334E-1,-5.892145E-4,3.4650464E-2,6.31114E-1,5.2863963E-2,-7.4162907E-3,-2.3873596E-2,-5.7737514E-2,-9.092556E-2],"categories":[],"categories_nodes":[],"categories_segments":[],"categories_sizes":[],"default_left":[0,0,0,0,0,0,0,0,0,0,0,0,0,0,0],"id":50,"left_children":[1,3,5,7,9,11,13,-1,-1,-1,-1,-1,-1,-1,-1],"loss_changes":[1.6429153E2,1.181324E1,2.627584E1,3.3378353E0,1.148846E2,1.0635648E0,4.3867416E0,0E0,0E0,0E0,0E0,0E0,0E0,0E0,0E0],"parents":[2147483647,0,0,1,1,2,2,3,3,4,4,5,5,6,6],"right_children":[2,4,6,8,10,12,14,-1,-1,-1,-1,-1,-1,-1,-1],"split_conditions":[3.2933334E1,2.64E1,4.0466667E1,1.4533334E1,2.6516666E1,3.675E1,4.7516666E1,-5.892145E-4,3.4650464E-2,6.31114E-1,5.2863963E-2,-7.4162907E-3,-2.3873596E-2,-5.7737514E-2,-9.092556E-2],"split_indices":[1,1,1,1,1,1,1,0,0,0,0,0,0,0,0],"split_type":[0,0,0,0,0,0,0,0,0,0,0,0,0,0,0],"sum_hessian":[2.175E3,1.203E3,9.72E2,7.2E2,4.83E2,4.47E2,5.25E2,7.1E1,6.49E2,9E0,4.74E2,2.37E2,2.1E2,3.58E2,1.67E2],"tree_param":{"num_deleted":"0","num_feature":"2","num_nodes":"15","size_leaf_vector":"1"}},{"base_weights":[-9.944302E-4,1.9005518E-1,-2.4288534E-1,2.5792846E-1,4.3759156E-2,-1.6073895E-1,-3.9954203E-1,3.625642E-2,6.103932E-1,-5.0455604E-2,3.0040668E-2,-1.5179651E-2,-3.7941907E-2,-5.5690873E-2,-9.8131634E-2],"categories":[],"categories_nodes":[],"categories_segments":[],"categories_sizes":[],"default_left":[0,0,0,0,0,0,0,0,0,0,0,0,0,0,0],"id":51,"left_children":[1,3,5,7,9,11,13,-1,-1,-1,-1,-1,-1,-1,-1],"loss_changes":[9.9898346E1,1.1794071E1,1.1953514E1,8.905647E1,1.983163E1,2.9659462E0,3.010521E0,0E0,0E0,0E0,0E0,0E0,0E0,0E0,0E0],"parents":[2147483647,0,0,1,1,2,2,3,3,4,4,5,5,6,6],"right_children":[2,4,6,8,10,12,14,-1,-1,-1,-1,-1,-1,-1,-1],"split_conditions":[3.3266666E1,2.8E1,4.3866665E1,2.7933332E1,2.9283333E1,3.9083332E1,5.14E1,3.625642E-2,6.103932E-1,-5.0455604E-2,3.0040668E-2,-1.5179651E-2,-3.7941907E-2,-5.5690873E-2,-9.8131634E-2],"split_indices":[1,1,1,1,1,1,1,0,0,0,0,0,0,0,0],"split_type":[0,0,0,0,0,0,0,0,0,0,0,0,0,0,0],"sum_hessian":[2.161E3,1.206E3,9.55E2,8.21E2,3.85E2,6.29E2,3.26E2,8.14E2,7E0,1.09E2,2.76E2,3.42E2,2.87E2,2.65E2,6.1E1],"tree_param":{"num_deleted":"0","num_feature":"2","num_nodes":"15","size_leaf_vector":"1"}},{"base_weights":[3.19636E-2,1.8739109E-1,-2.3767872E-1,2.6333058E-1,4.624286E-2,-1.2830049E-1,-3.1947497E-1,2.8714461E-2,1.1822198E-1,-1.5425875E-2,1.4513737E-2,-1.3131752E-2,-2.8480079E-2,-4.5659255E-2,-7.4008755E-2],"categories":[],"categories_nodes":[],"categories_segments":[],"categories_sizes":[],"default_left":[0,0,0,0,0,0,0,0,0,0,0,0,0,0,0],"id":52,"left_children":[1,3,5,7,9,11,13,-1,-1,-1,-1,-1,-1,-1,-1],"loss_changes":[9.171044E1,1.4713287E1,6.8797684E0,3.538328E1,3.0985823E0,6.3658714E-1,1.7666206E0,0E0,0E0,0E0,0E0,0E0,0E0,0E0,0E0],"parents":[2147483647,0,0,1,1,2,2,3,3,4,4,5,5,6,6],"right_children":[2,4,6,8,10,12,14,-1,-1,-1,-1,-1,-1,-1,-1],"split_conditions":[3.5816666E1,2.8833334E1,4.17E1,2.7183332E1,3.0216667E1,3.9083332E1,5.015E1,2.8714461E-2,1.1822198E-1,-1.5425875E-2,1.4513737E-2,-1.3131752E-2,-2.8480079E-2,-4.5659255E-2,-7.4008755E-2],"split_indices":[1,1,1,1,1,1,1,0,0,0,0,0,0,0,0],"split_type":[0,0,0,0,0,0,0,0,0,0,0,0,0,0,0],"sum_hessian":[2.189E3,1.39E3,7.99E2,9.01E2,4.89E2,3.45E2,4.54E2,7.67E2,1.34E2,1.13E2,3.76E2,1.85E2,1.6E2,3.7E2,8.4E1],"tree_param":{"num_deleted":"0","num_feature":"2","num_nodes":"15","size_leaf_vector":"1"}},{"base_weights":[2.1810465E-2,-1.1803334E-1,2.4910502E-1,-2.658999E-1,-6.445641E-2,1.3963619E-1,3.3780065E-1,-3.8567796E-2,-1.1253729E-1,4.2165294E-1,-2.0559417E-2,2.4686176E-2,-7.437918E-2,4.669139E-2,6.7287914E-2],"categories":[],"categories_nodes":[],"categories_segments":[],"categories_sizes":[],"default_left":[0,0,0,0,0,0,0,0,0,0,0,0,0,0,0],"id":53,"left_children":[1,3,5,7,9,11,13,-1,-1,-1,-1,-1,-1,-1,-1],"loss_changes":[7.0039055E1,1.0583948E1,7.869442E0,3.3361683E0,1.7173595E2,3.1706357E0,1.326561E0,0E0,0E0,0E0,0E0,0E0,0E0,0E0,0E0],"parents":[2147483647,0,0,1,1,2,2,3,3,4,4,5,5,6,6],"right_children":[2,4,6,8,10,12,14,-1,-1,-1,-1,-1,-1,-1,-1],"split_conditions":[3.5996667E2,3.8333333E-1,5.804167E2,1.1666667E-1,7.5E-1,5.762E2,7.5543335E2,-3.8567796E-2,-1.1253729E-1,4.2165294E-1,-2.0559417E-2,2.4686176E-2,-7.437918E-2,4.669139E-2,6.7287914E-2],"split_indices":[0,0,0,0,0,0,0,0,0,0,0,0,0,0,0],"split_type":[0,0,0,0,0,0,0,0,0,0,0,0,0,0,0],"sum_hessian":[2.201E3,1.361E3,8.4E2,3.59E2,1.002E3,3.79E2,4.61E2,3.41E2,1.8E1,2.3E1,9.79E2,3.71E2,8E0,3.01E2,1.6E2],"tree_param":{"num_deleted":"0","num_feature":"2","num_nodes":"15","size_leaf_vector":"1"}},{"base_weights":[-1.5876768E-2,-1.5843278E-1,2.1180503E-1,-3.4981623E-1,-6.669121E-2,1.2881587E-1,2.6792604E-1,-3.2066904E-2,-1.3827418E-1,4.859632E-1,-1.5161842E-2,2.3028571E-2,-9.960523E-2,1.08805284E-1,4.090284E-2],"categories":[],"categories_nodes":[],"categories_segments":[],"categories_sizes":[],"default_left":[0,0,0,0,0,0,0,0,0,0,0,0,0,0,0],"id":54,"left_children":[1,3,5,7,9,11,13,-1,-1,-1,-1,-1,-1,-1,-1],"loss_changes":[7.108216E1,2.3435596E1,3.6835175E0,3.2790962E1,7.7870514E1,3.6189246E0,1.9594841E0,0E0,0E0,0E0,0E0,0E0,0E0,0E0,0E0],"parents":[2147483647,0,0,1,1,2,2,3,3,4,4,5,5,6,6],"right_children":[2,4,6,8,10,12,14,-1,-1,-1,-1,-1,-1,-1,-1],"split_conditions":[3.5191666E2,2.0166667E0,5.4913336E2,1.1666667E-1,2.2E0,5.447167E2,5.5785E2,-3.2066904E-2,-1.3827418E-1,4.859632E-1,-1.5161842E-2,2.3028571E-2,-9.960523E-2,1.08805284E-1,4.090284E-2],"split_indices":[0,0,0,0,0,0,0,0,0,0,0,0,0,0,0],"split_type":[0,0,0,0,0,0,0,0,0,0,0,0,0,0,0],"sum_hessian":[2.191E3,1.349E3,8.42E2,4.35E2,9.14E2,3.44E2,4.98E2,3.38E2,9.7E1,8E0,9.06E2,3.38E2,6E0,1.3E1,4.85E2],"tree_param":{"num_deleted":"0","num_feature":"2","num_nodes":"15","size_leaf_vector":"1"}},{"base_weights":[-1.936053E-2,1.5007143E-1,-2.2245991E-1,2.0917565E-1,4.154931E-2,-1.3398686E-1,-3.4899378E-1,2.7269056E-2,5.964297E-1,-2.5099906E-1,2.3452964E-2,-1.1289479E-2,-2.8299801E-2,-4.9848203E-2,-8.93023E-2],"categories":[],"categories_nodes":[],"categories_segments":[],"categories_sizes":[],"default_left":[0,0,0,0,0,0,0,0,0,0,0,0,0,0,0],"id":55,"left_children":[1,3,5,7,9,11,13,-1,-1,-1,-1,-1,-1,-1,-1],"loss_changes":[7.361528E1,7.315592E0,1.0613983E1,9.990211E1,6.9167305E1,1.4183836E0,2.5948982E0,0E0,0E0,0E0,0E0,0E0,0E0,0E0,0E0],"parents":[2147483647,0,0,1,1,2,2,3,3,4,4,5,5,6,6],"right_children":[2,4,6,8,10,12,14,-1,-1,-1,-1,-1,-1,-1,-1],"split_conditions":[3.2933334E1,2.73E1,4.2483334E1,2.7183332E1,2.775E1,3.675E1,5.14E1,2.7269056E-2,5.964297E-1,-2.5099906E-1,2.3452964E-2,-1.1289479E-2,-2.8299801E-2,-4.9848203E-2,-8.93023E-2],"split_indices":[1,1,1,1,1,1,1,0,0,0,0,0,0,0,0],"split_type":[0,0,0,0,0,0,0,0,0,0,0,0,0,0,0],"sum_hessian":[2.138E3,1.164E3,9.74E2,7.5E2,4.14E2,5.76E2,3.98E2,7.42E2,8E0,2.5E1,3.89E2,2.38E2,3.38E2,3.4E2,5.8E1],"tree_param":{"num_deleted":"0","num_feature":"2","num_nodes":"15","size_leaf_vector":"1"}},{"base_weights":[-1.2213208E-2,1.5226017E-1,-1.96967E-1,5.808505E-2,3.392793E-1,-1.11394875E-1,-2.723577E-1,1.377861E-2,-1.3699806E-1,3.9703235E-1,2.463203E-2,-8.559607E-2,-1.5133224E-2,-3.5921175E-2,-5.4124612E-2],"categories":[],"categories_nodes":[],"categories_segments":[],"categories_sizes":[],"default_left":[0,0,0,0,0,0,0,0,0,0,0,0,0,0,0],"id":56,"left_children":[1,3,5,7,9,11,13,-1,-1,-1,-1,-1,-1,-1,-1],"loss_changes":[6.566292E1,1.9857496E1,6.34367E0,1.9042076E1,1.492814E2,3.0476246E0,1.3593636E0,0E0,0E0,0E0,0E0,0E0,0E0,0E0,0E0],"parents":[2147483647,0,0,1,1,2,2,3,3,4,4,5,5,6,6],"right_children":[2,4,6,8,10,12,14,-1,-1,-1,-1,-1,-1,-1,-1],"split_conditions":[3.2166668E1,2.7183332E1,4.0466667E1,2.7E1,2.775E1,3.2516666E1,4.6216667E1,1.377861E-2,-1.3699806E-1,3.9703235E-1,2.463203E-2,-8.559607E-2,-1.5133224E-2,-3.5921175E-2,-5.4124612E-2],"split_indices":[1,1,1,1,1,1,1,0,0,0,0,0,0,0,0],"split_type":[0,0,0,0,0,0,0,0,0,0,0,0,0,0,0],"sum_hessian":[2.16E3,1.141E3,1.019E3,7.61E2,3.8E2,4.81E2,5.38E2,7.39E2,2.2E1,3E1,3.5E2,1.7E1,4.64E2,3.17E2,2.21E2],"tree_param":{"num_deleted":"0","num_feature":"2","num_nodes":"15","size_leaf_vector":"1"}},{"base_weights":[-7.2259903E-3,1.3778447E-1,-1.336753E-1,1.1510846E-1,4.1491094E-1,-4.811628E-2,-2.1406452E-1,2.1646611E-2,-4.80531E-2,-6.665151E-2,-3.4018927E-3,-2.9288303E-2,-4.66299E-2],"categories":[],"categories_nodes":[],"categories_segments":[],"categories_sizes":[],"default_left":[0,0,0,0,0,0,0,0,0,0,0,0,0],"id":57,"left_children":[1,3,5,7,-1,9,11,-1,-1,-1,-1,-1,-1],"loss_changes":[3.984269E1,5.4610676E1,7.841833E0,8.294134E0,0E0,5.34758E0,1.1454201E0,0E0,0E0,0E0,0E0,0E0,0E0],"parents":[2147483647,0,0,1,1,2,2,3,3,5,5,6,6],"right_children":[2,4,6,8,-1,10,12,-1,-1,-1,-1,-1,-1],"split_conditions":[3.035E1,3.0216667E1,3.9383335E1,2.9616667E1,4.1491094E-1,3.0866667E1,4.7316666E1,2.1646611E-2,-4.80531E-2,-6.665151E-2,-3.4018927E-3,-2.9288303E-2,-4.66299E-2],"split_indices":[1,1,1,1,0,1,1,0,0,0,0,0,0],"split_type":[0,0,0,0,0,0,0,0,0,0,0,0,0],"sum_hessian":[2.173E3,1.01E3,1.163E3,1.001E3,9E0,5.67E2,5.96E2,9.56E2,4.5E1,3.7E1,5.3E2,4.31E2,1.65E2],"tree_param":{"num_deleted":"0","num_feature":"2","num_nodes":"13","size_leaf_vector":"1"}},{"base_weights":[-1.3129589E-2,-2.8494585E-1,1.747431E-1,-1.3901742E-1,-5.073662E-1,5.5053137E-2,3.1080693E-1,-3.4191553E-2,8.619074E-1,-2.6458016E-1,-6.0296997E-2,-6.558775E-4,1.5267958E-2,4.6077408E-2,1.1271637E-1],"categories":[],"categories_nodes":[],"categories_segments":[],"categories_sizes":[],"default_left":[0,0,0,0,0,0,0,0,0,0,0,0,0,0,0],"id":58,"left_children":[1,3,5,7,9,11,13,-1,-1,-1,-1,-1,-1,-1,-1],"loss_changes":[1.0985984E2,2.8174728E1,2.0463043E1,2.1685236E2,5.0692307E1,1.6739111E0,4.7235184E0,0E0,0E0,0E0,0E0,0E0,0E0,0E0,0E0],"parents":[2147483647,0,0,1,1,2,2,3,3,4,4,5,5,6,6],"right_children":[2,4,6,8,10,12,14,-1,-1,-1,-1,-1,-1,-1,-1],"split_conditions":[1.01166664E2,7.766667E0,4.8868332E2,7.0333333E0,1.2633333E1,2.397E2,8.466E2,-3.4191553E-2,8.619074E-1,-2.6458016E-1,-6.0296997E-2,-6.558775E-4,1.5267958E-2,4.6077408E-2,1.1271637E-1],"split_indices":[0,0,0,0,0,0,0,0,0,0,0,0,0,0,0],"split_type":[0,0,0,0,0,0,0,0,0,0,0,0,0,0,0],"sum_hessian":[2.15E3,8.8E2,1.27E3,5.33E2,3.47E2,6.78E2,5.92E2,5.26E2,7E0,3.5E1,3.12E2,2.69E2,4.09E2,5.61E2,3.1E1],"tree_param":{"num_deleted":"0","num_feature":"2","num_nodes":"15","size_leaf_vector":"1"}},{"base_weights":[-3.9182577E-2,-2.8483766E-1,1.0802231E-1,-9.8412134E-2,-4.9919334E-1,2.3751961E-2,2.5193584E-1,-2.3289558E-2,3.3400458E-1,-2.537551E-1,-5.315297E-2,-6.2504634E-3,8.887459E-3,1.2489354E-1,3.891402E-2],"categories":[],"categories_nodes":[],"categories_segments":[],"categories_sizes":[],"default_left":[0,0,0,0,0,0,0,0,0,0,0,0,0,0,0],"id":59,"left_children":[1,3,5,7,9,11,13,-1,-1,-1,-1,-1,-1,-1,-1],"loss_changes":[7.890228E1,3.2329834E1,1.634031E1,4.4078976E1,6.7629166E1,1.7295265E0,1.6914787E0,0E0,0E0,0E0,0E0,0E0,0E0,0E0,0E0],"parents":[2147483647,0,0,1,1,2,2,3,3,4,4,5,5,6,6],"right_children":[2,4,6,8,10,12,14,-1,-1,-1,-1,-1,-1,-1,-1],"split_conditions":[8.476667E1,2.2E0,5.5313336E2,2.0166667E0,5.2E0,2.0706667E2,5.5785E2,-2.3289558E-2,3.3400458E-1,-2.537551E-1,-5.315297E-2,-6.2504634E-3,8.887459E-3,1.2489354E-1,3.891402E-2],"split_indices":[0,0,0,0,0,0,0,0,0,0,0,0,0,0,0],"split_type":[0,0,0,0,0,0,0,0,0,0,0,0,0,0,0],"sum_hessian":[2.179E3,8.18E2,1.361E3,4.39E2,3.79E2,8.61E2,5E2,4.3E2,9E0,5E1,3.29E2,2.83E2,5.78E2,7E0,4.93E2],"tree_param":{"num_deleted":"0","num_feature":"2","num_nodes":"15","size_leaf_vector":"1"}},{"base_weights":[-3.754074E-2,-2.1091072E-1,1.657895E-1,-3.2824814E-1,-1.1516313E-1,8.508973E-2,2.613572E-1,-3.484476E-2,-2.5087717E-1,7.0897704E-1,-2.6407365E-2,1.4892297E-2,-6.1125915E-2,3.6550906E-2,6.418432E-2],"categories":[],"categories_nodes":[],"categories_segments":[],"categories_sizes":[],"default_left":[0,0,0,0,0,0,0,0,0,0,0,0,0,0,0],"id":60,"left_children":[1,3,5,7,9,11,13,-1,-1,-1,-1,-1,-1,-1,-1],"loss_changes":[7.750956E1,1.3080864E1,7.5815487E0,7.164974E1,1.4643558E2,1.8824062E0,1.7341976E0,0E0,0E0,0E0,0E0,0E0,0E0,0E0,0E0],"parents":[2147483647,0,0,1,1,2,2,3,3,4,4,5,5,6,6],"right_children":[2,4,6,8,10,12,14,-1,-1,-1,-1,-1,-1,-1,-1],"split_conditions":[2.566E2,7.0333333E0,5.804167E2,3.5833333E0,7.766667E0,5.762E2,8.1095E2,-3.484476E-2,-2.5087717E-1,7.0897704E-1,-2.6407365E-2,1.4892297E-2,-6.1125915E-2,3.6550906E-2,6.418432E-2],"split_indices":[0,0,0,0,0,0,0,0,0,0,0,0,0,0,0],"split_type":[0,0,0,0,0,0,0,0,0,0,0,0,0,0,0],"sum_hessian":[2.198E3,1.188E3,1.01E3,5.31E2,6.57E2,5.51E2,4.59E2,4.88E2,4.3E1,7E0,6.5E2,5.43E2,8E0,3.75E2,8.4E1],"tree_param":{"num_deleted":"0","num_feature":"2","num_nodes":"15","size_leaf_vector":"1"}},{"base_weights":[4.4486728E-3,-7.644151E-2,1.2940586E-1,-1.7533621E-1,-2.7210405E-2,6.158287E-2,1.887178E-1,-3.9208857E-3,-1.4415982E-1,2.7201787E-1,-1.7565586E-2,1.3039794E-2,-4.983109E-2,3.1105062E-2,-8.435829E-3],"categories":[],"categories_nodes":[],"categories_segments":[],"categories_sizes":[],"default_left":[0,0,0,0,0,0,0,0,0,0,0,0,0,0,0],"id":61,"left_children":[1,3,5,7,9,11,13,-1,-1,-1,-1,-1,-1,-1,-1],"loss_changes":[2.2026375E1,6.2954116E0,3.3013067E0,4.6946953E1,1.25133156E2,2.870839E0,7.0721436E-1,0E0,0E0,0E0,0E0,0E0,0E0,0E0,0E0],"parents":[2147483647,0,0,1,1,2,2,3,3,4,4,5,5,6,6],"right_children":[2,4,6,8,10,12,14,-1,-1,-1,-1,-1,-1,-1,-1],"split_conditions":[3.5191666E2,2.0166667E0,5.919167E2,4.8333332E-1,4E0,5.762E2,9.1581665E2,-3.9208857E-3,-1.4415982E-1,2.7201787E-1,-1.7565586E-2,1.3039794E-2,-4.983109E-2,3.1105062E-2,-8.435829E-3],"split_indices":[0,0,0,0,0,0,0,0,0,0,0,0,0,0,0],"split_type":[0,0,0,0,0,0,0,0,0,0,0,0,0,0,0],"sum_hessian":[2.176E3,1.318E3,8.58E2,4.34E2,8.84E2,4.05E2,4.53E2,3.6E2,7.4E1,4E1,8.44E2,3.86E2,1.9E1,4.45E2,8E0],"tree_param":{"num_deleted":"0","num_feature":"2","num_nodes":"15","size_leaf_vector":"1"}},{"base_weights":[-1.4588495E-3,-2.0554252E-1,5.498684E-2,-6.1028395E-2,-1.4846375E0,5.2302605E-1,2.6258826E-2,-2.7023051E-2,8.540618E-2,-1.6650815E-1,-2.700589E-1,-5.7721976E-3,2.162517E-2],"categories":[],"categories_nodes":[],"categories_segments":[],"categories_sizes":[],"default_left":[0,0,0,0,0,0,0,0,0,0,0,0,0],"id":62,"left_children":[1,3,5,7,9,-1,11,-1,-1,-1,-1,-1,-1],"loss_changes":[2.5329872E1,8.724476E1,1.5627603E2,2.7305847E1,2.6937485E0,0E0,1.159259E1,0E0,0E0,0E0,0E0,0E0,0E0],"parents":[2147483647,0,0,1,1,2,2,3,3,4,4,6,6],"right_children":[2,4,6,8,10,-1,12,-1,-1,-1,-1,-1,-1],"split_conditions":[3.2333333E0,1.3833333E0,4E0,3.8333333E-1,2.0166667E0,5.2302605E-1,4.8366666E2,-2.7023051E-2,8.540618E-2,-1.6650815E-1,-2.700589E-1,-5.7721976E-3,2.162517E-2],"split_indices":[0,0,0,0,0,0,0,0,0,0,0,0,0],"split_type":[0,0,0,0,0,0,0,0,0,0,0,0,0],"sum_hessian":[2.191E3,4.77E2,1.714E3,4.29E2,4.8E1,1.5E1,1.699E3,3.64E2,6.5E1,1.6E1,3.2E1,1.077E3,6.22E2],"tree_param":{"num_deleted":"0","num_feature":"2","num_nodes":"13","size_leaf_vector":"1"}},{"base_weights":[-7.108624E-2,-3.471769E-1,6.1064135E-2,-1.8377276E-2,-5.758113E-1,-5.4722473E-2,9.5808536E-2,-1.4007041E-1,-2.6929792E-2,5.167233E-2,-1.3759707E-2,1.0825932E-2,3.377234E-2],"categories":[],"categories_nodes":[],"categories_segments":[],"categories_sizes":[],"default_left":[0,0,0,0,0,0,0,0,0,0,0,0,0],"id":63,"left_children":[1,3,5,-1,7,9,11,-1,-1,-1,-1,-1,-1],"loss_changes":[7.901681E1,3.6819977E1,5.8981395E0,0E0,4.2352516E1,3.791235E0,3.4891977E0,0E0,0E0,0E0,0E0,0E0,0E0],"parents":[2147483647,0,0,1,1,2,2,4,4,5,5,6,6],"right_children":[2,4,6,-1,8,10,12,-1,-1,-1,-1,-1,-1],"split_conditions":[4.8033333E1,1.1666667E-1,1.7983333E2,-1.8377276E-2,1.0866667E1,5.3783333E1,7.1981665E2,-1.4007041E-1,-2.6929792E-2,5.167233E-2,-1.3759707E-2,1.0825932E-2,3.377234E-2],"split_indices":[0,0,0,0,0,0,0,0,0,0,0,0,0],"split_type":[0,0,0,0,0,0,0,0,0,0,0,0,0],"sum_hessian":[2.161E3,7.01E2,1.46E3,3.49E2,3.52E2,3.33E2,1.127E3,2.02E2,1.5E2,2.4E1,3.09E2,9.1E2,2.17E2],"tree_param":{"num_deleted":"0","num_feature":"2","num_nodes":"13","size_leaf_vector":"1"}},{"base_weights":[5.1118795E-2,1.6522627E-1,1.05668865E-2,9.913241E-2,9.9215025E-1,-3.1601414E-1,6.420627E-2,-1.2167382E-2,6.964466E-2,-7.1402155E-2,-3.0683046E-2,7.714125E-3,3.8547076E-2],"categories":[],"categories_nodes":[],"categories_segments":[],"categories_sizes":[],"default_left":[0,0,0,0,0,0,0,0,0,0,0,0,0],"id":64,"left_children":[1,3,5,7,-1,9,11,-1,-1,-1,-1,-1,-1],"loss_changes":[9.898693E0,2.2081392E2,2.7859566E1,3.3014874E1,0E0,3.242134E0,3.712502E0,0E0,0E0,0E0,0E0,0E0,0E0],"parents":[2147483647,0,0,1,1,2,2,3,3,5,5,6,6],"right_children":[2,4,6,8,-1,10,12,-1,-1,-1,-1,-1,-1],"split_conditions":[1.2633333E1,1.175E1,7.46E1,3.8333333E-1,9.9215025E-1,4.0133335E1,7.9186664E2,-1.2167382E-2,6.964466E-2,-7.1402155E-2,-3.0683046E-2,7.714125E-3,3.8547076E-2],"split_indices":[0,0,0,0,0,0,0,0,0,0,0,0,0],"split_type":[0,0,0,0,0,0,0,0,0,0,0,0,0],"sum_hessian":[2.162E3,5.63E2,1.599E3,5.57E2,6E0,2.24E2,1.375E3,3.65E2,1.92E2,1.07E2,1.17E2,1.264E3,1.11E2],"tree_param":{"num_deleted":"0","num_feature":"2","num_nodes":"13","size_leaf_vector":"1"}},{"base_weights":[2.1937836E-2,2.1733005E-1,-3.1881073E-1,3.446135E-1,2.5092104E-2,-2.5690094E-1,-4.814124E-1,4.3518513E-2,2.3119585E-1,-4.9622107E-2,1.2874353E-2,-3.2042176E-2,-4.920859E-2,-7.041166E-2,-9.225909E-2],"categories":[],"categories_nodes":[],"categories_segments":[],"categories_sizes":[],"default_left":[0,0,0,0,0,0,0,0,0,0,0,0,0,0,0],"id":65,"left_children":[1,3,5,7,9,11,13,-1,-1,-1,-1,-1,-1,-1,-1],"loss_changes":[1.450161E2,3.369181E1,7.5398636E0,6.5455986E1,1.014586E1,1.3506241E0,2.4011612E-1,0E0,0E0,0E0,0E0,0E0,0E0,0E0,0E0],"parents":[2147483647,0,0,1,1,2,2,3,3,4,4,5,5,6,6],"right_children":[2,4,6,8,10,12,14,-1,-1,-1,-1,-1,-1,-1,-1],"split_conditions":[3.5816666E1,2.8E1,4.6216667E1,2.7183332E1,2.8733334E1,4.0783333E1,5.14E1,4.3518513E-2,2.3119585E-1,-4.9622107E-2,1.2874353E-2,-3.2042176E-2,-4.920859E-2,-7.041166E-2,-9.225909E-2],"split_indices":[1,1,1,1,1,1,1,0,0,0,0,0,0,0,0],"split_type":[0,0,0,0,0,0,0,0,0,0,0,0,0,0,0],"sum_hessian":[2.179E3,1.386E3,7.93E2,8.32E2,5.54E2,5.77E2,2.16E2,7.81E2,5.1E1,7.7E1,4.77E2,2.78E2,2.99E2,1.55E2,6.1E1],"tree_param":{"num_deleted":"0","num_feature":"2","num_nodes":"15","size_leaf_vector":"1"}},{"base_weights":[1.4742408E-2,2.2567795E-1,-2.4367085E-1,2.5886083E-1,9.0886995E-2,-1.0538309E-1,-3.1704977E-1,2.8882526E-2,8.7380655E-2,-2.26847E-1,2.2108538E-2,-7.8035556E-3,-2.435503E-2,-4.047815E-2,-6.153133E-2],"categories":[],"categories_nodes":[],"categories_segments":[],"categories_sizes":[],"default_left":[0,0,0,0,0,0,0,0,0,0,0,0,0,0,0],"id":66,"left_children":[1,3,5,7,9,11,13,-1,-1,-1,-1,-1,-1,-1,-1],"loss_changes":[1.19853485E2,5.2111206E0,9.762032E0,2.1372368E1,1.6569696E1,7.9414415E-1,2.394432E0,0E0,0E0,0E0,0E0,0E0,0E0,0E0,0E0],"parents":[2147483647,0,0,1,1,2,2,3,3,4,4,5,5,6,6],"right_children":[2,4,6,8,10,12,14,-1,-1,-1,-1,-1,-1,-1,-1],"split_conditions":[3.3266666E1,2.9616667E1,3.8916668E1,2.7183332E1,2.9716667E1,3.5816666E1,4.4533333E1,2.8882526E-2,8.7380655E-2,-2.26847E-1,2.2108538E-2,-7.8035556E-3,-2.435503E-2,-4.047815E-2,-6.153133E-2],"split_indices":[1,1,1,1,1,1,1,0,0,0,0,0,0,0,0],"split_type":[0,0,0,0,0,0,0,0,0,0,0,0,0,0,0],"sum_hessian":[2.199E3,1.212E3,9.87E2,9.69E2,2.43E2,3.45E2,6.42E2,7.63E2,2.06E2,7E0,2.36E2,1.62E2,1.83E2,3.34E2,3.08E2],"tree_param":{"num_deleted":"0","num_feature":"2","num_nodes":"15","size_leaf_vector":"1"}},{"base_weights":[4.060281E-3,1.2548213E-1,-2.3214631E-1,2.148004E-1,5.844364E-2,-1.6939549E-1,-3.1000265E-1,1.3937985E-2,3.703111E-2,-3.7540443E-2,2.4081284E-2,-5.57157E-2,-2.5729088E-2,-4.476076E-2,-6.977891E-2],"categories":[],"categories_nodes":[],"categories_segments":[],"categories_sizes":[],"default_left":[0,0,0,0,0,0,0,0,0,0,0,0,0,0,0],"id":67,"left_children":[1,3,5,7,9,11,13,-1,-1,-1,-1,-1,-1,-1,-1],"loss_changes":[6.3348896E1,8.590162E0,3.3716354E0,1.1328926E0,2.2586956E1,3.3812332E-1,8.2933617E-1,0E0,0E0,0E0,0E0,0E0,0E0,0E0,0E0],"parents":[2147483647,0,0,1,1,2,2,3,3,4,4,5,5,6,6],"right_children":[2,4,6,8,10,12,14,-1,-1,-1,-1,-1,-1,-1,-1],"split_conditions":[3.675E1,2.5033333E1,4.3866665E1,1.4533334E1,2.7633333E1,3.7016666E1,5.14E1,1.3937985E-2,3.703111E-2,-3.7540443E-2,2.4081284E-2,-5.57157E-2,-2.5729088E-2,-4.476076E-2,-6.977891E-2],"split_indices":[1,1,1,1,1,1,1,0,0,0,0,0,0,0,0],"split_type":[0,0,0,0,0,0,0,0,0,0,0,0,0,0,0],"sum_hessian":[2.211E3,1.462E3,7.49E2,6.23E2,8.39E2,4.19E2,3.3E2,7.6E1,5.47E2,1.99E2,6.4E2,1.6E1,4.03E2,2.7E2,6E1],"tree_param":{"num_deleted":"0","num_feature":"2","num_nodes":"15","size_leaf_vector":"1"}},{"base_weights":[-0E0,1.3395216E-1,-1.6657048E-1,1.9824937E-1,3.0703714E-2,-9.8168425E-2,-2.4834713E-1,2.672176E-2,2.4069877E-1,-1.892925E-1,2.0242052E-2,-5.7300657E-2,-1.4076278E-2,-3.3021633E-2,-5.2378614E-2],"categories":[],"categories_nodes":[],"categories_segments":[],"categories_sizes":[],"default_left":[0,0,0,0,0,0,0,0,0,0,0,0,0,0,0],"id":68,"left_children":[1,3,5,7,9,11,13,-1,-1,-1,-1,-1,-1,-1,-1],"loss_changes":[4.8962368E1,7.948429E0,5.257126E0,2.947551E1,5.4139294E1,1.1524348E0,1.1420174E0,0E0,0E0,0E0,0E0,0E0,0E0,0E0,0E0],"parents":[2147483647,0,0,1,1,2,2,3,3,4,4,5,5,6,6],"right_children":[2,4,6,8,10,12,14,-1,-1,-1,-1,-1,-1,-1,-1],"split_conditions":[3.2933334E1,2.665E1,4.17E1,2.64E1,2.7033333E1,3.31E1,4.7516666E1,2.672176E-2,2.4069877E-1,-1.892925E-1,2.0242052E-2,-5.7300657E-2,-1.4076278E-2,-3.3021633E-2,-5.2378614E-2],"split_indices":[1,1,1,1,1,1,1,0,0,0,0,0,0,0,0],"split_type":[0,0,0,0,0,0,0,0,0,0,0,0,0,0,0],"sum_hessian":[2.195E3,1.218E3,9.77E2,7.47E2,4.71E2,5.36E2,4.41E2,7.3E2,1.7E1,3.4E1,4.37E2,1.8E1,5.18E2,2.93E2,1.48E2],"tree_param":{"num_deleted":"0","num_feature":"2","num_nodes":"15","size_leaf_vector":"1"}},{"base_weights":[3.1912133E-2,1.5245397E-1,-1.3964152E-1,1.76919E-1,4.793265E-2,-8.1766956E-2,-3.6566768E-2,2.55327E-2,3.030766E-1,-5.5141967E-2,1.2707277E-2,-7.171224E-2,-1.21466555E-2],"categories":[],"categories_nodes":[],"categories_segments":[],"categories_sizes":[],"default_left":[0,0,0,0,0,0,0,0,0,0,0,0,0],"id":69,"left_children":[1,3,5,7,9,11,-1,-1,-1,-1,-1,-1,-1],"loss_changes":[4.5109447E1,3.1458683E0,4.4341087E0,2.9587399E1,2.906442E0,8.603163E-1,0E0,0E0,0E0,0E0,0E0,0E0,0E0],"parents":[2147483647,0,0,1,1,2,2,3,3,4,4,5,5],"right_children":[2,4,6,8,10,12,-1,-1,-1,-1,-1,-1,-1],"split_conditions":[3.4083332E1,3.035E1,4.3633335E1,3.0216667E1,3.0566668E1,3.4183334E1,-3.6566768E-2,2.55327E-2,3.030766E-1,-5.5141967E-2,1.2707277E-2,-7.171224E-2,-1.21466555E-2],"split_indices":[1,1,1,1,1,1,0,0,0,0,0,0,0],"split_type":[0,0,0,0,0,0,0,0,0,0,0,0,0],"sum_hessian":[2.181E3,1.283E3,8.98E2,1.035E3,2.48E2,5.48E2,3.5E2,1.025E3,1E1,1.7E1,2.31E2,7E0,5.41E2],"tree_param":{"num_deleted":"0","num_feature":"2","num_nodes":"13","size_leaf_vector":"1"}},{"base_weights":[-3.517657E-2,-2.7384746E-1,1.9376929E-1,-3.5416564E-1,-1.8776387E-1,6.641453E-2,3.458135E-1,-4.617989E-2,-2.6512647E-1,3.2175118E-1,-3.9926287E-2,3.0795776E-3,1.8730672E-2,3.4449082E-2,6.0741577E-2],"categories":[],"categories_nodes":[],"categories_segments":[],"categories_sizes":[],"default_left":[0,0,0,0,0,0,0,0,0,0,0,0,0,0,0],"id":70,"left_children":[1,3,5,7,9,11,13,-1,-1,-1,-1,-1,-1,-1,-1],"loss_changes":[1.1977023E2,7.1005707E0,2.1381752E1,4.5969063E1,6.984443E1,1.3755744E0,1.8808899E0,0E0,0E0,0E0,0E0,0E0,0E0,0E0,0E0],"parents":[2147483647,0,0,1,1,2,2,3,3,4,4,5,5,6,6],"right_children":[2,4,6,8,10,12,14,-1,-1,-1,-1,-1,-1,-1,-1],"split_conditions":[1.9378334E2,1.0866667E1,5.5313336E2,7.766667E0,1.2633333E1,3.868E2,6.2293335E2,-4.617989E-2,-2.6512647E-1,3.2175118E-1,-3.9926287E-2,3.0795776E-3,1.8730672E-2,3.4449082E-2,6.0741577E-2],"split_indices":[0,0,0,0,0,0,0,0,0,0,0,0,0,0,0],"split_type":[0,0,0,0,0,0,0,0,0,0,0,0,0,0,0],"sum_hessian":[2.191E3,1.074E3,1.117E3,5.52E2,5.22E2,6.1E2,5.07E2,5.26E2,2.6E1,1.4E1,5.08E2,3.22E2,2.88E2,1.08E2,3.99E2],"tree_param":{"num_deleted":"0","num_feature":"2","num_nodes":"15","size_leaf_vector":"1"}},{"base_weights":[-3.7789304E-2,1.5162563E-1,-1.334895E-1,1.2749052E-1,1.0308297E0,-1.0340579E0,-7.191808E-2,2.7313186E-2,-1.320217E-2,2.8371018E-1,2.229114E-2,-9.593704E-2,-3.6129683E-1,6.1464006E-1,-1.4331586E-2],"categories":[],"categories_nodes":[],"categories_segments":[],"categories_sizes":[],"default_left":[0,0,0,0,0,0,0,0,0,0,0,0,0,0,0],"id":71,"left_children":[1,3,5,7,9,11,13,-1,-1,-1,-1,-1,-1,-1,-1],"loss_changes":[3.98505E1,1.4922703E1,8.04587E1,6.560211E0,1.1427084E1,4.774176E1,9.2400505E1,0E0,0E0,0E0,0E0,0E0,0E0,0E0,0E0],"parents":[2147483647,0,0,1,1,2,2,3,3,4,4,5,5,6,6],"right_children":[2,4,6,8,10,12,14,-1,-1,-1,-1,-1,-1,-1,-1],"split_conditions":[2.665E1,2.64E1,2.7933332E1,2.5033333E1,2.6516666E1,2.7633333E1,2.8E1,2.7313186E-2,-1.320217E-2,2.8371018E-1,2.229114E-2,-9.593704E-2,-3.6129683E-1,6.1464006E-1,-1.4331586E-2],"split_indices":[1,1,1,1,1,1,1,0,0,0,0,0,0,0,0],"split_type":[0,0,0,0,0,0,0,0,0,0,0,0,0,0,0],"sum_hessian":[2.199E3,7.36E2,1.463E3,7.17E2,1.9E1,9.3E1,1.37E3,5.97E2,1.2E2,1E1,9E0,6.9E1,2.4E1,6E0,1.364E3],"tree_param":{"num_deleted":"0","num_feature":"2","num_nodes":"15","size_leaf_vector":"1"}},{"base_weights":[2.2087613E-2,1.5961845E-1,-1.1104985E-1,9.9125415E-2,3.5104144E-1,-7.2327435E-2,-2.3551553E-1,2.0193975E-2,-5.839249E-2,6.2113357E-1,3.519213E-2,-3.5629263E-3,-1.567147E-2,-3.0074831E-2,-5.212639E-2],"categories":[],"categories_nodes":[],"categories_segments":[],"categories_sizes":[],"default_left":[0,0,0,0,0,0,0,0,0,0,0,0,0,0,0],"id":72,"left_children":[1,3,5,7,9,11,13,-1,-1,-1,-1,-1,-1,-1,-1],"loss_changes":[4.000098E1,1.2189718E1,5.1506042E0,1.0164533E1,1.1603778E2,1.0154123E0,8.0346394E-1,0E0,0E0,0E0,0E0,0E0,0E0,0E0,0E0],"parents":[2147483647,0,0,1,1,2,2,3,3,4,4,5,5,6,6],"right_children":[2,4,6,8,10,12,14,-1,-1,-1,-1,-1,-1,-1,-1],"split_conditions":[3.0566668E1,2.7633333E1,4.5166668E1,2.7E1,2.775E1,3.5316666E1,5.015E1,2.0193975E-2,-5.839249E-2,6.2113357E-1,3.519213E-2,-3.5629263E-3,-1.567147E-2,-3.0074831E-2,-5.212639E-2],"split_indices":[1,1,1,1,1,1,1,0,0,0,0,0,0,0,0],"split_type":[0,0,0,0,0,0,0,0,0,0,0,0,0,0,0],"sum_hessian":[2.183E3,1.076E3,1.107E3,8.2E2,2.56E2,8.48E2,2.59E2,7.76E2,4.4E1,9E0,2.47E2,2.95E2,5.53E2,1.74E2,8.5E1],"tree_param":{"num_deleted":"0","num_feature":"2","num_nodes":"15","size_leaf_vector":"1"}},{"base_weights":[2.1965712E-2,1.5838856E-1,-1.00755185E-1,1.4117339E-1,3.6487564E-1,-0E0,-1.473015E-1,1.2160886E-2,4.0368963E-2,-2.5632033E-2,7.52376E-3,-2.0867333E-2,-3.4062166E-2],"categories":[],"categories_nodes":[],"categories_segments":[],"categories_sizes":[],"default_left":[0,0,0,0,0,0,0,0,0,0,0,0,0],"id":73,"left_children":[1,3,5,7,-1,9,11,-1,-1,-1,-1,-1,-1],"loss_changes":[3.6331093E1,3.613845E1,5.4266434E0,7.1973743E0,0E0,2.6165166E0,6.6091347E-1,0E0,0E0,0E0,0E0,0E0,0E0],"parents":[2147483647,0,0,1,1,2,2,3,3,5,5,6,6],"right_children":[2,4,6,8,-1,10,12,-1,-1,-1,-1,-1,-1],"split_conditions":[3.035E1,3.0216667E1,3.5816666E1,2.575E1,3.6487564E-1,3.1483334E1,4.7516666E1,1.2160886E-2,4.0368963E-2,-2.5632033E-2,7.52376E-3,-2.0867333E-2,-3.4062166E-2],"split_indices":[1,1,1,1,0,1,1,0,0,0,0,0,0],"split_type":[0,0,0,0,0,0,0,0,0,0,0,0,0],"sum_hessian":[2.168E3,1.029E3,1.139E3,1.021E3,8E0,3.56E2,7.83E2,6.47E2,3.74E2,7.8E1,2.78E2,6.3E2,1.53E2],"tree_param":{"num_deleted":"0","num_feature":"2","num_nodes":"13","size_leaf_vector":"1"}},{"base_weights":[1.0545931E-2,-1.6637366E-1,2.0067406E-1,-2.6454192E-1,-1.1977098E-1,7.307709E-2,2.917276E-1,-4.025351E-2,-6.962643E-2,9.683537E-1,-2.7075449E-2,1.4542997E-2,-4.139128E-3,3.6446977E-2,6.1730754E-2],"categories":[],"categories_nodes":[],"categories_segments":[],"categories_sizes":[],"default_left":[0,0,0,0,0,0,0,0,0,0,0,0,0,0,0],"id":74,"left_children":[1,3,5,7,9,11,13,-1,-1,-1,-1,-1,-1,-1,-1],"loss_changes":[7.318189E1,4.9161777E0,1.1980186E1,3.794346E-1,2.3056479E2,8.1468916E-1,3.3013039E0,0E0,0E0,0E0,0E0,0E0,0E0,0E0,0E0],"parents":[2147483647,0,0,1,1,2,2,3,3,4,4,5,5,6,6],"right_children":[2,4,6,8,10,12,14,-1,-1,-1,-1,-1,-1,-1,-1],"split_conditions":[2.3561667E2,3.8333333E-1,4.8868332E2,6.666667E-2,4.8333332E-1,4.5996667E2,7.078333E2,-4.025351E-2,-6.962643E-2,9.683537E-1,-2.7075449E-2,1.4542997E-2,-4.139128E-3,3.6446977E-2,6.1730754E-2],"split_indices":[0,0,0,0,0,0,0,0,0,0,0,0,0,0,0],"split_type":[0,0,0,0,0,0,0,0,0,0,0,0,0,0,0],"sum_hessian":[2.175E3,1.125E3,1.05E3,3.58E2,7.67E2,4.4E2,6.1E2,3.36E2,2.2E1,6E0,7.61E2,3.78E2,6.2E1,3.67E2,2.43E2],"tree_param":{"num_deleted":"0","num_feature":"2","num_nodes":"15","size_leaf_vector":"1"}},{"base_weights":[1.4554356E-2,-1.6402708E-1,1.8552609E-1,-3.2941186E-1,-7.3166475E-2,1.08126365E-1,2.7695325E-1,-2.560664E-2,-5.0624096E-1,8.600232E-2,-3.4950968E-2,8.78136E-3,2.6585503E-2,1.01405144E-1,4.2622592E-2],"categories":[],"categories_nodes":[],"categories_segments":[],"categories_sizes":[],"default_left":[0,0,0,0,0,0,0,0,0,0,0,0,0,0,0],"id":75,"left_children":[1,3,5,7,9,11,13,-1,-1,-1,-1,-1,-1,-1,-1],"loss_changes":[6.672614E1,1.5792225E1,7.6804085E0,1.7852174E2,6.1112667E1,1.7490897E0,1.3782387E0,0E0,0E0,0E0,0E0,0E0,0E0,0E0,0E0],"parents":[2147483647,0,0,1,1,2,2,3,3,4,4,5,5,6,6],"right_children":[2,4,6,8,10,12,14,-1,-1,-1,-1,-1,-1,-1,-1],"split_conditions":[1.9715E2,6.666667E-1,5.5313336E2,3.8333333E-1,7.766667E0,3.868E2,5.6701666E2,-2.560664E-2,-5.0624096E-1,8.600232E-2,-3.4950968E-2,8.78136E-3,2.6585503E-2,1.01405144E-1,4.2622592E-2],"split_indices":[0,0,0,0,0,0,0,0,0,0,0,0,0,0,0],"split_type":[0,0,0,0,0,0,0,0,0,0,0,0,0,0,0],"sum_hessian":[2.185E3,1.067E3,1.118E3,3.76E2,6.91E2,6.09E2,5.09E2,3.55E2,2.1E1,1.32E2,5.59E2,3.23E2,2.86E2,1.3E1,4.96E2],"tree_param":{"num_deleted":"0","num_feature":"2","num_nodes":"15","size_leaf_vector":"1"}},{"base_weights":[-3.96796E-3,-1.602767E-1,1.05184734E-1,-6.261268E-2,-2.9403618E-1,6.039438E-2,2.1792649E-1,-2.8944926E-2,2.5603172E-1,-1.2225506E-1,-3.456329E-2,1.7742243E-3,1.4206194E-2,9.060844E-2,3.214279E-2],"categories":[],"categories_nodes":[],"categories_segments":[],"categories_sizes":[],"default_left":[0,0,0,0,0,0,0,0,0,0,0,0,0,0,0],"id":76,"left_children":[1,3,5,7,9,11,13,-1,-1,-1,-1,-1,-1,-1,-1],"loss_changes":[3.6868874E1,1.1412518E1,6.24113E0,1.0084186E2,1.309053E1,1.2168698E0,1.6582146E0,0E0,0E0,0E0,0E0,0E0,0E0,0E0,0E0],"parents":[2147483647,0,0,1,1,2,2,3,3,4,4,5,5,6,6],"right_children":[2,4,6,8,10,12,14,-1,-1,-1,-1,-1,-1,-1,-1],"split_conditions":[1.01166664E2,5.5E0,6.428E2,3.2333333E0,1.175E1,2.9228333E2,6.512E2,-2.8944926E-2,2.5603172E-1,-1.2225506E-1,-3.456329E-2,1.7742243E-3,1.4206194E-2,9.060844E-2,3.214279E-2],"split_indices":[0,0,0,0,0,0,0,0,0,0,0,0,0,0,0],"split_type":[0,0,0,0,0,0,0,0,0,0,0,0,0,0,0],"sum_hessian":[2.159E3,8.9E2,1.269E3,5.17E2,3.73E2,9.12E2,3.57E2,4.83E2,3.4E1,5.2E1,3.21E2,3.41E2,5.71E2,1.5E1,3.42E2],"tree_param":{"num_deleted":"0","num_feature":"2","num_nodes":"15","size_leaf_vector":"1"}},{"base_weights":[3.6810063E-2,-1.0059126E-2,2.0589302E-1,-1.4805374E-1,2.5576098E-2,1.8341295E-1,7.196919E-2,-2.1649975E-2,-5.2933607E-2,8.883557E-1,8.506783E-5,9.8435216E-2,2.7840938E-2],"categories":[],"categories_nodes":[],"categories_segments":[],"categories_sizes":[],"default_left":[0,0,0,0,0,0,0,0,0,0,0,0,0],"id":77,"left_children":[1,3,5,7,9,11,-1,-1,-1,-1,-1,-1,-1],"loss_changes":[1.7433146E1,8.472524E0,2.2355595E0,5.447383E-1,1.8407777E2,1.3097029E0,0E0,0E0,0E0,0E0,0E0,0E0,0E0],"parents":[2147483647,0,0,1,1,2,2,3,3,4,4,5,5],"right_children":[2,4,6,8,10,12,-1,-1,-1,-1,-1,-1,-1],"split_conditions":[5.7448334E2,3.8333333E-1,8.466E2,6.666667E-2,4.8333332E-1,5.762E2,7.196919E-2,-2.1649975E-2,-5.2933607E-2,8.883557E-1,8.506783E-5,9.8435216E-2,2.7840938E-2],"split_indices":[0,0,0,0,0,0,0,0,0,0,0,0,0],"split_type":[0,0,0,0,0,0,0,0,0,0,0,0,0],"sum_hessian":[2.185E3,1.708E3,4.77E2,3.54E2,1.354E3,4.39E2,3.8E1,3.34E2,2E1,6E0,1.348E3,8E0,4.31E2],"tree_param":{"num_deleted":"0","num_feature":"2","num_nodes":"13","size_leaf_vector":"1"}},{"base_weights":[-2.0770384E-2,-1.3057947E-1,9.249651E-2,3.0990483E-4,-2.4562547E-1,6.1294176E-2,1.928687E-1,-1.557447E-2,2.306911E-1,-3.176127E-1,-1.3352608E-2,2.6989249E-3,1.3008226E-2,3.1738628E-2,-0E0],"categories":[],"categories_nodes":[],"categories_segments":[],"categories_sizes":[],"default_left":[0,0,0,0,0,0,0,0,0,0,0,0,0,0,0],"id":78,"left_children":[1,3,5,7,9,11,13,-1,-1,-1,-1,-1,-1,-1,-1],"loss_changes":[2.7000294E1,1.6771553E1,3.1829176E0,7.315934E1,1.6519208E2,6.6727996E-1,2.579813E-1,0E0,0E0,0E0,0E0,0E0,0E0,0E0,0E0],"parents":[2147483647,0,0,1,1,2,2,3,3,4,4,5,5,6,6],"right_children":[2,4,6,8,10,12,14,-1,-1,-1,-1,-1,-1,-1,-1],"split_conditions":[2.0368333E2,5.5E0,7.0288336E2,3.2333333E0,1.175E1,3.5996667E2,9.1581665E2,-1.557447E-2,2.306911E-1,-3.176127E-1,-1.3352608E-2,2.6989249E-3,1.3008226E-2,3.1738628E-2,-0E0],"split_indices":[0,0,0,0,0,0,0,0,0,0,0,0,0,0,0],"split_type":[0,0,0,0,0,0,0,0,0,0,0,0,0,0,0],"sum_hessian":[2.169E3,1.104E3,1.065E3,5.14E2,5.9E2,8.17E2,2.48E2,4.81E2,3.3E1,5E1,5.4E2,2.63E2,5.54E2,2.41E2,7E0],"tree_param":{"num_deleted":"0","num_feature":"2","num_nodes":"15","size_leaf_vector":"1"}},{"base_weights":[-4.3516036E-2,-2.260148E-1,8.297525E-2,-8.641409E-2,-3.1979632E-1,5.4550715E-2,1.5410739E-1,-1.4571234E-2,-0E0,-4.523667E-1,-4.0053032E-2,3.5090584E-2,6.197268E-3,3.961096E-2,2.1685127E-2],"categories":[],"categories_nodes":[],"categories_segments":[],"categories_sizes":[],"default_left":[0,0,0,0,0,0,0,0,0,0,0,0,0,0,0],"id":79,"left_children":[1,3,5,7,9,11,13,-1,-1,-1,-1,-1,-1,-1,-1],"loss_changes":[4.9994514E1,1.1368847E1,2.4527264E0,1.6397285E-1,9.012196E1,2.2350783E0,3.9165306E-1,0E0,0E0,0E0,0E0,0E0,0E0,0E0,0E0],"parents":[2147483647,0,0,1,1,2,2,3,3,4,4,5,5,6,6],"right_children":[2,4,6,8,10,12,14,-1,-1,-1,-1,-1,-1,-1,-1],"split_conditions":[1.01166664E2,3.8333333E-1,6.428E2,1.1666667E-1,5.5E-1,1.406E2,6.73E2,-1.4571234E-2,-0E0,-4.523667E-1,-4.0053032E-2,3.5090584E-2,6.197268E-3,3.961096E-2,2.1685127E-2],"split_indices":[0,0,0,0,0,0,0,0,0,0,0,0,0,0,0],"split_type":[0,0,0,0,0,0,0,0,0,0,0,0,0,0,0],"sum_hessian":[2.162E3,8.87E2,1.275E3,3.59E2,5.28E2,9.17E2,3.58E2,3.43E2,1.6E1,1.4E1,5.14E2,7.7E1,8.4E2,5.4E1,3.04E2],"tree_param":{"num_deleted":"0","num_feature":"2","num_nodes":"15","size_leaf_vector":"1"}},{"base_weights":[1.5732426E-2,2.937739E-1,-1.4941846E-1,2.684197E-1,5.725687E-1,1.1825287E-3,-2.5117794E-1,3.872455E-2,1.7017679E-1,-3.611304E-2,1.0252429E-2,-2.865707E-2,-5.106861E-2],"categories":[],"categories_nodes":[],"categories_segments":[],"categories_sizes":[],"default_left":[0,0,0,0,0,0,0,0,0,0,0,0,0],"id":80,"left_children":[1,3,5,7,-1,9,11,-1,-1,-1,-1,-1,-1],"loss_changes":[9.936304E1,6.490108E1,2.0915476E1,1.6026375E1,0E0,7.666022E0,3.675663E0,0E0,0E0,0E0,0E0,0E0,0E0],"parents":[2147483647,0,0,1,1,2,2,3,3,5,5,6,6],"right_children":[2,4,6,8,-1,10,12,-1,-1,-1,-1,-1,-1],"split_conditions":[2.8E1,2.7933332E1,3.5816666E1,2.7633333E1,5.725687E-1,2.9283333E1,4.2483334E1,3.872455E-2,1.7017679E-1,-3.611304E-2,1.0252429E-2,-2.865707E-2,-5.106861E-2],"split_indices":[1,1,1,1,0,1,1,0,0,0,0,0,0],"split_type":[0,0,0,0,0,0,0,0,0,0,0,0,0],"sum_hessian":[2.162E3,8.07E2,1.355E3,8.01E2,6E0,5.44E2,8.11E2,7.76E2,2.5E1,1.16E2,4.28E2,3.98E2,4.13E2],"tree_param":{"num_deleted":"0","num_feature":"2","num_nodes":"13","size_leaf_vector":"1"}},{"base_weights":[-6.649394E-3,-9.085847E-2,1.3849974E-1,-4.2146207E-3,-1.4226665E-1,3.9499607E-2,1.6827169E-1,-1.2501095E-2,9.885999E-1,-1.8110405E-1,-1.5711216E-2,4.0814567E-2,-3.2474361E-3,4.0030498E-2,2.4231771E-2],"categories":[],"categories_nodes":[],"categories_segments":[],"categories_sizes":[],"default_left":[0,0,0,0,0,0,0,0,0,0,0,0,0,0,0],"id":81,"left_children":[1,3,5,7,9,11,13,-1,-1,-1,-1,-1,-1,-1,-1],"loss_changes":[2.6458384E1,6.0321865E0,2.2126474E0,2.3216586E2,3.668334E1,2.5644832E0,5.927868E-1,0E0,0E0,0E0,0E0,0E0,0E0,0E0,0E0],"parents":[2147483647,0,0,1,1,2,2,3,3,4,4,5,5,6,6],"right_children":[2,4,6,8,10,12,14,-1,-1,-1,-1,-1,-1,-1,-1],"split_conditions":[3.7528333E2,7.766667E0,4.8366666E2,7.0333333E0,1.2633333E1,4.0455E2,5.447167E2,-1.2501095E-2,9.885999E-1,-1.8110405E-1,-1.5711216E-2,4.0814567E-2,-3.2474361E-3,4.0030498E-2,2.4231771E-2],"split_indices":[0,0,0,0,0,0,0,0,0,0,0,0,0,0,0],"split_type":[0,0,0,0,0,0,0,0,0,0,0,0,0,0,0],"sum_hessian":[2.167E3,1.374E3,7.93E2,5.16E2,8.58E2,1.88E2,6.05E2,5.1E2,6E0,3.6E1,8.22E2,4.3E1,1.45E2,9.7E1,5.08E2],"tree_param":{"num_deleted":"0","num_feature":"2","num_nodes":"15","size_leaf_vector":"1"}},{"base_weights":[2.033044E-3,2.0018177E-1,-1.7500228E-1,1.3259207E-1,3.6793232E-1,-7.3080696E-2,-2.69155E-1,3.3418044E-2,-2.7858634E-2,3.8801166E-1,4.825013E-2,-2.9998869E-2,-8.365643E-3,-3.3753555E-2,-5.4387894E-2],"categories":[],"categories_nodes":[],"categories_segments":[],"categories_sizes":[],"default_left":[0,0,0,0,0,0,0,0,0,0,0,0,0,0,0],"id":82,"left_children":[1,3,5,7,9,11,13,-1,-1,-1,-1,-1,-1,-1,-1],"loss_changes":[7.743517E1,1.1525436E1,1.0964626E1,1.7471933E1,3.8913525E1,1.1932721E0,2.1487694E0,0E0,0E0,0E0,0E0,0E0,0E0,0E0,0E0],"parents":[2147483647,0,0,1,1,2,2,3,3,4,4,5,5,6,6],"right_children":[2,4,6,8,10,12,14,-1,-1,-1,-1,-1,-1,-1,-1],"split_conditions":[3.035E1,2.6933332E1,3.9383335E1,2.5033333E1,2.7E1,3.1483334E1,4.5166668E1,3.3418044E-2,-2.7858634E-2,3.8801166E-1,4.825013E-2,-2.9998869E-2,-8.365643E-3,-3.3753555E-2,-5.4387894E-2],"split_indices":[1,1,1,1,1,1,1,0,0,0,0,0,0,0,0],"split_type":[0,0,0,0,0,0,0,0,0,0,0,0,0,0,0],"sum_hessian":[2.207E3,1.043E3,1.164E3,7.46E2,2.97E2,5.62E2,6.02E2,5.99E2,1.47E2,9E0,2.88E2,8.2E1,4.8E2,3.35E2,2.67E2],"tree_param":{"num_deleted":"0","num_feature":"2","num_nodes":"15","size_leaf_vector":"1"}},{"base_weights":[-1.5017763E-2,-1.278927E-1,1.0980635E-1,4.3180827E-3,-2.3572983E-1,8.0468535E-2,2.0236167E-1,-1.4174001E-2,2.4866615E-1,-4.386413E-1,-1.7417485E-2,2.0774653E-2,1.066018E-2,3.536218E-2,-0E0],"categories":[],"categories_nodes":[],"categories_segments":[],"categories_sizes":[],"default_left":[0,0,0,0,0,0,0,0,0,0,0,0,0,0,0],"id":83,"left_children":[1,3,5,7,9,11,13,-1,-1,-1,-1,-1,-1,-1,-1],"loss_changes":[3.13882E1,1.6848322E1,2.6950178E0,7.632974E1,2.0429512E2,4.3297386E-1,8.9166355E-1,0E0,0E0,0E0,0E0,0E0,0E0,0E0,0E0],"parents":[2147483647,0,0,1,1,2,2,3,3,4,4,5,5,6,6],"right_children":[2,4,6,8,10,12,14,-1,-1,-1,-1,-1,-1,-1,-1],"split_conditions":[2.4306667E2,5.5E0,7.078333E2,3.2333333E0,8.583333E0,3.4016666E2,8.750333E2,-1.4174001E-2,2.4866615E-1,-4.386413E-1,-1.7417485E-2,2.0774653E-2,1.066018E-2,3.536218E-2,-0E0],"split_indices":[0,0,0,0,0,0,0,0,0,0,0,0,0,0,0],"split_type":[0,0,0,0,0,0,0,0,0,0,0,0,0,0,0],"sum_hessian":[2.227E3,1.172E3,1.055E3,5.24E2,6.48E2,8.06E2,2.49E2,4.94E2,3E1,3.1E1,6.17E2,1.67E2,6.39E2,2.27E2,2.2E1],"tree_param":{"num_deleted":"0","num_feature":"2","num_nodes":"15","size_leaf_vector":"1"}},{"base_weights":[-5.6199122E-2,-4.00383E-1,4.4069435E-2,-2.8330576E-1,-2.0035436E0,8.237628E-1,1.8734427E-2,-2.158122E-2,-1.1762317E-1,-3.9570734E-1,-2.7759893E-2,5.37156E-2,6.2007207E-1,-5.153391E-2,1.1297432E-2],"categories":[],"categories_nodes":[],"categories_segments":[],"categories_sizes":[],"default_left":[0,0,0,0,0,0,0,0,0,0,0,0,0,0,0],"id":84,"left_children":[1,3,5,7,9,11,13,-1,-1,-1,-1,-1,-1,-1,-1],"loss_changes":[7.4964226E1,9.059777E1,3.2601433E1,3.0125954E1,2.6773468E1,7.491931E1,2.856135E1,0E0,0E0,0E0,0E0,0E0,0E0,0E0,0E0],"parents":[2147483647,0,0,1,1,2,2,3,3,4,4,5,5,6,6],"right_children":[2,4,6,8,10,12,14,-1,-1,-1,-1,-1,-1,-1,-1],"split_conditions":[6.15E0,3.5833333E0,1.2633333E1,3.8333333E-1,5.5E0,1.175E1,7.46E1,-2.158122E-2,-1.1762317E-1,-3.9570734E-1,-2.7759893E-2,5.37156E-2,6.2007207E-1,-5.153391E-2,1.1297432E-2],"split_indices":[0,0,0,0,0,0,0,0,0,0,0,0,0,0,0],"split_type":[0,0,0,0,0,0,0,0,0,0,0,0,0,0,0],"sum_hessian":[2.166E3,4.9E2,1.676E3,4.57E2,3.3E1,5.2E1,1.624E3,3.45E2,1.12E2,2.6E1,7E0,4.5E1,7E0,2.13E2,1.411E3],"tree_param":{"num_deleted":"0","num_feature":"2","num_nodes":"15","size_leaf_vector":"1"}},{"base_weights":[2.7120749E-2,-2.4671728E-2,1.1053491E-1,5.1616676E-2,-7.790563E-2,6.287896E-2,1.4956944E-1,1.4780557E-3,5.127769E-1,-4.7984462E-2,-7.862442E-3,1.6721604E-2,-2.4778238E-2,4.613838E-2,2.1890227E-2],"categories":[],"categories_nodes":[],"categories_segments":[],"categories_sizes":[],"default_left":[0,0,0,0,0,0,0,0,0,0,0,0,0,0,0],"id":85,"left_children":[1,3,5,7,9,11,13,-1,-1,-1,-1,-1,-1,-1,-1],"loss_changes":[9.396167E0,5.4170756E0,1.4220991E0,7.049931E1,4.82261E0,3.4325678E0,5.433464E-1,0E0,0E0,0E0,0E0,0E0,0E0,0E0,0E0],"parents":[2147483647,0,0,1,1,2,2,3,3,4,4,5,5,6,6],"right_children":[2,4,6,8,10,12,14,-1,-1,-1,-1,-1,-1,-1,-1],"split_conditions":[3.5191666E2,1.2633333E1,5.804167E2,1.175E1,3.23E1,5.447167E2,6.0495E2,1.4780557E-3,5.127769E-1,-4.7984462E-2,-7.862442E-3,1.6721604E-2,-2.4778238E-2,4.613838E-2,2.1890227E-2],"split_indices":[0,0,0,0,0,0,0,0,0,0,0,0,0,0,0],"split_type":[0,0,0,0,0,0,0,0,0,0,0,0,0,0,0],"sum_hessian":[2.163E3,1.33E3,8.33E2,5.42E2,7.88E2,3.82E2,4.51E2,5.35E2,7E0,8.8E1,7E2,3.23E2,5.9E1,3.4E1,4.17E2],"tree_param":{"num_deleted":"0","num_feature":"2","num_nodes":"15","size_leaf_vector":"1"}},{"base_weights":[6.39625E-3,-6.1434656E-2,6.7533895E-2,6.053107E-2,-1.718512E-1,4.0346064E-2,1.3326606E-1,-1.8173549E-3,4.1008598E-1,-2.0456426E-1,-1.1909245E-2,2.7540252E-2,5.0706705E-3,4.835739E-2,1.8446721E-2],"categories":[],"categories_nodes":[],"categories_segments":[],"categories_sizes":[],"default_left":[0,0,0,0,0,0,0,0,0,