{"learner":{"attributes":{"scikit_learn":"{\"_estimator_type\": \"regressor\"}"},"feature_names":[],"feature_types":[],"gradient_booster":{"model":{"cats":{"enc":[],"feature_segments":[],"sorted_idx":[]},"gbtree_model_param":{"num_parallel_tree":"1","num_trees":"200"},"iteration_indptr":[0,1,2,3,4,5,6,7,8,9,10,11,12,13,14,15,16,17,18,19,20,21,22,23,24,25,26,27,28,29,30,31,32,33,34,35,36,37,38,39,40,41,42,43,44,45,46,47,48,49,50,51,52,53,54,55,56,57,58,59,60,61,62,63,64,65,66,67,68,69,70,71,72,73,74,75,76,77,78,79,80,81,82,83,84,85,86,87,88,89,90,91,92,93,94,95,96,97,98,99,100,101,102,103,104,105,106,107,108,109,110,111,112,113,114,115,116,117,118,119,120,121,122,123,124,125,126,127,128,129,130,131,132,133,134,135,136,137,138,139,140,141,142,143,144,145,146,147,148,149,150,151,152,153,154,155,156,157,158,159,160,161,162,163,164,165,166,167,168,169,170,171,172,173,174,175,176,177,178,179,180,181,182,183,184,185,186,187,188,189,190,191,192,193,194,195,196,197,198,199,200],"tree_info":[0,0,0,0,0,0,0,0,0,0,0,0,0,0,0,0,0,0,0,0,0,0,0,0,0,0,0,0,0,0,0,0,0,0,0,0,0,0,0,0,0,0,0,0,0,0,0,0,0,0,0,0,0,0,0,0,0,0,0,0,0,0,0,0,0,0,0,0,0,0,0,0,0,0,0,0,0,0,0,0,0,0,0,0,0,0,0,0,0,0,0,0,0,0,0,0,0,0,0,0,0,0,0,0,0,0,0,0,0,0,0,0,0,0,0,0,0,0,0,0,0,0,0,0,0,0,0,0,0,0,0,0,0,0,0,0,0,0,0,0,0,0,0,0,0,0,0,0,0,0,0,0,0,0,0,0,0,0,0,0,0,0,0,0,0,0,0,0,0,0,0,0,0,0,0,0,0,0,0,0,0,0,0,0,0,0,0,0,0,0,0,0,0,0,0,0,0,0,0,0],"trees":[{"base_weights":[5.902388E-2,-3.7283762E0,4.0651383E0,-4.924666E0,-1.541664E0,2.025773E0,5.6324897E0,-4.3314898E-1,-3.2859924E-1,-2.4292965E0,-6.558362E-1,1.0685772E0,2.861108E0,4.844128E0,5.317367E-1,-2.2434977E-1,-1.5431982E-1,-9.519883E-1,-2.3629119E-1,7.155242E-1,1.2814903E-1,1.8981224E-1,2.563123E-1,3.4600532E-1,4.171996E-1,-9.459559E-2,-5.7839982E-2,-2.5088234E-2,-2.621124E-3,3.25523E-2,7.280099E-2],"categories":[],"categories_nodes":[],"categories_segments":[],"categories_sizes":[],"default_left":[0,0,0,0,0,0,0,0,0,0,0,0,0,0,0,0,0,0,0,0,0,0,0,0,0,0,0,0,0,0,0],"id":0,"left_children":[1,3,5,7,9,11,13,-1,-1,15,17,19,21,23,-1,-1,-1,25,27,29,-1,-1,-1,-1,-1,-1,-1,-1,-1,-1,-1],"loss_changes":[2.980554E4,2.6245283E3,3.0276123E3,2.1726953E2,2.7826874E2,3.264292E2,3.690996E2,0E0,0E0,2.1496704E1,2.1604942E1,3.3883667E1,2.0852661E1,1.5549805E1,0E0,0E0,0E0,2.9813766E0,1.0130596E0,5.945179E0,0E0,0E0,0E0,0E0,0E0,0E0,0E0,0E0,0E0,0E0,0E0],"parents":[2147483647,0,0,1,1,2,2,3,3,4,4,5,5,6,6,9,9,10,10,11,11,12,12,13,13,17,17,18,18,19,19],"right_children":[2,4,6,8,10,12,14,-1,-1,16,18,20,22,24,-1,-1,-1,26,28,30,-1,-1,-1,-1,-1,-1,-1,-1,-1,-1,-1],"split_conditions":[3.1431668E2,1.252E2,5.487167E2,4.715E1,2.1938333E2,4.2478333E2,7.2138336E2,-4.3314898E-1,-3.2859924E-1,1.7391667E2,2.7398334E2,3.8516666E2,4.7963333E2,6.3376666E2,5.317367E-1,-2.2434977E-1,-1.5431982E-1,2.4771666E2,3.7816666E1,3.467E2,1.2814903E-1,1.8981224E-1,2.563123E-1,3.4600532E-1,4.171996E-1,-9.459559E-2,-5.7839982E-2,-2.5088234E-2,-2.621124E-3,3.25523E-2,7.280099E-2],"split_indices":[0,0,0,0,0,0,0,0,0,0,0,0,0,0,0,0,0,0,1,0,0,0,0,0,0,0,0,0,0,0,0],"split_type":[0,0,0,0,0,0,0,0,0,0,0,0,0,0,0,0,0,0,0,0,0,0,0,0,0,0,0,0,0,0,0],"sum_hessian":[1.961E3,1.008E3,9.53E2,6.5E2,3.58E2,4.16E2,5.37E2,4E2,2.5E2,1.77E2,1.81E2,1.96E2,2.2E2,3.08E2,2.29E2,9.6E1,8.1E1,1.04E2,7.7E1,1.21E2,7.5E1,9.7E1,1.23E2,1.38E2,1.7E2,4.7E1,5.7E1,5.3E1,2.4E1,5E1,7.1E1],"tree_param":{"num_deleted":"0","num_feature":"2","num_nodes":"31","size_leaf_vector":"1"}},{"base_weights":[-4.3754716E-4,-3.4141164E0,3.827403E0,-4.505383E0,-1.2467042E0,1.9392807E0,5.1988745E0,-3.9540592E-1,-3.6788983E0,-2.0990813E0,-5.5109817E-1,1.0793743E0,2.6328466E0,4.45659E0,4.8908642E-1,-3.08203E-1,-2.4486797E-1,-2.0473203E-1,-1.4507607E-1,-9.115773E-1,-1.7119886E-1,7.4306476E-1,1.1756211E-1,1.8218149E-1,2.4488266E-1,3.1446573E-1,3.8086802E-1,-8.821802E-2,-5.6425188E-2,-1.8785086E-2,8.39837E-3,-0E0,6.334589E-2],"categories":[],"categories_nodes":[],"categories_segments":[],"categories_sizes":[],"default_left":[0,0,0,0,0,0,0,0,0,0,0,0,0,0,0,0,0,0,0,0,0,0,0,0,0,0,0,0,0,0,0,0,0],"id":1,"left_children":[1,3,5,7,9,11,13,-1,15,17,19,21,23,25,-1,-1,-1,-1,-1,27,29,31,-1,-1,-1,-1,-1,-1,-1,-1,-1,-1,-1],"loss_changes":[2.5551E4,2.4319326E3,2.3653252E3,2.1204102E2,2.0319409E2,2.2595581E2,3.0902832E2,0E0,2.0664062E0,9.947388E0,2.5748371E1,2.0132492E1,1.7635498E1,1.1074219E1,0E0,0E0,0E0,0E0,0E0,1.484375E0,1.8362994E0,3.699585E0,0E0,0E0,0E0,0E0,0E0,0E0,0E0,0E0,0E0,0E0,0E0],"parents":[2147483647,0,0,1,1,2,2,3,3,4,4,5,5,6,6,8,8,9,9,10,10,11,11,12,12,13,13,19,19,20,20,21,21],"right_children":[2,4,6,8,10,12,14,-1,16,18,20,22,24,26,-1,-1,-1,-1,-1,28,30,32,-1,-1,-1,-1,-1,-1,-1,-1,-1,-1,-1],"split_conditions":[3.1986667E2,1.3675E2,5.487167E2,5.4616665E1,2.1938333E2,4.2478333E2,7.2138336E2,-3.9540592E-1,1.044E2,1.6543333E2,2.7398334E2,3.8516666E2,4.9483334E2,6.241667E2,4.8908642E-1,-3.08203E-1,-2.4486797E-1,-2.0473203E-1,-1.4507607E-1,2.4771666E2,3.1431668E2,2.4766666E1,1.1756211E-1,1.8218149E-1,2.4488266E-1,3.1446573E-1,3.8086802E-1,-8.821802E-2,-5.6425188E-2,-1.8785086E-2,8.39837E-3,-0E0,6.334589E-2],"split_indices":[0,0,0,0,0,0,0,0,0,0,0,0,0,0,0,0,0,0,0,0,0,1,0,0,0,0,0,0,0,0,0,0,0],"split_type":[0,0,0,0,0,0,0,0,0,0,0,0,0,0,0,0,0,0,0,0,0,0,0,0,0,0,0,0,0,0,0,0,0],"sum_hessian":[1.952E3,1.032E3,9.2E2,6.85E2,3.47E2,3.89E2,5.31E2,4.42E2,2.43E2,1.54E2,1.93E2,1.76E2,2.13E2,2.99E2,2.32E2,1.82E2,6.1E1,5.3E1,1.01E2,9.7E1,9.6E1,9.8E1,7.8E1,1.23E2,9E1,1.19E2,1.8E2,4.5E1,5.2E1,8E1,1.6E1,6E0,9.2E1],"tree_param":{"num_deleted":"0","num_feature":"2","num_nodes":"33","size_leaf_vector":"1"}},{"base_weights":[-1.1680016E-2,-3.1293972E0,3.4803333E0,-4.040728E0,-1.030463E0,1.7434715E0,4.7587724E0,-3.6572817E-1,-3.253057E0,-1.6647936E0,-4.0126622E-1,1.0049596E0,2.431109E0,4.12738E0,4.5570812E-1,-2.7972496E-1,-2.1645314E-1,-1.526806E-1,-9.9670045E-2,-6.612087E-1,-1.04749635E-1,6.588224E-1,1.1304138E-1,1.6174816E-1,2.162212E-1,2.961373E-1,3.5834122E-1,-6.3249126E-2,-3.87402E-2,-1.601747E-2,8.145545E-3,5.9516206E-3,5.7423245E-2],"categories":[],"categories_nodes":[],"categories_segments":[],"categories_sizes":[],"default_left":[0,0,0,0,0,0,0,0,0,0,0,0,0,0,0,0,0,0,0,0,0,0,0,0,0,0,0,0,0,0,0,0,0],"id":2,"left_children":[1,3,5,7,9,11,13,-1,15,17,19,21,23,25,-1,-1,-1,-1,-1,27,29,31,-1,-1,-1,-1,-1,-1,-1,-1,-1,-1,-1],"loss_changes":[2.111426E4,1.9499482E3,2.0130586E3,2.6845996E2,1.2242917E2,1.921936E2,2.653418E2,0E0,1.9343994E1,9.859467E0,1.1731916E1,2.4250793E1,1.0188721E1,1.4939941E1,0E0,0E0,0E0,0E0,0E0,5.008774E-1,1.626008E0,3.145527E0,0E0,0E0,0E0,0E0,0E0,0E0,0E0,0E0,0E0,0E0,0E0],"parents":[2147483647,0,0,1,1,2,2,3,3,4,4,5,5,6,6,8,8,9,9,10,10,11,11,12,12,13,13,19,19,20,20,21,21],"right_children":[2,4,6,8,10,12,14,-1,16,18,20,22,24,26,-1,-1,-1,-1,-1,28,30,32,-1,-1,-1,-1,-1,-1,-1,-1,-1,-1,-1],"split_conditions":[3.1986667E2,1.543E2,5.487167E2,5.065E1,2.4066667E2,4.3001666E2,7.283333E2,-3.6572817E-1,1.08183334E2,1.9896666E2,2.8243332E2,3.8516666E2,4.7963333E2,6.425833E2,4.5570812E-1,-2.7972496E-1,-2.1645314E-1,-1.526806E-1,-9.9670045E-2,3.4816666E1,3.7533333E1,2.52E1,1.1304138E-1,1.6174816E-1,2.162212E-1,2.961373E-1,3.5834122E-1,-6.3249126E-2,-3.87402E-2,-1.601747E-2,8.145545E-3,5.9516206E-3,5.7423245E-2],"split_indices":[0,0,0,0,0,0,0,0,0,0,0,0,0,0,0,0,0,0,0,1,1,1,0,0,0,0,0,0,0,0,0,0,0],"split_type":[0,0,0,0,0,0,0,0,0,0,0,0,0,0,0,0,0,0,0,0,0,0,0,0,0,0,0,0,0,0,0,0,0],"sum_hessian":[1.936E3,1.023E3,9.13E2,7.12E2,3.11E2,3.89E2,5.24E2,4.2E2,2.92E2,1.53E2,1.58E2,1.9E2,1.99E2,3.19E2,2.05E2,1.95E2,9.7E1,9.2E1,6.1E1,8.2E1,7.6E1,1.06E2,8.4E1,8.6E1,1.13E2,1.54E2,1.65E2,4.2E1,4E1,5.4E1,2.2E1,1.1E1,9.5E1],"tree_param":{"num_deleted":"0","num_feature":"2","num_nodes":"33","size_leaf_vector":"1"}},{"base_weights":[4.888048E-2,-2.8585365E0,3.2356033E0,-3.840748E0,-1.1538448E0,1.5156246E0,4.334179E0,-3.4266737E-1,-2.602703E-1,-1.8834679E0,-4.5214376E-1,8.9484584E-1,2.149743E0,3.7004824E0,5.164815E0,-1.7892145E-1,-1.2416395E-1,-6.92919E-1,-8.6999774E-2,4.3189588E-1,1.1145114E0,1.4344348E-1,1.8660757E-1,2.4312349E-1,3.1303614E-1,3.816783E-1,4.5915726E-1,-7.1942784E-2,-4.269684E-2,-1.4426173E-2,7.260947E-3,-0E0,3.687701E-2,6.780263E-2,1.0052887E-1],"categories":[],"categories_nodes":[],"categories_segments":[],"categories_sizes":[],"default_left":[0,0,0,0,0,0,0,0,0,0,0,0,0,0,0,0,0,0,0,0,0,0,0,0,0,0,0,0,0,0,0,0,0,0,0],"id":3,"left_children":[1,3,5,7,9,11,13,-1,-1,15,17,19,21,23,25,-1,-1,27,29,31,33,-1,-1,-1,-1,-1,-1,-1,-1,-1,-1,-1,-1,-1,-1],"loss_changes":[1.822842E4,1.7118916E3,1.7590205E3,1.4120801E2,1.9103674E2,1.4004071E2,2.631162E2,0E0,0E0,1.3437134E1,1.6635048E1,1.7545242E1,2.2003174E0,2.2088379E1,2.0708008E0,0E0,0E0,2.1584778E0,1.420378E0,8.291788E-1,1.7336578E0,0E0,0E0,0E0,0E0,0E0,0E0,0E0,0E0,0E0,0E0,0E0,0E0,0E0,0E0],"parents":[2147483647,0,0,1,1,2,2,3,3,4,4,5,5,6,6,9,9,10,10,11,11,12,12,13,13,14,14,17,17,18,18,19,19,20,20],"right_children":[2,4,6,8,10,12,14,-1,-1,16,18,20,22,24,26,-1,-1,28,30,32,34,-1,-1,-1,-1,-1,-1,-1,-1,-1,-1,-1,-1,-1,-1],"split_conditions":[3.1986667E2,1.252E2,5.3148334E2,3.73E1,2.1938333E2,4.2478333E2,7.1761664E2,-3.4266737E-1,-2.602703E-1,1.6543333E2,2.8243332E2,3.5666666E2,4.6701666E2,5.910333E2,8.078333E2,-1.7892145E-1,-1.2416395E-1,2.4771666E2,3.7533333E1,2.2983334E1,3.8516666E2,1.4344348E-1,1.8660757E-1,2.4312349E-1,3.1303614E-1,3.816783E-1,4.5915726E-1,-7.1942784E-2,-4.269684E-2,-1.4426173E-2,7.260947E-3,-0E0,3.687701E-2,6.780263E-2,1.0052887E-1],"split_indices":[0,0,0,0,0,0,0,0,0,0,0,0,0,0,0,0,0,0,1,1,0,0,0,0,0,0,0,0,0,0,0,0,0,0,0],"split_type":[0,0,0,0,0,0,0,0,0,0,0,0,0,0,0,0,0,0,0,0,0,0,0,0,0,0,0,0,0,0,0,0,0,0,0],"sum_hessian":[1.964E3,1.027E3,9.37E2,6.5E2,3.77E2,3.67E2,5.7E2,3.64E2,2.86E2,1.83E2,1.94E2,1.88E2,1.79E2,3.29E2,2.41E2,8.3E1,1E2,1.15E2,7.9E1,6.3E1,1.25E2,6.8E1,1.11E2,8.7E1,2.42E2,1.53E2,8.8E1,4.5E1,7E1,5.4E1,2.5E1,4E0,5.9E1,4.9E1,7.6E1],"tree_param":{"num_deleted":"0","num_feature":"2","num_nodes":"35","size_leaf_vector":"1"}},{"base_weights":[1.0076434E-2,-2.626879E0,2.9816716E0,-3.491635E0,-9.785008E-1,1.594258E0,4.1070232E0,-3.0948576E-1,-2.8553982E0,-1.6901088E0,-3.675353E-1,9.552916E-1,2.232666E0,3.566141E0,3.839534E-1,-2.4170001E-1,-1.8994434E-1,-1.5673083E-1,-1.11448936E-1,-6.0910684E-1,-6.7181714E-2,5.9344167E-1,1.011869E-1,1.4851114E-1,1.9969214E-1,2.586845E-1,3.0617988E-1,-5.9623547E-2,-3.62946E-2,-1.3724847E-2,1.0945365E-2,1.8140912E-2,5.413188E-2],"categories":[],"categories_nodes":[],"categories_segments":[],"categories_sizes":[],"default_left":[0,0,0,0,0,0,0,0,0,0,0,0,0,0,0,0,0,0,0,0,0,0,0,0,0,0,0,0,0,0,0,0,0],"id":4,"left_children":[1,3,5,7,9,11,13,-1,15,17,19,21,23,25,-1,-1,-1,-1,-1,27,29,31,-1,-1,-1,-1,-1,-1,-1,-1,-1,-1,-1],"loss_changes":[1.5393174E4,1.4749697E3,1.4276484E3,1.4067285E2,1.5453024E2,1.6444214E2,1.5639453E2,0E0,5.369385E0,6.5883484E0,1.3796598E1,2.1321274E1,1.0004028E1,1.4282227E-1,0E0,0E0,0E0,0E0,0E0,9.85466E-1,1.9920391E0,2.3000107E0,0E0,0E0,0E0,0E0,0E0,0E0,0E0,0E0,0E0,0E0,0E0],"parents":[2147483647,0,0,1,1,2,2,3,3,4,4,5,5,6,6,8,8,9,9,10,10,11,11,12,12,13,13,19,19,20,20,21,21],"right_children":[2,4,6,8,10,12,14,-1,16,18,20,22,24,26,-1,-1,-1,-1,-1,28,30,32,-1,-1,-1,-1,-1,-1,-1,-1,-1,-1,-1],"split_conditions":[3.2316666E2,1.3675E2,5.686667E2,5.065E1,2.2543333E2,4.4523334E2,7.283333E2,-3.0948576E-1,1.0148333E2,1.7391667E2,2.8243332E2,3.8516666E2,4.9483334E2,6.46E2,3.839534E-1,-2.4170001E-1,-1.8994434E-1,-1.5673083E-1,-1.11448936E-1,2.58E2,3.7533333E1,2.8266666E1,1.011869E-1,1.4851114E-1,1.9969214E-1,2.586845E-1,3.0617988E-1,-5.9623547E-2,-3.62946E-2,-1.3724847E-2,1.0945365E-2,1.8140912E-2,5.413188E-2],"split_indices":[0,0,0,0,0,0,0,0,0,0,0,0,0,0,0,0,0,0,0,0,1,1,0,0,0,0,0,0,0,0,0,0,0],"split_type":[0,0,0,0,0,0,0,0,0,0,0,0,0,0,0,0,0,0,0,0,0,0,0,0,0,0,0,0,0,0,0,0,0],"sum_hessian":[1.961E3,1.039E3,9.22E2,6.8E2,3.59E2,4.15E2,5.07E2,4.21E2,2.59E2,1.64E2,1.95E2,2.1E2,2.05E2,2.91E2,2.16E2,1.85E2,7.4E1,8E1,8.4E1,1.06E2,8.9E1,1E2,1.1E2,9.1E1,1.14E2,1.39E2,1.52E2,5.1E1,5.5E1,6.1E1,2.8E1,2.1E1,7.9E1],"tree_param":{"num_deleted":"0","num_feature":"2","num_nodes":"33","size_leaf_vector":"1"}},{"base_weights":[1.2288343E-4,-2.4482892E0,2.7250645E0,-3.2051132E0,-9.1599214E-1,1.3905417E0,3.728458E0,-2.896585E-1,-2.6899738E0,-1.5333153E0,-3.9368445E-1,8.137487E-1,1.9669384E0,3.1880383E0,4.370696E0,-2.3129004E-1,-1.8576558E-1,-1.3098335E-1,-8.080171E-2,-6.2652814E-1,-1.3238479E-1,5.036945E-1,9.005279E-2,1.3507809E-1,1.7778969E-1,2.0825334E-1,2.6613638E-1,3.199342E-1,3.9615765E-1,-5.8745753E-2,-3.7621405E-2,-1.7733296E-2,1.6022508E-5,2.707982E-2,5.6167334E-2],"categories":[],"categories_nodes":[],"categories_segments":[],"categories_sizes":[],"default_left":[0,0,0,0,0,0,0,0,0,0,0,0,0,0,0,0,0,0,0,0,0,0,0,0,0,0,0,0,0,0,0,0,0,0,0],"id":5,"left_children":[1,3,5,7,9,11,13,-1,15,17,19,21,23,25,27,-1,-1,-1,-1,29,31,33,-1,-1,-1,-1,-1,-1,-1,-1,-1,-1,-1,-1,-1],"loss_changes":[1.325966E4,1.2063721E3,1.2477603E3,1.2946289E2,1.1024988E2,1.3082275E2,1.5770703E2,0E0,9.118652E0,4.2352295E0,1.1067059E1,1.8048355E1,5.6209717E0,5.864258E0,1.27265625E1,0E0,0E0,0E0,0E0,3.695259E-1,1.2421176E0,2.5014477E0,0E0,0E0,0E0,0E0,0E0,0E0,0E0,0E0,0E0,0E0,0E0,0E0,0E0],"parents":[2147483647,0,0,1,1,2,2,3,3,4,4,5,5,6,6,8,8,9,9,10,10,11,11,12,12,13,13,14,14,19,19,20,20,21,21],"right_children":[2,4,6,8,10,12,14,-1,16,18,20,22,24,26,28,-1,-1,-1,-1,30,32,34,-1,-1,-1,-1,-1,-1,-1,-1,-1,-1,-1,-1,-1],"split_conditions":[3.1986667E2,1.3675E2,5.487167E2,3.9983334E1,2.1938333E2,4.4235E2,7.1761664E2,-2.896585E-1,9.188333E1,1.9896666E2,2.7398334E2,3.8516666E2,4.9483334E2,5.910333E2,8.078333E2,-2.3129004E-1,-1.8576558E-1,-1.3098335E-1,-8.080171E-2,3.52E1,3.6933334E1,3.5666666E2,9.005279E-2,1.3507809E-1,1.7778969E-1,2.0825334E-1,2.6613638E-1,3.199342E-1,3.9615765E-1,-5.8745753E-2,-3.7621405E-2,-1.7733296E-2,1.6022508E-5,2.707982E-2,5.6167334E-2],"split_indices":[0,0,0,0,0,0,0,0,0,0,0,0,0,0,0,0,0,0,0,1,1,0,0,0,0,0,0,0,0,0,0,0,0,0,0],"split_type":[0,0,0,0,0,0,0,0,0,0,0,0,0,0,0,0,0,0,0,0,0,0,0,0,0,0,0,0,0,0,0,0,0,0,0],"sum_hessian":[1.984E3,1.045E3,9.39E2,6.98E2,3.47E2,4.05E2,5.34E2,3.8E2,3.18E2,1.57E2,1.9E2,2.05E2,2E2,2.96E2,2.38E2,1.97E2,1.21E2,1.27E2,3E1,9.8E1,9.2E1,1.06E2,9.9E1,1.03E2,9.7E1,6.4E1,2.32E2,1.54E2,8.4E1,5.2E1,4.6E1,5.7E1,3.5E1,6.2E1,4.4E1],"tree_param":{"num_deleted":"0","num_feature":"2","num_nodes":"35","size_leaf_vector":"1"}},{"base_weights":[3.351722E-2,-2.2813053E0,2.479978E0,-2.994205E0,-9.5855916E-1,1.173496E0,3.379274E0,-2.6951224E-1,-2.5653625E0,-1.4981061E0,-4.2455825E-1,6.383704E-1,1.6795496E0,2.1615669E-1,3.844237E0,-2.1665938E-1,-1.7663325E-1,-1.4154471E-1,-9.824321E-2,-5.852087E-1,-1.8900476E-1,2.8764638E-1,8.7556404E-1,1.0963538E-1,1.4994316E-1,2.8019038E-1,3.523442E-1,-5.641141E-2,-3.4846034E-2,-2.2106078E-2,-1.6380319E-3,-3.6359516E-3,2.5455248E-2,4.700727E-2,7.991997E-2],"categories":[],"categories_nodes":[],"categories_segments":[],"categories_sizes":[],"default_left":[0,0,0,0,0,0,0,0,0,0,0,0,0,0,0,0,0,0,0,0,0,0,0,0,0,0,0,0,0,0,0,0,0,0,0],"id":6,"left_children":[1,3,5,7,9,11,13,-1,15,17,19,21,23,-1,25,-1,-1,-1,-1,27,29,31,33,-1,-1,-1,-1,-1,-1,-1,-1,-1,-1,-1,-1],"loss_changes":[1.1107759E4,9.429956E2,1.111042E3,8.67876E1,1.0024896E2,1.028598E2,1.5593848E2,0E0,2.8554688E0,7.3766174E0,6.2232933E0,1.498774E1,5.7075806E0,0E0,3.2157715E1,0E0,0E0,0E0,0E0,6.903267E-1,9.5574856E-1,1.0194588E0,2.0917358E0,0E0,0E0,0E0,0E0,0E0,0E0,0E0,0E0,0E0,0E0,0E0,0E0],"parents":[2147483647,0,0,1,1,2,2,3,3,4,4,5,5,6,6,8,8,9,9,10,10,11,11,12,12,14,14,19,19,20,20,21,21,22,22],"right_children":[2,4,6,8,10,12,14,-1,16,18,20,22,24,-1,26,-1,-1,-1,-1,28,30,32,34,-1,-1,-1,-1,-1,-1,-1,-1,-1,-1,-1,-1],"split_conditions":[3.1431668E2,1.252E2,5.3148334E2,3.1516666E1,2.1136667E2,4.1965E2,6.7125E2,-2.6951224E-1,9.015E1,1.6543333E2,2.7398334E2,3.5666666E2,4.7116666E2,2.1615669E-1,7.864667E2,-2.1665938E-1,-1.7663325E-1,-1.4154471E-1,-9.824321E-2,2.4771666E2,3.635E1,2.2983334E1,3.2933334E1,1.0963538E-1,1.4994316E-1,2.8019038E-1,3.523442E-1,-5.641141E-2,-3.4846034E-2,-2.2106078E-2,-1.6380319E-3,-3.6359516E-3,2.5455248E-2,4.700727E-2,7.991997E-2],"split_indices":[0,0,0,0,0,0,0,0,0,0,0,0,0,0,0,0,0,0,0,0,1,1,1,0,0,0,0,0,0,0,0,0,0,0,0],"split_type":[0,0,0,0,0,0,0,0,0,0,0,0,0,0,0,0,0,0,0,0,0,0,0,0,0,0,0,0,0,0,0,0,0,0,0],"sum_hessian":[1.958E3,1.006E3,9.52E2,6.52E2,3.54E2,3.9E2,5.62E2,3.41E2,3.11E2,1.74E2,1.8E2,1.92E2,1.98E2,2.34E2,3.28E2,2.13E2,9.8E1,8.1E1,9.3E1,1.04E2,7.6E1,8E1,1.12E2,8.3E1,1.15E2,2.12E2,1.16E2,5.2E1,5.2E1,4.7E1,2.9E1,5E0,7.5E1,3.8E1,7.4E1],"tree_param":{"num_deleted":"0","num_feature":"2","num_nodes":"35","size_leaf_vector":"1"}},{"base_weights":[-1.2275664E-2,-2.1165586E0,2.2779105E0,-2.7585995E0,-9.126405E-1,1.1472268E0,3.1353219E0,-2.4696793E-1,-2.3533733E0,-1.4410403E0,-4.3860367E-1,5.857603E-1,1.598376E0,2.8111627E0,3.1058553E-1,-1.9863625E-1,-1.6230612E-1,-1.3144945E-1,-9.4993934E-2,-5.9228558E-2,-2.6436472E-1,2.5853837E-1,7.821026E-1,1.03596255E-1,1.4525972E-1,2.0082597E-1,2.4950878E-1,-3.0465296E-2,-7.887812E-3,9.874382E-3,2.8784297E-2,4.6264675E-2,7.127709E-2],"categories":[],"categories_nodes":[],"categories_segments":[],"categories_sizes":[],"default_left":[0,0,0,0,0,0,0,0,0,0,0,0,0,0,0,0,0,0,0,0,0,0,0,0,0,0,0,0,0,0,0,0,0],"id":7,"left_children":[1,3,5,7,9,11,13,-1,15,17,19,21,23,25,-1,-1,-1,-1,-1,-1,27,29,31,-1,-1,-1,-1,-1,-1,-1,-1,-1,-1],"loss_changes":[9.53903E3,7.9098486E2,9.100742E2,7.379932E1,8.839673E1,1.01383606E2,1.07632324E2,0E0,1.7116699E0,3.6820068E0,9.248634E0,1.1026886E1,9.08844E0,1.8645508E1,0E0,0E0,0E0,0E0,0E0,0E0,2.0943155E0,6.429124E-1,7.8715515E-1,0E0,0E0,0E0,0E0,0E0,0E0,0E0,0E0,0E0,0E0],"parents":[2147483647,0,0,1,1,2,2,3,3,4,4,5,5,6,6,8,8,9,9,10,10,11,11,12,12,13,13,20,20,21,21,22,22],"right_children":[2,4,6,8,10,12,14,-1,16,18,20,22,24,26,-1,-1,-1,-1,-1,-1,28,30,32,-1,-1,-1,-1,-1,-1,-1,-1,-1,-1],"split_conditions":[3.1431668E2,1.252E2,5.487167E2,3.6316666E1,2.0523334E2,4.1965E2,7.6065E2,-2.4696793E-1,9.015E1,1.6543333E2,2.4771666E2,3.5666666E2,4.7963333E2,6.6198334E2,3.1058553E-1,-1.9863625E-1,-1.6230612E-1,-1.3144945E-1,-9.4993934E-2,-5.9228558E-2,2.8243332E2,3.52E1,3.57E1,1.03596255E-1,1.4525972E-1,2.0082597E-1,2.4950878E-1,-3.0465296E-2,-7.887812E-3,9.874382E-3,2.8784297E-2,4.6264675E-2,7.127709E-2],"split_indices":[0,0,0,0,0,0,0,0,0,0,0,0,0,0,0,0,0,0,0,0,0,1,1,0,0,0,0,0,0,0,0,0,0],"split_type":[0,0,0,0,0,0,0,0,0,0,0,0,0,0,0,0,0,0,0,0,0,0,0,0,0,0,0,0,0,0,0,0,0],"sum_hessian":[1.976E3,1.03E3,9.46E2,6.7E2,3.6E2,4.1E2,5.36E2,3.63E2,3.07E2,1.68E2,1.92E2,1.85E2,2.25E2,3.8E2,1.56E2,2.1E2,9.7E1,8.7E1,8.1E1,6.7E1,1.25E2,7.2E1,1.13E2,1E2,1.25E2,2.01E2,1.79E2,7E1,5.5E1,3.5E1,3.7E1,4.5E1,6.8E1],"tree_param":{"num_deleted":"0","num_feature":"2","num_nodes":"33","size_leaf_vector":"1"}},{"base_weights":[2.0623838E-3,-1.9289434E0,2.138321E0,-2.466742E0,-6.209841E-1,1.186482E0,3.004289E0,-2.7977254E0,-2.0012527E0,-1.0147854E0,-2.390828E-1,6.7085165E-1,1.6294177E0,2.7146046E0,2.9480428E-1,-2.353875E-1,-1.9917464E-1,-2.160677E0,-1.3290231E-1,-9.555555E-2,-7.309357E-1,-4.015242E-1,-4.4033553E-2,4.5316753E-1,7.4615E-2,1.08690895E-1,1.4881161E-1,1.9428936E-1,2.3441003E-1,-8.786121E-2,-1.7572504E-1,-7.1420304E-2,-4.5053203E-2,-4.3334417E-2,-2.2202944E-2,-9.926351E-3,5.8796536E-3,1.2197473E-2,4.1212976E-2],"categories":[],"categories_nodes":[],"categories_segments":[],"categories_sizes":[],"default_left":[0,0,0,0,0,0,0,0,0,0,0,0,0,0,0,0,0,0,0,0,0,0,0,0,0,0,0,0,0,0,0,0,0,0,0,0,0,0,0],"id":8,"left_children":[1,3,5,7,9,11,13,15,17,19,21,23,25,27,-1,-1,-1,29,-1,-1,31,33,35,37,-1,-1,-1,-1,-1,-1,-1,-1,-1,-1,-1,-1,-1,-1,-1],"loss_changes":[8.198403E3,7.297012E2,7.6928174E2,1.01413574E2,4.4960854E1,1.00154236E2,7.631787E1,3.2963867E0,8.6073E0,4.9946747E0,4.730872E0,1.0573334E1,8.872986E0,6.426758E0,0E0,0E0,0E0,1.8025513E0,0E0,0E0,1.0910034E-3,7.247772E-1,7.580177E-1,1.7159538E0,0E0,0E0,0E0,0E0,0E0,0E0,0E0,0E0,0E0,0E0,0E0,0E0,0E0,0E0,0E0],"parents":[2147483647,0,0,1,1,2,2,3,3,4,4,5,5,6,6,7,7,8,8,9,9,10,10,11,11,12,12,13,13,17,17,20,20,21,21,22,22,23,23],"right_children":[2,4,6,8,10,12,14,16,18,20,22,24,26,28,-1,-1,-1,30,-1,-1,32,34,36,38,-1,-1,-1,-1,-1,-1,-1,-1,-1,-1,-1,-1,-1,-1,-1],"split_conditions":[3.2316666E2,1.543E2,5.8113336E2,5.065E1,2.4386667E2,4.4235E2,7.720833E2,1.825E1,1.044E2,1.9896666E2,2.8638333E2,3.9361667E2,5.0255E2,6.7125E2,2.9480428E-1,-2.353875E-1,-1.9917464E-1,5.2583332E1,-1.3290231E-1,-9.555555E-2,3.1516666E1,3.3516666E1,3.6683334E1,2.8266666E1,7.4615E-2,1.08690895E-1,1.4881161E-1,1.9428936E-1,2.3441003E-1,-8.786121E-2,-1.7572504E-1,-7.1420304E-2,-4.5053203E-2,-4.3334417E-2,-2.2202944E-2,-9.926351E-3,5.8796536E-3,1.2197473E-2,4.1212976E-2],"split_indices":[0,0,0,0,0,0,0,0,0,0,0,0,0,0,0,0,0,0,0,0,1,1,1,1,0,0,0,0,0,0,0,0,0,0,0,0,0,0,0],"split_type":[0,0,0,0,0,0,0,0,0,0,0,0,0,0,0,0,0,0,0,0,0,0,0,0,0,0,0,0,0,0,0,0,0,0,0,0,0,0,0],"sum_hessian":[1.984E3,1.042E3,9.42E2,7.37E2,3.05E2,4.51E2,4.91E2,4.25E2,3.12E2,1.48E2,1.57E2,2.11E2,2.4E2,3.51E2,1.4E2,2.78E2,1.47E2,2.05E2,1.07E2,8.6E1,6.2E1,8.3E1,7.4E1,1.19E2,9.2E1,1.17E2,1.23E2,1.61E2,1.9E2,9E0,1.96E2,2.6E1,3.6E1,3.4E1,4.9E1,4.7E1,2.7E1,2.3E1,9.6E1],"tree_param":{"num_deleted":"0","num_feature":"2","num_nodes":"39","size_leaf_vector":"1"}},{"base_weights":[5.7459893E-3,-1.7433772E0,1.9833204E0,-2.3040469E0,-6.635621E-1,1.1159822E0,2.7697182E0,-2.5576618E0,-1.8810223E0,-1.1083235E0,-2.7010876E-1,6.495719E-1,1.5465304E0,2.462716E0,2.6634815E-1,-2.1929234E-1,-2.3061342E0,-2.0011792E0,-1.2700489E-1,-1.295301E0,-8.964323E-1,-4.7750923E-1,-9.165699E-2,2.9339126E-1,7.97877E-1,1.0235546E-1,1.3954641E-1,1.7570645E-1,2.1244295E-1,-4.9249176E-2,-1.8821119E-1,-8.194905E-2,-1.63153E-1,-0E0,-1.04320355E-1,-1.6999811E-2,-7.347368E-2,-5.39619E-2,-2.8731948E-2,-1.0978733E-2,8.257129E-3,-5.785532E-4,2.807151E-2,4.5342058E-2,7.064678E-2],"categories":[],"categories_nodes":[],"categories_segments":[],"categories_sizes":[],"default_left":[0,0,0,0,0,0,0,0,0,0,0,0,0,0,0,0,0,0,0,0,0,0,0,0,0,0,0,0,0,0,0,0,0,0,0,0,0,0,0,0,0,0,0,0,0],"id":9,"left_children":[1,3,5,7,9,11,13,15,17,19,21,23,25,27,-1,-1,29,31,-1,33,35,37,39,41,43,-1,-1,-1,-1,-1,-1,-1,-1,-1,-1,-1,-1,-1,-1,-1,-1,-1,-1,-1,-1],"loss_changes":[6.732781E3,6.208367E2,6.156238E2,6.1972656E1,6.0908997E1,8.4870056E1,6.4659424E1,5.5498047E0,1.6738281E0,3.2758484E0,6.679101E0,1.0235657E1,6.3153687E0,3.3897705E0,0E0,0E0,1.0592224E1,1.2467651E0,0E0,1.7051697E-1,2.6346588E-1,9.8968506E-1,9.921664E-1,1.3635292E0,1.2073517E0,0E0,0E0,0E0,0E0,0E0,0E0,0E0,0E0,0E0,0E0,0E0,0E0,0E0,0E0,0E0,0E0,0E0,0E0,0E0,0E0],"parents":[2147483647,0,0,1,1,2,2,3,3,4,4,5,5,6,6,7,7,8,8,9,9,10,10,11,11,12,12,13,13,16,16,17,17,19,19,20,20,21,21,22,22,23,23,24,24],"right_children":[2,4,6,8,10,12,14,16,18,20,22,24,26,28,-1,-1,30,32,-1,34,36,38,40,42,44,-1,-1,-1,-1,-1,-1,-1,-1,-1,-1,-1,-1,-1,-1,-1,-1,-1,-1,-1,-1],"split_conditions":[3.2316666E2,1.3675E2,5.8113336E2,5.065E1,2.1938333E2,4.5138333E2,7.6065E2,1.0933333E1,1.001E2,1.7391667E2,2.7051666E2,3.6706668E2,5.0611667E2,6.6198334E2,2.6634815E-1,-2.1929234E-1,1.175E1,5.2583332E1,-1.2700489E-1,1.8266666E1,2.1066668E1,3.095E1,3.9183334E1,2.685E1,3.9361667E2,1.0235546E-1,1.3954641E-1,1.7570645E-1,2.1244295E-1,-4.9249176E-2,-1.8821119E-1,-8.194905E-2,-1.63153E-1,-0E0,-1.04320355E-1,-1.6999811E-2,-7.347368E-2,-5.39619E-2,-2.8731948E-2,-1.0978733E-2,8.257129E-3,-5.785532E-4,2.807151E-2,4.5342058E-2,7.064678E-2],"split_indices":[0,0,0,0,0,0,0,0,0,0,0,0,0,0,0,0,0,0,0,1,1,1,1,1,0,0,0,0,0,0,0,0,0,0,0,0,0,0,0,0,0,0,0,0,0],"split_type":[0,0,0,0,0,0,0,0,0,0,0,0,0,0,0,0,0,0,0,0,0,0,0,0,0,0,0,0,0,0,0,0,0,0,0,0,0,0,0,0,0,0,0,0,0],"sum_hessian":[1.943E3,1.031E3,9.12E2,6.77E2,3.54E2,4.36E2,4.76E2,4.17E2,2.6E2,1.64E2,1.9E2,2.12E2,2.24E2,3.14E2,1.62E2,2.3E2,1.87E2,1.76E2,8.4E1,8.1E1,8.3E1,8.5E1,1.05E2,6.5E1,1.47E2,1.02E2,1.22E2,1.42E2,1.72E2,6E0,1.81E2,9E0,1.67E2,1E0,8E1,4E0,7.9E1,2.7E1,5.8E1,8.8E1,1.7E1,9E0,5.6E1,4.5E1,1.02E2],"tree_param":{"num_deleted":"0","num_feature":"2","num_nodes":"45","size_leaf_vector":"1"}},{"base_weights":[8.595206E-3,-1.5789908E0,1.8545427E0,-2.096643E0,-5.02411E-1,1.0455941E0,2.5406947E0,-2.360112E0,-1.6872363E0,-8.798229E-1,-1.7154154E-1,5.794972E-1,1.4031893E0,2.3283968E0,2.5841522E-1,-2.0209125E-1,-2.1424615E0,-4.016143E-1,-1.7101468E0,-8.170813E-2,-6.985721E-1,-3.2928082E-1,-0E0,3.6690563E-1,5.9317093E-2,8.897619E-2,1.24933325E-1,1.6373643E-1,1.9894184E-1,-9.10737E-2,-1.7413855E-1,-1.3374954E-1,2.2249168E-1,-1.4706056E-1,-1.091293E-1,-7.590497E-2,-4.6389963E-2,-3.6236104E-2,-1.8070582E-2,-4.8529743E-3,8.698116E-3,-3.3944626E-3,3.389603E-2],"categories":[],"categories_nodes":[],"categories_segments":[],"categories_sizes":[],"default_left":[0,0,0,0,0,0,0,0,0,0,0,0,0,0,0,0,0,0,0,0,0,0,0,0,0,0,0,0,0,0,0,0,0,0,0,0,0,0,0,0,0,0,0],"id":10,"left_children":[1,3,5,7,9,11,13,15,17,19,21,23,25,27,-1,-1,29,31,33,-1,35,37,39,41,-1,-1,-1,-1,-1,-1,-1,-1,-1,-1,-1,-1,-1,-1,-1,-1,-1,-1,-1],"loss_changes":[5.7775474E3,5.8721387E2,4.9938184E2,6.78938E1,4.2406456E1,6.771454E1,5.5853516E1,3.525879E0,6.0098877E0,1.8774261E0,4.961427E0,5.3010826E0,6.358307E0,5.7009277E0,0E0,0E0,6.351929E-1,3.836941E1,6.2591553E0,0E0,4.5537186E-1,6.5530396E-1,6.054694E-1,2.2516937E0,0E0,0E0,0E0,0E0,0E0,0E0,0E0,0E0,0E0,0E0,0E0,0E0,0E0,0E0,0E0,0E0,0E0,0E0,0E0],"parents":[2147483647,0,0,1,1,2,2,3,3,4,4,5,5,6,6,7,7,8,8,9,9,10,10,11,11,12,12,13,13,16,16,17,17,18,18,20,20,21,21,22,22,23,23],"right_children":[2,4,6,8,10,12,14,16,18,20,22,24,26,28,-1,-1,30,32,34,-1,36,38,40,42,-1,-1,-1,-1,-1,-1,-1,-1,-1,-1,-1,-1,-1,-1,-1,-1,-1,-1,-1],"split_conditions":[3.3448334E2,1.5236667E2,5.8113336E2,5.065E1,2.4066667E2,4.4235E2,7.936E2,1.0933333E1,5.2583332E1,1.909E2,2.8638333E2,3.8516666E2,4.9085E2,6.6198334E2,2.5841522E-1,-2.0209125E-1,1.175E1,2.9616667E1,1.1098333E2,-8.170813E-2,2.6333334E1,3.3516666E1,3.8016666E1,2.52E1,5.9317093E-2,8.897619E-2,1.24933325E-1,1.6373643E-1,1.9894184E-1,-9.10737E-2,-1.7413855E-1,-1.3374954E-1,2.2249168E-1,-1.4706056E-1,-1.091293E-1,-7.590497E-2,-4.6389963E-2,-3.6236104E-2,-1.8070582E-2,-4.8529743E-3,8.698116E-3,-3.3944626E-3,3.389603E-2],"split_indices":[0,0,0,0,0,0,0,0,0,0,0,0,0,0,0,0,0,1,0,0,1,1,1,1,0,0,0,0,0,0,0,0,0,0,0,0,0,0,0,0,0,0,0],"split_type":[0,0,0,0,0,0,0,0,0,0,0,0,0,0,0,0,0,0,0,0,0,0,0,0,0,0,0,0,0,0,0,0,0,0,0,0,0,0,0,0,0,0,0],"sum_hessian":[1.968E3,1.058E3,9.1E2,7.13E2,3.45E2,4.2E2,4.9E2,4.28E2,2.85E2,1.59E2,1.86E2,1.85E2,2.35E2,3.81E2,1.09E2,2.31E2,1.97E2,6E0,2.79E2,8.3E1,7.6E1,9.5E1,9.1E1,8.4E1,1.01E2,8.9E1,1.46E2,1.47E2,2.34E2,9E0,1.88E2,5E0,1E0,1.97E2,8.2E1,1.9E1,5.7E1,3.8E1,5.7E1,6.1E1,3E1,9E0,7.5E1],"tree_param":{"num_deleted":"0","num_feature":"2","num_nodes":"43","size_leaf_vector":"1"}},{"base_weights":[4.1790593E-2,-1.4815646E0,1.674207E0,-1.9548858E0,-5.797385E-1,9.591394E-1,2.3804526E0,-1.781991E-1,-1.6653194E0,-9.682024E-1,-2.5894833E-1,5.1663005E-1,1.3008958E0,2.191375E0,2.5016126E-1,-1.454737E-1,-1.1688032E-1,-1.1702268E0,-7.5105166E-1,-3.9667422E-1,-6.890788E-2,3.3820224E-1,5.921934E-2,8.617571E-2,1.18333936E-1,1.5218551E-1,1.8812588E-1,-0E0,-9.4323784E-2,-6.586425E-2,-3.801382E-2,-4.0145725E-2,-2.344026E-2,-1.075408E-2,4.3893913E-3,4.7562025E-3,3.173186E-2],"categories":[],"categories_nodes":[],"categories_segments":[],"categories_sizes":[],"default_left":[0,0,0,0,0,0,0,0,0,0,0,0,0,0,0,0,0,0,0,0,0,0,0,0,0,0,0,0,0,0,0,0,0,0,0,0,0],"id":11,"left_children":[1,3,5,7,9,11,13,-1,15,17,19,21,23,25,-1,-1,-1,27,29,31,33,35,-1,-1,-1,-1,-1,-1,-1,-1,-1,-1,-1,-1,-1,-1,-1],"loss_changes":[4.8452886E3,4.2669287E2,4.691809E2,4.3432373E1,4.241552E1,6.895108E1,5.174414E1,0E0,3.7667847E0,4.2274933E0,4.7701616E0,7.254162E0,6.274048E0,7.564331E0,0E0,0E0,0E0,1.9920349E-1,1.8434906E-1,4.7985458E-1,7.5525975E-1,1.6526718E0,0E0,0E0,0E0,0E0,0E0,0E0,0E0,0E0,0E0,0E0,0E0,0E0,0E0,0E0,0E0],"parents":[2147483647,0,0,1,1,2,2,3,3,4,4,5,5,6,6,8,8,9,9,10,10,11,11,12,12,13,13,17,17,18,18,19,19,20,20,21,21],"right_children":[2,4,6,8,10,12,14,-1,16,18,20,22,24,26,-1,-1,-1,28,30,32,34,36,-1,-1,-1,-1,-1,-1,-1,-1,-1,-1,-1,-1,-1,-1,-1],"split_conditions":[3.2316666E2,1.3675E2,5.910333E2,3.1516666E1,2.1938333E2,4.4235E2,8.078333E2,-1.781991E-1,8.338333E1,3.0666666E1,2.8243332E2,3.9361667E2,5.0255E2,6.7125E2,2.5016126E-1,-1.454737E-1,-1.1688032E-1,1.8266666E1,1.9896666E2,2.4771666E2,3.7216667E1,2.8266666E1,5.921934E-2,8.617571E-2,1.18333936E-1,1.5218551E-1,1.8812588E-1,-0E0,-9.4323784E-2,-6.586425E-2,-3.801382E-2,-4.0145725E-2,-2.344026E-2,-1.075408E-2,4.3893913E-3,4.7562025E-3,3.173186E-2],"split_indices":[0,0,0,0,0,0,0,0,0,1,0,0,0,0,0,0,0,1,0,0,1,1,0,0,0,0,0,0,0,0,0,0,0,0,0,0,0],"split_type":[0,0,0,0,0,0,0,0,0,0,0,0,0,0,0,0,0,0,0,0,0,0,0,0,0,0,0,0,0,0,0,0,0,0,0,0,0],"sum_hessian":[1.945E3,1.006E3,9.39E2,6.58E2,3.48E2,4.69E2,4.7E2,3.32E2,3.26E2,1.55E2,1.93E2,2.07E2,2.62E2,3.81E2,8.9E1,1.77E2,1.49E2,7.5E1,8E1,1.09E2,8.4E1,1.19E2,8.8E1,1.23E2,1.39E2,1.45E2,2.36E2,1E0,7.4E1,5.9E1,2.1E1,4.8E1,6.1E1,5.8E1,2.6E1,2.3E1,9.6E1],"tree_param":{"num_deleted":"0","num_feature":"2","num_nodes":"37","size_leaf_vector":"1"}},{"base_weights":[2.5056055E-2,-1.366249E0,1.5109067E0,-1.7488881E0,-4.5820704E-1,7.2114986E-1,2.0599103E0,-1.9555771E0,-1.058996E-1,-6.904814E-1,-1.7077509E-1,3.7098753E-1,9.925143E-1,1.8260927E0,2.0838398E-1,-1.7182459E-1,-1.7721245E0,-8.8657E-1,-5.561111E-1,-2.4896346E-1,-4.3279473E-2,2.034132E-1,4.8197204E-1,6.464716E-2,8.906081E-2,1.262956E-1,1.599186E-1,-4.744477E-2,-1.4392488E-1,-2.9862953E-2,-7.596837E-2,-5.539751E-2,-3.2339904E-2,-3.0213604E-2,-1.2506231E-2,-7.917658E-3,1.8854633E-3,-4.1923965E-3,1.8532084E-2,2.4051521E-2,4.5816E-2],"categories":[],"categories_nodes":[],"categories_segments":[],"categories_sizes":[],"default_left":[0,0,0,0,0,0,0,0,0,0,0,0,0,0,0,0,0,0,0,0,0,0,0,0,0,0,0,0,0,0,0,0,0,0,0,0,0,0,0,0,0],"id":12,"left_children":[1,3,5,7,9,11,13,15,-1,17,19,21,23,25,-1,-1,27,29,31,33,35,37,39,-1,-1,-1,-1,-1,-1,-1,-1,-1,-1,-1,-1,-1,-1,-1,-1,-1,-1],"loss_changes":[4.0506934E3,3.4883105E2,4.0670898E2,5.608252E1,1.9491978E1,3.577591E1,6.0309082E1,7.8825684E0,0E0,2.6621857E0,1.188992E0,2.671198E0,2.187973E0,9.456421E0,0E0,0E0,4.8084106E0,6.322899E-1,1.034172E0,5.652485E-1,2.6401448E-1,6.6779995E-1,8.56411E-1,0E0,0E0,0E0,0E0,0E0,0E0,0E0,0E0,0E0,0E0,0E0,0E0,0E0,0E0,0E0,0E0,0E0,0E0],"parents":[2147483647,0,0,1,1,2,2,3,3,4,4,5,5,6,6,7,7,9,9,10,10,11,11,12,12,13,13,16,16,17,17,18,18,19,19,20,20,21,21,22,22],"right_children":[2,4,6,8,10,12,14,16,-1,18,20,22,24,26,-1,-1,28,30,32,34,36,38,40,-1,-1,-1,-1,-1,-1,-1,-1,-1,-1,-1,-1,-1,-1,-1,-1,-1,-1],"split_conditions":[3.1431668E2,1.543E2,5.3148334E2,7.3816666E1,2.4771666E2,4.1111667E2,7.6065E2,1.0933333E1,-1.058996E-1,2.985E1,2.8638333E2,3.5666666E2,4.6701666E2,6.3376666E2,2.0838398E-1,-1.7182459E-1,1.175E1,2.195E1,1.943E2,3.3516666E1,3.635E1,2.2983334E1,3.3283333E1,6.464716E-2,8.906081E-2,1.262956E-1,1.599186E-1,-4.744477E-2,-1.4392488E-1,-2.9862953E-2,-7.596837E-2,-5.539751E-2,-3.2339904E-2,-3.0213604E-2,-1.2506231E-2,-7.917658E-3,1.8854633E-3,-4.1923965E-3,1.8532084E-2,2.4051521E-2,4.5816E-2],"split_indices":[0,0,0,0,0,0,0,0,0,1,0,0,0,0,0,0,0,1,0,1,1,1,1,0,0,0,0,0,0,0,0,0,0,0,0,0,0,0,0,0,0],"split_type":[0,0,0,0,0,0,0,0,0,0,0,0,0,0,0,0,0,0,0,0,0,0,0,0,0,0,0,0,0,0,0,0,0,0,0,0,0,0,0,0,0],"sum_hessian":[1.956E3,1.01E3,9.46E2,7.09E2,3.01E2,3.9E2,5.56E2,4.72E2,2.37E2,1.64E2,1.37E2,1.73E2,2.17E2,3.95E2,1.61E2,2.2E2,2.52E2,6.1E1,1.03E2,8.1E1,5.6E1,7.3E1,1E2,9.3E1,1.24E2,1.71E2,2.24E2,7E0,2.45E2,9E0,5.2E1,4.9E1,5.4E1,2.9E1,5.2E1,3.5E1,2.1E1,5E0,6.8E1,3.8E1,6.2E1],"tree_param":{"num_deleted":"0","num_feature":"2","num_nodes":"41","size_leaf_vector":"1"}},{"base_weights":[-9.395672E-4,-1.2459708E0,1.4428725E0,-1.7018642E0,-4.8482943E-1,8.127774E-1,1.9895318E0,-1.5595241E-1,-1.4635257E0,-8.3621174E-1,-1.6936578E-1,4.9398878E-1,1.0918877E0,1.8390226E0,2.1169202E-1,-1.2611178E-1,-1.0282421E-1,-8.75142E-2,-7.201847E-1,-2.7207954E-2,-4.148314E-2,3.459718E-1,6.322149E-1,7.357856E-2,1.00462176E-1,1.6163049E0,1.60341E-1,-6.807654E-2,-3.783264E-2,1.8074231E-2,-5.227393E-3,1.961989E-3,2.9851155E-2,5.083011E-2,-0E0,1.6009706E-1,1.1871929E-1],"categories":[],"categories_nodes":[],"categories_segments":[],"categories_sizes":[],"default_left":[0,0,0,0,0,0,0,0,0,0,0,0,0,0,0,0,0,0,0,0,0,0,0,0,0,0,0,0,0,0,0,0,0,0,0,0,0],"id":13,"left_children":[1,3,5,7,9,11,13,-1,15,17,19,21,23,25,-1,-1,-1,-1,27,-1,29,31,33,-1,-1,35,-1,-1,-1,-1,-1,-1,-1,-1,-1,-1,-1],"loss_changes":[3.563427E3,3.6673535E2,3.1166882E2,3.231848E1,4.368367E1,3.636505E1,3.7431885E1,0E0,1.8128052E0,3.214737E0,4.434798E0,3.229374E0,3.127472E0,7.2143555E0,0E0,0E0,0E0,0E0,2.942009E0,0E0,7.371207E-1,6.6018486E-1,3.8528442E-3,0E0,0E0,2.164917E0,0E0,0E0,0E0,0E0,0E0,0E0,0E0,0E0,0E0,0E0,0E0],"parents":[2147483647,0,0,1,1,2,2,3,3,4,4,5,5,6,6,8,8,9,9,10,10,11,11,12,12,13,13,18,18,20,20,21,21,22,22,25,25],"right_children":[2,4,6,8,10,12,14,-1,16,18,20,22,24,26,-1,-1,-1,-1,28,-1,30,32,34,-1,-1,36,-1,-1,-1,-1,-1,-1,-1,-1,-1,-1,-1],"split_conditions":[3.3448334E2,1.223E2,5.8113336E2,2.5183332E1,2.1938333E2,4.5138333E2,8.078333E2,-1.5595241E-1,7.878333E1,2.6216667E1,2.7051666E2,3.9361667E2,5.0908334E2,6.8195E2,2.1169202E-1,-1.2611178E-1,-1.0282421E-1,-8.75142E-2,1.8001666E2,-2.7207954E-2,2.3566668E1,2.52E1,4.5666668E1,7.357856E-2,1.00462176E-1,3.73E1,1.60341E-1,-6.807654E-2,-3.783264E-2,1.8074231E-2,-5.227393E-3,1.961989E-3,2.9851155E-2,5.083011E-2,-0E0,1.6009706E-1,1.1871929E-1],"split_indices":[0,0,0,0,0,0,0,0,0,1,0,0,0,0,0,0,0,0,0,0,1,1,1,0,0,1,0,0,0,0,0,0,0,0,0,0,0],"split_type":[0,0,0,0,0,0,0,0,0,0,0,0,0,0,0,0,0,0,0,0,0,0,0,0,0,0,0,0,0,0,0,0,0,0,0,0,0],"sum_hessian":[1.979E3,1.063E3,9.16E2,6.63E2,4E2,4.28E2,4.88E2,3.18E2,3.45E2,1.87E2,2.13E2,2.03E2,2.25E2,4.03E2,8.5E1,2.01E2,1.44E2,5.2E1,1.35E2,8.8E1,1.25E2,1.03E2,1E2,1.17E2,1.08E2,1.81E2,2.22E2,8.4E1,5.1E1,7E0,1.18E2,1E1,9.3E1,9.9E1,1E0,3.9E1,1.42E2],"tree_param":{"num_deleted":"0","num_feature":"2","num_nodes":"37","size_leaf_vector":"1"}},{"base_weights":[-2.027491E-3,-1.1349653E0,1.3203837E0,-1.4878347E0,-3.525951E-1,7.604089E-1,1.8479358E0,-1.6471726E0,-1.1148418E0,-6.229579E-1,-1.2279951E-1,3.9544845E-1,9.8083323E-1,1.7148554E0,1.9137663E-1,-1.4575721E-1,-1.486041E0,-9.586702E-2,-7.4571155E-2,-8.496053E-1,-5.113811E-1,-2.3018475E-1,-1.3695903E-2,2.510143E-1,4.968532E-1,6.48977E-2,9.169378E-2,1.5796883E-1,1.6153296E0,-1.671395E-2,-1.2087289E-1,-1.1427207E-2,-7.48153E-2,-5.1966846E-2,-3.0103361E-2,-2.5032105E-2,-9.376988E-3,-5.3909854E-3,5.654301E-3,3.6207188E-3,2.7454235E-2,1.6951174E-2,4.2071138E-2,1.0790566E-1,1.3837817E-1],"categories":[],"categories_nodes":[],"categories_segments":[],"categories_sizes":[],"default_left":[0,0,0,0,0,0,0,0,0,0,0,0,0,0,0,0,0,0,0,0,0,0,0,0,0,0,0,0,0,0,0,0,0,0,0,0,0,0,0,0,0,0,0,0,0],"id":14,"left_children":[1,3,5,7,9,11,13,15,17,19,21,23,25,27,-1,-1,29,-1,-1,31,33,35,37,39,41,-1,-1,-1,43,-1,-1,-1,-1,-1,-1,-1,-1,-1,-1,-1,-1,-1,-1,-1,-1],"loss_changes":[2.960951E3,2.9194043E2,2.6537695E2,3.8766724E1,2.015467E1,3.436969E1,2.4438232E1,7.739746E0,2.658081E-1,2.281086E0,2.0005631E0,1.8540344E0,4.9765015E0,2.317505E0,0E0,0E0,7.1883545E0,0E0,0E0,1.8904457E0,9.796848E-1,5.178008E-1,4.396617E-1,1.1950078E0,1.6801453E-1,0E0,0E0,0E0,2.9580688E0,0E0,0E0,0E0,0E0,0E0,0E0,0E0,0E0,0E0,0E0,0E0,0E0,0E0,0E0,0E0,0E0],"parents":[2147483647,0,0,1,1,2,2,3,3,4,4,5,5,6,6,7,7,8,8,9,9,10,10,11,11,12,12,13,13,16,16,19,19,20,20,21,21,22,22,23,23,24,24,28,28],"right_children":[2,4,6,8,10,12,14,16,18,20,22,24,26,28,-1,-1,30,-1,-1,32,34,36,38,40,42,-1,-1,-1,44,-1,-1,-1,-1,-1,-1,-1,-1,-1,-1,-1,-1,-1,-1,-1,-1],"split_conditions":[3.3448334E2,1.576E2,5.910333E2,7.878333E1,2.4066667E2,4.3001666E2,8.078333E2,1.0933333E1,3.0666666E1,2.6933332E1,2.8638333E2,3.635E1,5.0611667E2,3.9766666E1,1.9137663E-1,-1.4575721E-1,1.175E1,-9.586702E-2,-7.4571155E-2,2.1066668E1,1.909E2,3.4816666E1,3.7533333E1,3.6706668E2,3.4836667E2,6.48977E-2,9.169378E-2,1.5796883E-1,6.7125E2,-1.671395E-2,-1.2087289E-1,-1.1427207E-2,-7.48153E-2,-5.1966846E-2,-3.0103361E-2,-2.5032105E-2,-9.376988E-3,-5.3909854E-3,5.654301E-3,3.6207188E-3,2.7454235E-2,1.6951174E-2,4.2071138E-2,1.0790566E-1,1.3837817E-1],"split_indices":[0,0,0,0,0,0,0,0,1,1,0,1,0,1,0,0,0,0,0,1,0,1,1,0,0,0,0,0,0,0,0,0,0,0,0,0,0,0,0,0,0,0,0,0,0],"split_type":[0,0,0,0,0,0,0,0,0,0,0,0,0,0,0,0,0,0,0,0,0,0,0,0,0,0,0,0,0,0,0,0,0,0,0,0,0,0,0,0,0,0,0,0,0],"sum_hessian":[1.973E3,1.063E3,9.1E2,7.31E2,3.32E2,4.44E2,4.66E2,5.07E2,2.24E2,1.5E2,1.82E2,1.7E2,2.74E2,3.81E2,8.5E1,2.33E2,2.74E2,1.45E2,7.9E1,4.4E1,1.06E2,8.8E1,9.4E1,7.5E1,9.5E1,1.42E2,1.32E2,9.5E1,2.86E2,6E0,2.68E2,6E0,3.8E1,4.7E1,5.9E1,4.6E1,4.2E1,6.2E1,3.2E1,2.6E1,4.9E1,1.2E1,8.3E1,9.4E1,1.92E2],"tree_param":{"num_deleted":"0","num_feature":"2","num_nodes":"45","size_leaf_vector":"1"}},{"base_weights":[6.7090485E-3,-1.0748892E0,1.1829561E0,-1.4299005E0,-4.8165905E-1,5.797615E-1,1.6399133E0,-1.2963246E-1,-1.2382987E0,-7.345275E-1,-1.9119264E-1,2.9391477E-1,8.358667E-1,1.5088979E0,1.8327789E-1,-1.0257015E-1,-9.4716704E-1,-7.8375675E-2,-6.313858E-1,-3.076475E-1,-9.2428334E-2,1.655033E-1,4.0429226E-1,4.9995106E-2,7.262614E-2,1.2565902E0,1.6448977E0,9.689823E-2,-9.077833E-2,-5.8891E-2,-3.371002E-2,-0E0,-2.6369208E-2,1.972341E-2,-8.980273E-3,6.2489635E-3,1.9070867E-2,2.3275502E-2,4.4228096E-2,1.2116807E-1,9.071903E-2,1.4941983E-1,1.21485285E-1],"categories":[],"categories_nodes":[],"categories_segments":[],"categories_sizes":[],"default_left":[0,0,0,0,0,0,0,0,0,0,0,0,0,0,0,0,0,0,0,0,0,0,0,0,0,0,0,0,0,0,0,0,0,0,0,0,0,0,0,0,0,0,0],"id":15,"left_children":[1,3,5,7,9,11,13,-1,15,17,19,21,23,25,-1,-1,27,-1,29,31,33,35,37,-1,-1,39,41,-1,-1,-1,-1,-1,-1,-1,-1,-1,-1,-1,-1,-1,-1,-1,-1],"loss_changes":[2.534848E3,2.1622534E2,2.6019995E2,1.8515503E1,2.797612E1,2.9263367E1,3.8049927E1,0E0,8.304138E-1,3.2339172E0,1.8474588E0,2.3748684E0,1.4050293E0,1.0416382E1,0E0,0E0,2.322047E1,0E0,2.137413E0,4.9185467E-1,6.767917E-1,4.0072632E-1,9.6647644E-1,0E0,0E0,8.2748413E-1,1.3024902E0,0E0,0E0,0E0,0E0,0E0,0E0,0E0,0E0,0E0,0E0,0E0,0E0,0E0,0E0,0E0,0E0],"parents":[2147483647,0,0,1,1,2,2,3,3,4,4,5,5,6,6,8,8,9,9,10,10,11,11,12,12,13,13,16,16,18,18,19,19,20,20,21,21,22,22,25,25,26,26],"right_children":[2,4,6,8,10,12,14,-1,16,18,20,22,24,26,-1,-1,28,-1,30,32,34,36,38,-1,-1,40,42,-1,-1,-1,-1,-1,-1,-1,-1,-1,-1,-1,-1,-1,-1,-1,-1],"split_conditions":[3.1431668E2,1.1665E2,5.487167E2,2.71E1,2.1938333E2,4.1965E2,8.078333E2,-1.2963246E-1,3.1716667E1,2.6216667E1,2.6286667E2,3.6706668E2,4.6015E2,6.46E2,1.8327789E-1,-1.0257015E-1,3.185E1,-7.8375675E-2,1.8001666E2,2.4583334E1,2.3566668E1,3.635E1,3.9433334E1,4.9995106E-2,7.262614E-2,3.73E1,4.2216667E1,9.689823E-2,-9.077833E-2,-5.8891E-2,-3.371002E-2,-0E0,-2.6369208E-2,1.972341E-2,-8.980273E-3,6.2489635E-3,1.9070867E-2,2.3275502E-2,4.4228096E-2,1.2116807E-1,9.071903E-2,1.4941983E-1,1.21485285E-1],"split_indices":[0,0,0,0,0,0,0,0,1,1,0,0,0,0,0,0,1,0,0,1,1,1,1,0,0,1,1,0,0,0,0,0,0,0,0,0,0,0,0,0,0,0,0],"split_type":[0,0,0,0,0,0,0,0,0,0,0,0,0,0,0,0,0,0,0,0,0,0,0,0,0,0,0,0,0,0,0,0,0,0,0,0,0,0,0,0,0,0,0],"sum_hessian":[1.989E3,1.036E3,9.53E2,6.46E2,3.9E2,4.13E2,5.4E2,3.16E2,3.3E2,2.06E2,1.84E2,1.98E2,2.15E2,4.55E2,8.5E1,2.8E2,5E1,5.5E1,1.51E2,8E1,1.04E2,9.6E1,1.02E2,6.1E1,1.54E2,1.67E2,2.88E2,3E0,4.7E1,9.6E1,5.5E1,6E0,7.4E1,3E0,1.01E2,4.9E1,4.7E1,6.3E1,3.9E1,4.6E1,1.21E2,9.4E1,1.94E2],"tree_param":{"num_deleted":"0","num_feature":"2","num_nodes":"43","size_leaf_vector":"1"}},{"base_weights":[1.2091467E-3,-1.0285052E0,1.0925959E0,-1.3665327E0,-4.6558946E-1,6.0457295E-1,1.5662801E0,-1.2305316E-1,-1.1943488E0,-7.5835806E-1,-2.474352E-1,3.5574794E-1,8.8109857E-1,1.4533012E0,1.7227449E-1,-1.0202208E-1,-8.028408E-2,-8.0166265E-2,-5.4135855E-2,-3.9958426E-1,-1.3886182E-1,1.3127214E-1,4.5236605E-1,5.7750385E-2,7.7440456E-2,1.2682444E0,1.24144435E-1,-5.0982833E-2,-2.5220482E-2,5.117078E-3,-1.2452917E-2,5.4116827E-3,1.8463375E-2,2.9887533E-2,4.2622454E-2,1.2648003E-1,9.178466E-2],"categories":[],"categories_nodes":[],"categories_segments":[],"categories_sizes":[],"default_left":[0,0,0,0,0,0,0,0,0,0,0,0,0,0,0,0,0,0,0,0,0,0,0,0,0,0,0,0,0,0,0,0,0,0,0,0,0],"id":16,"left_children":[1,3,5,7,9,11,13,-1,15,17,19,21,23,25,-1,-1,-1,-1,-1,27,29,31,33,-1,-1,35,-1,-1,-1,-1,-1,-1,-1,-1,-1,-1,-1],"loss_changes":[2.186311E3,1.882334E2,2.154729E2,1.3669067E1,2.3264618E1,3.0974655E1,2.4204224E1,0E0,1.408905E0,1.0183334E0,3.228423E0,4.9861565E0,8.3818054E-1,2.3760376E0,0E0,0E0,0E0,0E0,0E0,8.6491585E-1,5.275135E-1,2.990626E-1,2.1175385E-1,0E0,0E0,1.0550232E0,0E0,0E0,0E0,0E0,0E0,0E0,0E0,0E0,0E0,0E0,0E0],"parents":[2147483647,0,0,1,1,2,2,3,3,4,4,5,5,6,6,8,8,9,9,10,10,11,11,12,12,13,13,19,19,20,20,21,21,22,22,25,25],"right_children":[2,4,6,8,10,12,14,-1,16,18,20,22,24,26,-1,-1,-1,-1,-1,28,30,32,34,-1,-1,36,-1,-1,-1,-1,-1,-1,-1,-1,-1,-1,-1],"split_conditions":[3.1431668E2,1.1098333E2,5.910333E2,2.19E1,1.909E2,4.6015E2,8.209667E2,-1.2305316E-1,8.121667E1,2.43E1,2.4771666E2,3.5666666E2,5.0255E2,6.7125E2,1.7227449E-1,-1.0202208E-1,-8.028408E-2,-8.0166265E-2,-5.4135855E-2,2.6333334E1,2.3816668E1,3.467E2,4.1111667E2,5.7750385E-2,7.7440456E-2,3.7533333E1,1.24144435E-1,-5.0982833E-2,-2.5220482E-2,5.117078E-3,-1.2452917E-2,5.4116827E-3,1.8463375E-2,2.9887533E-2,4.2622454E-2,1.2648003E-1,9.178466E-2],"split_indices":[0,0,0,0,0,0,0,0,0,1,0,0,0,0,0,0,0,0,0,1,1,0,0,0,0,1,0,0,0,0,0,0,0,0,0,0,0],"split_type":[0,0,0,0,0,0,0,0,0,0,0,0,0,0,0,0,0,0,0,0,0,0,0,0,0,0,0,0,0,0,0,0,0,0,0,0,0],"sum_hessian":[1.942E3,9.99E2,9.43E2,6.22E2,3.77E2,4.67E2,4.76E2,3.03E2,3.19E2,1.58E2,2.19E2,2.49E2,2.18E2,4.05E2,7.1E1,2.15E2,1.04E2,3.3E1,1.25E2,8.7E1,1.32E2,7.8E1,1.71E2,8.5E1,1.33E2,1.51E2,2.54E2,1.8E1,6.9E1,7E0,1.25E2,5.3E1,2.5E1,9.5E1,7.6E1,3.5E1,1.16E2],"tree_param":{"num_deleted":"0","num_feature":"2","num_nodes":"37","size_leaf_vector":"1"}},{"base_weights":[-5.1988903E-3,-9.262949E-1,1.0054191E0,-1.16699E0,-3.0407256E-1,4.8028132E-1,1.3674768E0,-1.3375871E0,-9.463404E-1,-4.7343168E-1,-1.317176E-1,2.1433082E-1,6.57084E-1,1.1620985E0,1.6773793E0,-1.1413156E-1,-1.1887262E0,-1.0226933E0,-6.836669E-1,-6.3724124E-1,-3.908407E-1,-2.0504895E-1,-5.9989586E-2,8.381811E-2,2.720593E-1,4.6480265E-2,8.0357563E-1,7.7587605E-2,1.2479181E0,1.2180196E-1,1.7195569E-1,-1.7600391E-2,-9.80254E-2,-8.891025E-2,-6.941053E-2,5.512176E-2,-6.381862E-2,-3.8514952E-3,-5.71978E-2,-3.9236866E-2,-2.3201998E-2,-0E0,-1.7985508E-2,-8.873517E-3,1.4360656E-3,-1.0761815E-2,8.663467E-3,-0E0,2.4116306E-2,6.579945E-2,9.021537E-3,1.18119955E-1,9.1170155E-2],"categories":[],"categories_nodes":[],"categories_segments":[],"categories_sizes":[],"default_left":[0,0,0,0,0,0,0,0,0,0,0,0,0,0,0,0,0,0,0,0,0,0,0,0,0,0,0,0,0,0,0,0,0,0,0,0,0,0,0,0,0,0,0,0,0,0,0,0,0,0,0,0,0],"id":17,"left_children":[1,3,5,7,9,11,13,15,17,19,21,23,25,27,29,-1,31,33,35,37,39,41,43,45,47,-1,49,-1,51,-1,-1,-1,-1,-1,-1,-1,-1,-1,-1,-1,-1,-1,-1,-1,-1,-1,-1,-1,-1,-1,-1,-1,-1],"loss_changes":[1.8155344E3,1.5138007E2,1.7453876E2,2.4133484E1,7.928831E0,1.723259E1,2.9905762E1,9.660034E-1,4.359894E0,8.903637E-1,5.916946E-1,9.283328E-1,9.1332245E-1,2.1671753E0,7.8552856E0,0E0,4.548065E0,5.933838E-1,1.3635391E1,1.4389057E0,3.1129074E-1,2.2154045E-1,3.7950084E-1,2.959977E-1,9.471803E-1,0E0,2.0508957E-1,0E0,1.1318665E0,0E0,0E0,0E0,0E0,0E0,0E0,0E0,0E0,0E0,0E0,0E0,0E0,0E0,0E0,0E0,0E0,0E0,0E0,0E0,0E0,0E0,0E0,0E0,0E0],"parents":[2147483647,0,0,1,1,2,2,3,3,4,4,5,5,6,6,7,7,8,8,9,9,10,10,11,11,12,12,13,13,14,14,16,16,17,17,18,18,19,19,20,20,21,21,22,22,23,23,24,24,26,26,28,28],"right_children":[2,4,6,8,10,12,14,16,18,20,22,24,26,28,30,-1,32,34,36,38,40,42,44,46,48,-1,50,-1,52,-1,-1,-1,-1,-1,-1,-1,-1,-1,-1,-1,-1,-1,-1,-1,-1,-1,-1,-1,-1,-1,-1,-1,-1],"split_conditions":[3.1431668E2,1.576E2,5.3148334E2,4.5116665E1,2.4066667E2,3.9996667E2,7.283333E2,1.0933333E1,3.1633333E1,2.6933332E1,2.7398334E2,3.467E2,4.9483334E2,6.044E2,8.367833E2,-1.1413156E-1,1.175E1,9.188333E1,3.185E1,2.1066668E1,1.909E2,2.7366667E1,3.6933334E1,2.2983334E1,2.52E1,4.6480265E-2,4.7E1,7.7587605E-2,4.0733334E1,1.2180196E-1,1.7195569E-1,-1.7600391E-2,-9.80254E-2,-8.891025E-2,-6.941053E-2,5.512176E-2,-6.381862E-2,-3.8514952E-3,-5.71978E-2,-3.9236866E-2,-2.3201998E-2,-0E0,-1.7985508E-2,-8.873517E-3,1.4360656E-3,-1.0761815E-2,8.663467E-3,-0E0,2.4116306E-2,6.579945E-2,9.021537E-3,1.18119955E-1,9.1170155E-2],"split_indices":[0,0,0,0,0,0,0,0,1,1,0,0,0,0,0,0,0,0,1,1,0,1,1,1,1,0,1,0,1,0,0,0,0,0,0,0,0,0,0,0,0,0,0,0,0,0,0,0,0,0,0,0,0],"split_type":[0,0,0,0,0,0,0,0,0,0,0,0,0,0,0,0,0,0,0,0,0,0,0,0,0,0,0,0,0,0,0,0,0,0,0,0,0,0,0,0,0,0,0,0,0,0,0,0,0,0,0,0,0],"sum_hessian":[1.947E3,1.019E3,9.28E2,7.33E2,2.86E2,3.81E2,5.47E2,4.07E2,3.26E2,1.41E2,1.45E2,1.55E2,2.26E2,3.35E2,2.12E2,2.43E2,1.64E2,2.47E2,7.9E1,4.1E1,1E2,6.6E1,7.9E1,5.2E1,1.03E2,1.57E2,6.9E1,1.12E2,2.23E2,1.66E2,4.6E1,7E0,1.57E2,1.48E2,9.9E1,5E0,7.4E1,6E0,3.5E1,4.4E1,5.6E1,7E0,5.9E1,5.2E1,2.7E1,2E0,5E1,9E0,9.4E1,6.6E1,3E0,6.3E1,1.6E2],"tree_param":{"num_deleted":"0","num_feature":"2","num_nodes":"53","size_leaf_vector":"1"}},{"base_weights":[8.811907E-3,-8.484435E-1,9.3160576E-1,-1.0993067E0,-3.2539973E-1,4.3250415E-1,1.2659737E0,-1.0084149E-1,-9.420095E-1,-5.238094E-1,-1.5012647E-1,1.6293778E-1,5.635033E-1,1.0873513E0,1.5277404E0,-9.899847E-1,-6.748521E-1,-6.647465E-1,-4.023937E-1,-2.1490775E-1,-3.4764867E-2,-0E0,2.0460996E-1,4.4490936E-1,6.5461904E-1,7.146692E-2,1.1569027E0,1.4078908E0,1.5747769E-1,-8.6227976E-2,-6.912115E-2,9.65819E-2,-6.529821E-2,-2.1557143E-2,-5.6645162E-2,-0E0,-3.3409692E-2,-2.2953477E-2,-9.2426855E-3,-6.1918506E-3,2.401395E-3,-5.266877E-3,2.4786987E-3,2.4180263E-3,2.20261E-2,3.671807E-2,1.1447768E-2,5.336129E-2,1.2126585E-2,1.1115136E-1,8.56783E-2,1.3277079E-1,9.842904E-2],"categories":[],"categories_nodes":[],"categories_segments":[],"categories_sizes":[],"default_left":[0,0,0,0,0,0,0,0,0,0,0,0,0,0,0,0,0,0,0,0,0,0,0,0,0,0,0,0,0,0,0,0,0,0,0,0,0,0,0,0,0,0,0,0,0,0,0,0,0,0,0,0,0],"id":18,"left_children":[1,3,5,7,9,11,13,-1,15,17,19,21,23,25,27,29,31,33,35,37,39,41,43,45,47,-1,49,51,-1,-1,-1,-1,-1,-1,-1,-1,-1,-1,-1,-1,-1,-1,-1,-1,-1,-1,-1,-1,-1,-1,-1,-1,-1],"loss_changes":[1.5611464E3,1.3272809E2,1.567063E2,1.4149353E1,1.1101456E1,1.299295E1,2.2151062E1,0E0,2.4499512E0,1.5522041E0,1.1953888E0,8.1432533E-1,1.6190033E0,1.6643066E0,5.131775E0,5.467529E-1,1.7858105E1,2.3121834E-1,5.9683895E-1,5.0865746E-1,2.2764304E-1,5.2752104E-2,1.0566697E0,3.528595E-2,2.0192337E-1,0E0,9.0234375E-1,3.004547E0,0E0,0E0,0E0,0E0,0E0,0E0,0E0,0E0,0E0,0E0,0E0,0E0,0E0,0E0,0E0,0E0,0E0,0E0,0E0,0E0,0E0,0E0,0E0,0E0,0E0],"parents":[2147483647,0,0,1,1,2,2,3,3,4,4,5,5,6,6,8,8,9,9,10,10,11,11,12,12,13,13,14,14,15,15,16,16,17,17,18,18,19,19,20,20,21,21,22,22,23,23,24,24,26,26,27,27],"right_children":[2,4,6,8,10,12,14,-1,16,18,20,22,24,26,28,30,32,34,36,38,40,42,44,46,48,-1,50,52,-1,-1,-1,-1,-1,-1,-1,-1,-1,-1,-1,-1,-1,-1,-1,-1,-1,-1,-1,-1,-1,-1,-1,-1,-1],"split_conditions":[3.1431668E2,1.3675E2,5.3148334E2,2.7966667E1,2.1938333E2,3.8831668E2,7.283333E2,-1.0084149E-1,3.1716667E1,2.985E1,2.8243332E2,2.8266666E1,4.6015E2,6.005E2,8.466E2,7.878333E1,3.185E1,2.1066668E1,3.035E1,3.52E1,3.6933334E1,2.2983334E1,3.3448334E2,4.4533333E1,4.7E1,7.146692E-2,3.9766666E1,4.345E1,1.5747769E-1,-8.6227976E-2,-6.912115E-2,9.65819E-2,-6.529821E-2,-2.1557143E-2,-5.6645162E-2,-0E0,-3.3409692E-2,-2.2953477E-2,-9.2426855E-3,-6.1918506E-3,2.401395E-3,-5.266877E-3,2.4786987E-3,2.4180263E-3,2.20261E-2,3.671807E-2,1.1447768E-2,5.336129E-2,1.2126585E-2,1.1115136E-1,8.56783E-2,1.3277079E-1,9.842904E-2],"split_indices":[0,0,0,0,0,0,0,0,1,1,0,1,0,0,0,0,1,1,1,1,1,1,0,1,1,0,1,1,0,0,0,0,0,0,0,0,0,0,0,0,0,0,0,0,0,0,0,0,0,0,0,0,0],"split_type":[0,0,0,0,0,0,0,0,0,0,0,0,0,0,0,0,0,0,0,0,0,0,0,0,0,0,0,0,0,0,0,0,0,0,0,0,0,0,0,0,0,0,0,0,0,0,0,0,0,0,0,0,0],"sum_hessian":[1.97E3,1.021E3,9.49E2,6.88E2,3.33E2,3.83E2,5.66E2,3.32E2,3.56E2,1.53E2,1.8E2,1.28E2,2.55E2,3.43E2,2.23E2,2.96E2,6E1,6.5E1,8.8E1,1.11E2,6.9E1,2.8E1,1E2,1.18E2,1.37E2,9.9E1,2.44E2,1.82E2,4.1E1,1.64E2,1.32E2,3E0,5.7E1,9E0,5.6E1,3E0,8.5E1,5.9E1,5.2E1,4.7E1,2.2E1,5E0,2.3E1,3.2E1,6.8E1,1.1E2,8E0,1.32E2,5E0,5.7E1,1.87E2,6.8E1,1.14E2],"tree_param":{"num_deleted":"0","num_feature":"2","num_nodes":"53","size_leaf_vector":"1"}},{"base_weights":[6.3604168E-3,-7.5965095E-1,8.9396703E-1,-9.9612546E-1,-2.1569441E-1,5.100827E-1,1.2113525E0,-1.154726E0,-8.044333E-1,-4.0796092E-1,-9.7386666E-2,2.7813214E-1,6.434966E-1,1.0666955E0,1.4987792E0,-9.78503E-2,-8.064798E-2,-6.994909E-2,-5.672919E-1,-5.5028987E-1,-3.3851942E-1,-1.6481152E-1,-0E0,1.5721999E-1,3.4103522E-1,-0E0,6.528363E-1,1.04758956E-1,1.0013714E0,1.5769532E-1,1.0795669E-1,5.1819075E-2,-5.1969327E-2,-1.3768408E-2,-5.9574198E-2,-0E0,-2.753873E-2,-0E0,-1.4240906E-2,1.194568E-2,-1.8199488E-3,-6.756051E-3,1.6274389E-2,2.7519383E-2,-0E0,-6.329677E-4,3.5262066E-3,4.381993E-2,5.8125995E-2,6.9764316E-2,8.780721E-2],"categories":[],"categories_nodes":[],"categories_segments":[],"categories_sizes":[],"default_left":[0,0,0,0,0,0,0,0,0,0,0,0,0,0,0,0,0,0,0,0,0,0,0,0,0,0,0,0,0,0,0,0,0,0,0,0,0,0,0,0,0,0,0,0,0,0,0,0,0,0,0],"id":19,"left_children":[1,3,5,7,9,11,13,15,17,19,21,23,25,27,29,-1,-1,-1,31,33,35,37,39,41,43,45,47,-1,49,-1,-1,-1,-1,-1,-1,-1,-1,-1,-1,-1,-1,-1,-1,-1,-1,-1,-1,-1,-1,-1,-1],"loss_changes":[1.3289084E3,1.338039E2,1.0826654E2,1.9429993E1,6.9240894E0,1.194487E1,1.627008E1,5.1379395E-1,3.891983E0,3.3309174E-1,1.2746261E0,7.9411125E-1,1.439537E0,1.7085571E0,4.7509155E0,0E0,0E0,0E0,9.0887165E0,1.7094889E0,2.2368622E-1,3.1079888E-1,2.5700846E-1,7.6729715E-1,7.957935E-2,9.300342E-3,5.4026794E-1,0E0,5.9661865E-1,0E0,0E0,0E0,0E0,0E0,0E0,0E0,0E0,0E0,0E0,0E0,0E0,0E0,0E0,0E0,0E0,0E0,0E0,0E0,0E0,0E0,0E0],"parents":[2147483647,0,0,1,1,2,2,3,3,4,4,5,5,6,6,7,7,8,8,9,9,10,10,11,11,12,12,13,13,14,14,18,18,19,19,20,20,21,21,22,22,23,23,24,24,25,25,26,26,28,28],"right_children":[2,4,6,8,10,12,14,16,18,20,22,24,26,28,30,-1,-1,-1,32,34,36,38,40,42,44,46,48,-1,50,-1,-1,-1,-1,-1,-1,-1,-1,-1,-1,-1,-1,-1,-1,-1,-1,-1,-1,-1,-1,-1,-1],"split_conditions":[3.3448334E2,1.6543333E2,5.8113336E2,4.715E1,2.3143333E2,4.1965E2,7.6065E2,1.64E1,3.1516666E1,2.6333334E1,2.9038333E2,3.6706668E2,2.6333334E1,3.8016666E1,4.0733334E1,-9.78503E-2,-8.064798E-2,-6.994909E-2,5.2583332E1,2.2516666E1,2.645E1,2.43E1,2.3566668E1,2.5816668E1,4.5366665E1,4.4523334E2,4.9085E2,1.04758956E-1,6.7125E2,1.5769532E-1,1.0795669E-1,5.1819075E-2,-5.1969327E-2,-1.3768408E-2,-5.9574198E-2,-0E0,-2.753873E-2,-0E0,-1.4240906E-2,1.194568E-2,-1.8199488E-3,-6.756051E-3,1.6274389E-2,2.7519383E-2,-0E0,-6.329677E-4,3.5262066E-3,4.381993E-2,5.8125995E-2,6.9764316E-2,8.780721E-2],"split_indices":[0,0,0,0,0,0,0,0,1,1,0,0,1,1,1,0,0,0,0,1,1,1,1,1,1,0,0,0,0,0,0,0,0,0,0,0,0,0,0,0,0,0,0,0,0,0,0,0,0,0,0],"split_type":[0,0,0,0,0,0,0,0,0,0,0,0,0,0,0,0,0,0,0,0,0,0,0,0,0,0,0,0,0,0,0,0,0,0,0,0,0,0,0,0,0,0,0,0,0,0,0,0,0,0,0],"sum_hessian":[1.951E3,1.047E3,9.04E2,7.28E2,3.19E2,4.12E2,4.92E2,3.92E2,3.36E2,1.18E2,2.01E2,1.54E2,2.58E2,3.34E2,1.58E2,2.56E2,1.36E2,2.54E2,8.2E1,3.2E1,8.6E1,1.16E2,8.5E1,5.8E1,9.6E1,4E0,2.54E2,6.2E1,2.72E2,3.2E1,1.26E2,4E0,7.8E1,1.3E1,1.9E1,1E0,8.5E1,7E0,1.09E2,8E0,7.7E1,7E0,5.1E1,9.5E1,1E0,1E0,3E0,1.14E2,1.4E2,1.26E2,1.46E2],"tree_param":{"num_deleted":"0","num_feature":"2","num_nodes":"51","size_leaf_vector":"1"}},{"base_weights":[-1.9991897E-4,-7.246949E-1,7.8450286E-1,-9.613126E-1,-3.2854557E-1,3.6077648E-1,1.0824383E0,-8.944783E-2,-8.627855E-1,-4.8275295E-1,-1.3657793E-1,1.7324634E-1,5.237408E-1,8.976226E-1,1.2878265E0,-2.009716E-1,-8.737306E-1,-5.7938373E-1,-3.7669507E-1,-1.7390881E-1,-2.5401076E-2,5.0708547E-2,2.250417E-1,5.302238E-1,-0E0,9.135789E-2,8.208173E-1,1.1883441E0,1.3553302E-1,8.447175E-2,-8.96972E-2,-7.510073E-2,-6.0106605E-2,-1.2968724E-2,-4.7657065E-2,-1.7910475E-3,-3.2161985E-2,-1.9462321E-2,-8.36997E-3,-5.5013853E-3,1.8379635E-3,-1.0180908E-2,5.6275837E-3,8.579498E-3,2.3195287E-2,3.7813365E-2,5.374268E-2,5.3397726E-2,7.039206E-2,1.109388E-1,8.408428E-2],"categories":[],"categories_nodes":[],"categories_segments":[],"categories_sizes":[],"default_left":[0,0,0,0,0,0,0,0,0,0,0,0,0,0,0,0,0,0,0,0,0,0,0,0,0,0,0,0,0,0,0,0,0,0,0,0,0,0,0,0,0,0,0,0,0,0,0,0,0,0,0],"id":20,"left_children":[1,3,5,7,9,11,13,-1,15,17,19,21,23,25,27,29,31,33,35,37,39,41,43,45,-1,-1,47,49,-1,-1,-1,-1,-1,-1,-1,-1,-1,-1,-1,-1,-1,-1,-1,-1,-1,-1,-1,-1,-1,-1,-1],"loss_changes":[1.1286903E3,9.5490295E1,1.18742004E2,7.130554E0,1.105254E1,1.1550995E1,1.789331E1,0E0,1.9953918E0,1.2454224E0,6.104181E-1,1.0128078E0,5.894356E-1,2.8722076E0,5.305481E0,1.3271062E1,9.5233154E-1,1.0136795E-1,7.1455383E-1,3.665533E-1,1.3652343E-1,1.9668938E-1,6.927433E-1,4.5765686E-1,0E0,0E0,2.1769714E-1,1.9073792E0,0E0,0E0,0E0,0E0,0E0,0E0,0E0,0E0,0E0,0E0,0E0,0E0,0E0,0E0,0E0,0E0,0E0,0E0,0E0,0E0,0E0,0E0,0E0],"parents":[2147483647,0,0,1,1,2,2,3,3,4,4,5,5,6,6,8,8,9,9,10,10,11,11,12,12,13,13,14,14,15,15,16,16,17,17,18,18,19,19,20,20,21,21,22,22,23,23,26,26,27,27],"right_children":[2,4,6,8,10,12,14,-1,16,18,20,22,24,26,28,30,32,34,36,38,40,42,44,46,-1,-1,48,50,-1,-1,-1,-1,-1,-1,-1,-1,-1,-1,-1,-1,-1,-1,-1,-1,-1,-1,-1,-1,-1,-1,-1],"split_conditions":[3.0928333E2,1.1098333E2,5.3148334E2,1.0933333E1,2.1938333E2,4.1111667E2,7.0893335E2,-8.944783E-2,1.175E1,1.614E2,2.8638333E2,3.467E2,4.7E1,3.7733334E1,8.367833E2,2.505E1,6.938333E1,1.9E1,2.195E1,3.3516666E1,3.635E1,2.2983334E1,3.3283333E1,5.0255E2,-0E0,9.135789E-2,6.044E2,4.3716667E1,1.3553302E-1,8.447175E-2,-8.96972E-2,-7.510073E-2,-6.0106605E-2,-1.2968724E-2,-4.7657065E-2,-1.7910475E-3,-3.2161985E-2,-1.9462321E-2,-8.36997E-3,-5.5013853E-3,1.8379635E-3,-1.0180908E-2,5.6275837E-3,8.579498E-3,2.3195287E-2,3.7813365E-2,5.374268E-2,5.3397726E-2,7.039206E-2,1.109388E-1,8.408428E-2],"split_indices":[0,0,0,0,0,0,0,0,0,0,0,0,1,1,0,1,0,1,1,1,1,1,1,0,0,0,0,1,0,0,0,0,0,0,0,0,0,0,0,0,0,0,0,0,0,0,0,0,0,0,0],"split_type":[0,0,0,0,0,0,0,0,0,0,0,0,0,0,0,0,0,0,0,0,0,0,0,0,0,0,0,0,0,0,0,0,0,0,0,0,0,0,0,0,0,0,0,0,0,0,0,0,0,0,0],"sum_hessian":[1.982E3,1.031E3,9.51E2,6.43E2,3.88E2,3.95E2,5.56E2,2.39E2,4.04E2,2.12E2,1.76E2,1.87E2,2.08E2,2.99E2,2.57E2,8E0,3.96E2,1.04E2,1.08E2,1.27E2,4.9E1,6E1,1.27E2,2.05E2,3E0,6.4E1,2.35E2,2.13E2,4.4E1,3E0,5E0,2.48E2,1.48E2,6E0,9.8E1,9E0,9.9E1,5.7E1,7E1,3.2E1,1.7E1,2E0,5.8E1,5E1,7.7E1,1.54E2,5.1E1,7.4E1,1.61E2,7.9E1,1.34E2],"tree_param":{"num_deleted":"0","num_feature":"2","num_nodes":"51","size_leaf_vector":"1"}},{"base_weights":[-8.459708E-4,-6.567345E-1,7.423483E-1,-8.940727E-1,-2.9598728E-1,4.152458E-1,1.0443784E0,-8.215095E-2,-7.649105E-1,-4.3141064E-1,-6.4866364E-2,1.9194391E-1,5.473294E-1,9.743014E-1,1.2636125E-1,-6.355984E-2,-5.210542E-1,-5.061472E-2,-3.5676047E-1,-1.0096325E-1,2.0323092E-2,1.0303618E-1,2.6181665E-1,3.768226E-2,5.362159E-2,8.618331E-1,1.1103525E0,9.660504E-2,-5.7480223E-2,-3.647657E-2,-1.8933158E-2,2.8303969E-3,-9.594269E-3,-7.028375E-4,6.2537687E-3,1.0412508E-3,1.2332742E-2,5.2848654E-3,2.4569448E-2,8.763594E-2,6.35072E-2,1.0386638E-1,7.55893E-2],"categories":[],"categories_nodes":[],"categories_segments":[],"categories_sizes":[],"default_left":[0,0,0,0,0,0,0,0,0,0,0,0,0,0,0,0,0,0,0,0,0,0,0,0,0,0,0,0,0,0,0,0,0,0,0,0,0,0,0,0,0,0,0],"id":21,"left_children":[1,3,5,7,9,11,13,-1,15,17,19,21,23,25,-1,-1,27,-1,29,31,33,35,37,-1,-1,39,41,-1,-1,-1,-1,-1,-1,-1,-1,-1,-1,-1,-1,-1,-1,-1,-1],"loss_changes":[9.618879E2,8.862479E1,8.974249E1,8.408997E0,1.279092E1,1.2582535E1,1.3803223E1,0E0,8.785248E-1,2.9697113E0,5.3988665E-1,7.9565525E-1,1.3928528E0,3.7496338E0,0E0,0E0,1.5755614E1,0E0,1.7562065E0,3.5970092E-1,1.16386E-1,2.72278E-1,5.459323E-1,0E0,0E0,1.2749786E0,2.3453217E0,0E0,0E0,0E0,0E0,0E0,0E0,0E0,0E0,0E0,0E0,0E0,0E0,0E0,0E0,0E0,0E0],"parents":[2147483647,0,0,1,1,2,2,3,3,4,4,5,5,6,6,8,8,9,9,10,10,11,11,12,12,13,13,16,16,18,18,19,19,20,20,21,21,22,22,25,25,26,26],"right_children":[2,4,6,8,10,12,14,-1,16,18,20,22,24,26,-1,-1,28,-1,30,32,34,36,38,-1,-1,40,42,-1,-1,-1,-1,-1,-1,-1,-1,-1,-1,-1,-1,-1,-1,-1,-1],"split_conditions":[3.2316666E2,1.1098333E2,5.8113336E2,2.39E1,2.4771666E2,4.1523334E2,8.367833E2,-8.215095E-2,3.1716667E1,2.5816668E1,3.7733334E1,3.6183334E1,5.1773334E2,7.1761664E2,1.2636125E-1,-6.355984E-2,3.185E1,-5.061472E-2,1.8001666E2,2.3816668E1,2.9038333E2,3.6706668E2,3.4836667E2,3.768226E-2,5.362159E-2,3.8016666E1,4.5666668E1,9.660504E-2,-5.7480223E-2,-3.647657E-2,-1.8933158E-2,2.8303969E-3,-9.594269E-3,-7.028375E-4,6.2537687E-3,1.0412508E-3,1.2332742E-2,5.2848654E-3,2.4569448E-2,8.763594E-2,6.35072E-2,1.0386638E-1,7.55893E-2],"split_indices":[0,0,0,0,0,0,0,0,1,1,1,1,0,0,0,0,1,0,0,1,0,0,0,0,0,1,1,0,0,0,0,0,0,0,0,0,0,0,0,0,0,0,0],"split_type":[0,0,0,0,0,0,0,0,0,0,0,0,0,0,0,0,0,0,0,0,0,0,0,0,0,0,0,0,0,0,0,0,0,0,0,0,0,0,0,0,0,0,0],"sum_hessian":[1.97E3,1.047E3,9.23E2,6.29E2,4.18E2,4.46E2,4.77E2,3.02E2,3.27E2,2.61E2,1.57E2,1.69E2,2.77E2,4.27E2,5E1,2.86E2,4.1E1,6.5E1,1.96E2,1.15E2,4.2E1,8E1,8.9E1,1.79E2,9.8E1,2.43E2,1.84E2,3E0,3.8E1,1.02E2,9.4E1,1E1,1.05E2,2.2E1,2E1,3.4E1,4.6E1,2E1,6.9E1,4.7E1,1.96E2,7.9E1,1.05E2],"tree_param":{"num_deleted":"0","num_feature":"2","num_nodes":"43","size_leaf_vector":"1"}},{"base_weights":[1.2382064E-2,-6.101512E-1,6.8160695E-1,-8.0783504E-1,-2.623392E-1,3.047922E-1,9.2291564E-1,-7.574097E-2,-7.251206E-1,-4.178645E-1,-1.2905587E-1,1.5889432E-1,4.2286086E-1,8.178442E-1,1.221398E0,-1.1362324E-1,-7.3519886E-1,-6.028245E-1,-2.8285153E-2,-1.6057041E-1,-3.1399395E-2,8.056992E-2,2.1918856E-1,1.1267527E-1,3.4654938E-2,6.844527E-1,8.985745E-1,1.3209458E-1,8.553074E-2,8.4268145E-2,-7.94376E-2,-6.115583E-2,-4.297444E-2,-5.7936873E-2,-2.6661118E-2,-1.767907E-2,-7.3622116E-3,-6.7308503E-3,2.608043E-3,1.4622011E-2,-8.4251456E-4,5.945596E-3,2.1473393E-2,-1.7386746E-2,2.9372433E-2,6.7069255E-2,4.9007062E-2,8.63807E-2,6.509721E-2],"categories":[],"categories_nodes":[],"categories_segments":[],"categories_sizes":[],"default_left":[0,0,0,0,0,0,0,0,0,0,0,0,0,0,0,0,0,0,0,0,0,0,0,0,0,0,0,0,0,0,0,0,0,0,0,0,0,0,0,0,0,0,0,0,0,0,0,0,0],"id":22,"left_children":[1,3,5,7,9,11,13,-1,15,17,19,21,23,25,27,29,31,33,-1,35,37,39,41,43,-1,45,47,-1,-1,-1,-1,-1,-1,-1,-1,-1,-1,-1,-1,-1,-1,-1,-1,-1,-1,-1,-1,-1,-1],"loss_changes":[8.1718976E2,6.883392E1,8.477646E1,5.249695E0,7.2851143E0,5.9568443E0,1.510202E1,0E0,1.904419E0,1.0701714E0,5.062313E-1,6.009774E-1,2.3874283E-1,2.6535034E0,4.8359833E0,1.1695787E1,8.7646484E-1,2.2151566E-1,0E0,3.975575E-1,2.2695296E-1,8.673299E-1,4.1442347E-1,1.1241406E0,0E0,1.6656494E-1,1.3785858E0,0E0,0E0,0E0,0E0,0E0,0E0,0E0,0E0,0E0,0E0,0E0,0E0,0E0,0E0,0E0,0E0,0E0,0E0,0E0,0E0,0E0,0E0],"parents":[2147483647,0,0,1,1,2,2,3,3,4,4,5,5,6,6,8,8,9,9,10,10,11,11,12,12,13,13,14,14,15,15,16,16,17,17,19,19,20,20,21,21,22,22,23,23,25,25,26,26],"right_children":[2,4,6,8,10,12,14,-1,16,18,20,22,24,26,28,30,32,34,-1,36,38,40,42,44,-1,46,48,-1,-1,-1,-1,-1,-1,-1,-1,-1,-1,-1,-1,-1,-1,-1,-1,-1,-1,-1,-1,-1,-1],"split_conditions":[3.1431668E2,1.223E2,5.217E2,1.0933333E1,2.0523334E2,4.1111667E2,7.720833E2,-7.574097E-2,1.175E1,2.4433332E1,2.8638333E2,3.6183334E1,2.6933332E1,6.3376666E2,4.0733334E1,2.505E1,3.1716667E1,1.6543333E2,-2.8285153E-2,3.4216667E1,3.635E1,3.0566668E1,3.4836667E2,4.4523334E2,3.4654938E-2,3.6816666E1,4.065E1,1.3209458E-1,8.553074E-2,8.4268145E-2,-7.94376E-2,-6.115583E-2,-4.297444E-2,-5.7936873E-2,-2.6661118E-2,-1.767907E-2,-7.3622116E-3,-6.7308503E-3,2.608043E-3,1.4622011E-2,-8.4251456E-4,5.945596E-3,2.1473393E-2,-1.7386746E-2,2.9372433E-2,6.7069255E-2,4.9007062E-2,8.63807E-2,6.509721E-2],"split_indices":[0,0,0,0,0,0,0,0,0,1,0,1,1,0,1,1,1,0,0,1,1,1,0,0,0,1,1,0,0,0,0,0,0,0,0,0,0,0,0,0,0,0,0,0,0,0,0,0,0],"split_type":[0,0,0,0,0,0,0,0,0,0,0,0,0,0,0,0,0,0,0,0,0,0,0,0,0,0,0,0,0,0,0,0,0,0,0,0,0,0,0,0,0,0,0,0,0,0,0,0,0],"sum_hessian":[1.958E3,1.014E3,9.44E2,6.44E2,3.7E2,3.71E2,5.73E2,2.31E2,4.13E2,1.67E2,2.03E2,1.7E2,2.01E2,4.3E2,1.43E2,8E0,4.05E2,3.7E1,1.3E2,1.48E2,5.5E1,8E1,9E1,9E0,1.92E2,1.71E2,2.59E2,3.2E1,1.11E2,3E0,5E0,3.46E2,5.9E1,2.2E1,1.5E1,7.2E1,7.6E1,3.5E1,2E1,4E1,4E1,2.7E1,6.3E1,3E0,6E0,4.6E1,1.25E2,7.4E1,1.85E2],"tree_param":{"num_deleted":"0","num_feature":"2","num_nodes":"49","size_leaf_vector":"1"}},{"base_weights":[-4.743957E-3,-5.531351E-1,6.2858963E-1,-7.07616E-1,-1.7993867E-1,2.982488E-1,8.5173607E-1,-7.924255E-1,-5.310698E-1,-2.638534E-1,-5.151391E-2,1.7267327E-1,4.1411915E-1,7.787417E-1,1.2824159E0,-7.036721E-2,-5.751094E-2,-6.693884E-2,-5.03155E-1,-3.7200978E-1,-1.993284E-1,-8.693541E-2,1.0065963E-2,5.5465285E-2,2.258067E-1,4.2229208E-1,-0E0,6.5775275E-1,8.7146693E-1,1.373232E-1,8.506995E-2,-1.7044632E-2,-4.1924294E-2,-3.0262822E-2,-0E0,-0E0,-1.6534166E-2,6.441855E-3,-9.013378E-3,-9.127266E-4,3.2256704E-3,1.1690592E-2,-6.618002E-3,7.971902E-3,1.9642565E-2,2.9920071E-2,4.1959003E-2,7.0521854E-2,4.8099652E-2,8.63154E-2,6.355824E-2],"categories":[],"categories_nodes":[],"categories_segments":[],"categories_sizes":[],"default_left":[0,0,0,0,0,0,0,0,0,0,0,0,0,0,0,0,0,0,0,0,0,0,0,0,0,0,0,0,0,0,0,0,0,0,0,0,0,0,0,0,0,0,0,0,0,0,0,0,0,0,0],"id":23,"left_children":[1,3,5,7,9,11,13,15,17,19,21,23,25,27,29,-1,-1,-1,31,33,35,37,39,41,43,45,-1,47,49,-1,-1,-1,-1,-1,-1,-1,-1,-1,-1,-1,-1,-1,-1,-1,-1,-1,-1,-1,-1,-1,-1],"loss_changes":[6.909029E2,6.0748047E1,6.689441E1,9.760529E0,3.189888E0,4.992981E0,1.43151245E1,1.1882935E0,6.28006E-1,8.410578E-1,3.3051768E-1,9.6642256E-1,4.1879272E-1,3.4335632E0,2.4273834E0,0E0,0E0,0E0,8.02948E-1,1.6153717E-1,2.4390888E-1,4.1691905E-1,4.587241E-2,8.56713E-1,5.9126854E-2,4.8828125E-2,0E0,9.367676E-1,1.582962E0,0E0,0E0,0E0,0E0,0E0,0E0,0E0,0E0,0E0,0E0,0E0,0E0,0E0,0E0,0E0,0E0,0E0,0E0,0E0,0E0,0E0,0E0],"parents":[2147483647,0,0,1,1,2,2,3,3,4,4,5,5,6,6,7,7,8,8,9,9,10,10,11,11,12,12,13,13,14,14,18,18,19,19,20,20,21,21,22,22,23,23,24,24,25,25,27,27,28,28],"right_children":[2,4,6,8,10,12,14,16,18,20,22,24,26,28,30,-1,-1,-1,32,34,36,38,40,42,44,46,-1,48,50,-1,-1,-1,-1,-1,-1,-1,-1,-1,-1,-1,-1,-1,-1,-1,-1,-1,-1,-1,-1,-1,-1],"split_conditions":[3.2316666E2,1.576E2,5.3148334E2,6.938333E1,2.612E2,4.3001666E2,8.209667E2,7.8E0,1.5E1,2.985E1,3.7733334E1,3.3616665E1,4.7E1,6.6198334E2,4.1216667E1,-7.036721E-2,-5.751094E-2,-6.693884E-2,1.9E1,2.58E2,3.0216667E1,2.4683332E1,2.7686667E2,3E1,3.4836667E2,5.0255E2,-0E0,3.495E1,4.085E1,1.373232E-1,8.506995E-2,-1.7044632E-2,-4.1924294E-2,-3.0262822E-2,-0E0,-0E0,-1.6534166E-2,6.441855E-3,-9.013378E-3,-9.127266E-4,3.2256704E-3,1.1690592E-2,-6.618002E-3,7.971902E-3,1.9642565E-2,2.9920071E-2,4.1959003E-2,7.0521854E-2,4.8099652E-2,8.63154E-2,6.355824E-2],"split_indices":[0,0,0,0,0,0,0,0,1,1,1,1,1,0,1,0,0,0,1,0,1,1,0,1,0,0,0,1,1,0,0,0,0,0,0,0,0,0,0,0,0,0,0,0,0,0,0,0,0,0,0],"split_type":[0,0,0,0,0,0,0,0,0,0,0,0,0,0,0,0,0,0,0,0,0,0,0,0,0,0,0,0,0,0,0,0,0,0,0,0,0,0,0,0,0,0,0,0,0,0,0,0,0,0,0],"sum_hessian":[1.986E3,1.065E3,9.21E2,7.51E2,3.14E2,3.74E2,5.47E2,5.01E2,2.5E2,1.86E2,1.28E2,1.84E2,1.9E2,4.73E2,7.4E1,2.17E2,2.84E2,1.5E1,2.35E2,6.3E1,1.23E2,8.7E1,4.1E1,6.2E1,1.22E2,1.85E2,5E0,2.14E2,2.59E2,2E1,5.4E1,1.9E1,2.16E2,6.2E1,1E0,3E0,1.2E2,8E0,7.9E1,1.3E1,2.8E1,4E1,2.2E1,2.2E1,1E2,1.35E2,5E1,3.6E1,1.78E2,6.2E1,1.97E2],"tree_param":{"num_deleted":"0","num_feature":"2","num_nodes":"51","size_leaf_vector":"1"}},{"base_weights":[-3.003686E-3,-5.3328973E-1,5.6879616E-1,-7.02178E-1,-2.5836852E-1,3.3853152E-1,8.3801204E-1,-6.466254E-2,-5.974081E-1,-4.064E-1,-1.378236E-1,1.7475691E-1,4.595363E-1,7.873749E-1,9.720352E-2,-4.9861763E-2,-3.692812E-1,-4.0239222E-2,-2.4587676E-2,-1.8154213E-1,-4.389805E-2,6.320237E-2,2.2661303E-1,2.8942177E-2,5.1895225E-1,8.60934E-2,7.323311E-1,9.653788E-2,-4.562848E-2,-1.7866137E-2,-8.233879E-3,-7.1519255E-3,1.3272564E-3,-0E0,8.6455E-3,-0E0,1.8577209E-2,5.6983795E-2,3.6714666E-2,4.9226955E-2,6.2618196E-2],"categories":[],"categories_nodes":[],"categories_segments":[],"categories_sizes":[],"default_left":[0,0,0,0,0,0,0,0,0,0,0,0,0,0,0,0,0,0,0,0,0,0,0,0,0,0,0,0,0,0,0,0,0,0,0,0,0,0,0,0,0],"id":24,"left_children":[1,3,5,7,9,11,13,-1,15,17,19,21,23,25,-1,-1,27,-1,-1,29,31,33,35,-1,37,-1,39,-1,-1,-1,-1,-1,-1,-1,-1,-1,-1,-1,-1,-1,-1],"loss_changes":[5.950128E2,4.641446E1,5.731259E1,5.3246155E0,6.567917E0,9.643341E0,5.4332275E0,0E0,9.34906E-1,9.0332794E-1,7.5744534E-1,1.090034E0,8.4671783E-1,3.738083E0,0E0,0E0,1.336895E1,0E0,0E0,2.4380589E-1,2.573079E-1,2.3902127E-1,5.610466E-2,0E0,7.572174E-1,0E0,3.0400085E-1,0E0,0E0,0E0,0E0,0E0,0E0,0E0,0E0,0E0,0E0,0E0,0E0,0E0,0E0],"parents":[2147483647,0,0,1,1,2,2,3,3,4,4,5,5,6,6,8,8,9,9,10,10,11,11,12,12,13,13,16,16,19,19,20,20,21,21,22,22,24,24,26,26],"right_children":[2,4,6,8,10,12,14,-1,16,18,20,22,24,26,-1,-1,28,-1,-1,30,32,34,36,-1,38,-1,40,-1,-1,-1,-1,-1,-1,-1,-1,-1,-1,-1,-1,-1,-1],"split_conditions":[3.1431668E2,1.08183334E2,6.1406665E2,2.39E1,1.909E2,4.4523334E2,8.367833E2,-6.466254E-2,3.1716667E1,2.9916666E1,2.7398334E2,3.5666666E2,5.0611667E2,3.7733334E1,9.720352E-2,-4.9861763E-2,3.185E1,-4.0239222E-2,-2.4587676E-2,3.52E1,3.6933334E1,3.4733334E1,2.4766666E1,2.8942177E-2,3.495E1,8.60934E-2,6.8195E2,9.653788E-2,-4.562848E-2,-1.7866137E-2,-8.233879E-3,-7.1519255E-3,1.3272564E-3,-0E0,8.6455E-3,-0E0,1.8577209E-2,5.6983795E-2,3.6714666E-2,4.9226955E-2,6.2618196E-2],"split_indices":[0,0,0,0,0,0,0,0,1,1,0,0,0,1,0,0,1,0,0,1,1,1,1,0,1,0,0,0,0,0,0,0,0,0,0,0,0,0,0,0,0],"split_type":[0,0,0,0,0,0,0,0,0,0,0,0,0,0,0,0,0,0,0,0,0,0,0,0,0,0,0,0,0,0,0,0,0,0,0,0,0,0,0,0,0],"sum_hessian":[1.959E3,1.017E3,9.42E2,6.27E2,3.9E2,5.11E2,4.31E2,3.03E2,3.24E2,1.71E2,2.19E2,2.21E2,2.9E2,3.86E2,4.5E1,2.86E2,3.8E1,8E1,9.1E1,1.44E2,7.5E1,7.5E1,1.46E2,1.18E2,1.72E2,5.5E1,3.31E2,3E0,3.5E1,8.7E1,5.7E1,4.8E1,2.7E1,3E1,4.5E1,6E0,1.4E2,3.4E1,1.38E2,1.1E2,2.21E2],"tree_param":{"num_deleted":"0","num_feature":"2","num_nodes":"41","size_leaf_vector":"1"}},{"base_weights":[1.5236071E-2,-4.6942276E-1,5.489872E-1,-6.37825E-1,-2.1194254E-1,3.2694793E-1,7.9777724E-1,-5.9202775E-2,-5.7237655E-1,-3.067457E-1,-5.153498E-2,2.2169176E-1,4.8200828E-1,7.40576E-1,9.537698E-2,-2.9161415E-1,-5.81441E-1,-3.907181E-1,-2.3621614E-1,-8.4663056E-2,1.5299723E-2,9.7838625E-2,2.8143537E-1,5.3046297E-2,3.4731336E-2,7.35586E-2,5.4450378E-2,6.142555E-2,-5.920082E-2,-4.9555626E-2,-3.8172796E-2,-0E0,-3.1730503E-2,-2.409909E-2,-1.230715E-2,-0E0,-7.7712303E-3,-1.0505973E-3,3.942565E-3,-1.3804543E-3,1.1346981E-2,1.7272104E-2,2.7788311E-2],"categories":[],"categories_nodes":[],"categories_segments":[],"categories_sizes":[],"default_left":[0,0,0,0,0,0,0,0,0,0,0,0,0,0,0,0,0,0,0,0,0,0,0,0,0,0,0,0,0,0,0,0,0,0,0,0,0,0,0,0,0,0,0],"id":25,"left_children":[1,3,5,7,9,11,13,-1,15,17,19,21,23,25,-1,27,29,31,33,35,37,39,41,-1,-1,-1,-1,-1,-1,-1,-1,-1,-1,-1,-1,-1,-1,-1,-1,-1,-1,-1,-1],"loss_changes":[5.1053937E2,4.408177E1,5.079187E1,2.65802E0,6.0341473E0,7.568081E0,7.2825317E0,0E0,1.8223572E-1,9.872551E-1,3.9298442E-1,1.9728355E0,5.744629E-1,2.1661835E0,0E0,9.357557E0,3.2455444E-1,4.3441772E-2,4.393034E-1,1.6845638E-1,6.887736E-2,6.091099E-1,4.015627E-1,0E0,0E0,0E0,0E0,0E0,0E0,0E0,0E0,0E0,0E0,0E0,0E0,0E0,0E0,0E0,0E0,0E0,0E0,0E0,0E0],"parents":[2147483647,0,0,1,1,2,2,3,3,4,4,5,5,6,6,8,8,9,9,10,10,11,11,12,12,13,13,15,15,16,16,17,17,18,18,19,19,20,20,21,21,22,22],"right_children":[2,4,6,8,10,12,14,-1,16,18,20,22,24,26,-1,28,30,32,34,36,38,40,42,-1,-1,-1,-1,-1,-1,-1,-1,-1,-1,-1,-1,-1,-1,-1,-1,-1,-1,-1,-1],"split_conditions":[3.2316666E2,1.1098333E2,6.1406665E2,9.966666E0,2.4771666E2,4.9483334E2,8.367833E2,-5.9202775E-2,1.175E1,2.9916666E1,3.7733334E1,3.8516666E2,3.3866665E1,3.9766666E1,9.537698E-2,2.505E1,7.878333E1,1.1415E2,1.8001666E2,2.3816668E1,2.7686667E2,2.8483334E1,4.0083332E1,5.3046297E-2,3.4731336E-2,7.35586E-2,5.4450378E-2,6.142555E-2,-5.920082E-2,-4.9555626E-2,-3.8172796E-2,-0E0,-3.1730503E-2,-2.409909E-2,-1.230715E-2,-0E0,-7.7712303E-3,-1.0505973E-3,3.942565E-3,-1.3804543E-3,1.1346981E-2,1.7272104E-2,2.7788311E-2],"split_indices":[0,0,0,0,0,0,0,0,0,1,1,0,1,1,0,1,0,0,0,1,0,1,1,0,0,0,0,0,0,0,0,0,0,0,0,0,0,0,0,0,0,0,0],"split_type":[0,0,0,0,0,0,0,0,0,0,0,0,0,0,0,0,0,0,0,0,0,0,0,0,0,0,0,0,0,0,0,0,0,0,0,0,0,0,0,0,0,0,0],"sum_hessian":[1.97E3,1.032E3,9.38E2,6.21E2,4.11E2,4.99E2,4.39E2,2.32E2,3.89E2,2.55E2,1.56E2,3.02E2,1.97E2,3.89E2,5E1,1.6E1,3.73E2,1.09E2,1.46E2,1.1E2,4.6E1,1.03E2,1.99E2,3.4E1,1.63E2,8.9E1,3E2,4E0,1.2E1,2.63E2,1.1E2,3E0,1.06E2,7.5E1,7.1E1,9E0,1.01E2,1.6E1,3E1,2.5E1,7.8E1,1.08E2,9.1E1],"tree_param":{"num_deleted":"0","num_feature":"2","num_nodes":"43","size_leaf_vector":"1"}},{"base_weights":[2.3027717E-3,-4.4357297E-1,4.8246497E-1,-6.0318017E-1,-1.9916731E-1,2.587969E-1,6.837301E-1,-5.160569E-2,-3.6442123E-2,-3.20973E-1,-9.297748E-2,1.4411442E-1,3.698719E-1,6.0815346E-1,9.3270004E-1,-4.4184875E-1,-2.723649E-1,-1.5866812E-1,-2.5844783E-2,2.8852073E-2,1.9043055E-1,2.4714615E-2,4.2896956E-1,6.563128E-2,5.587631E-1,1.0567256E-1,8.0871034E-1,-2.1186387E-3,-3.8094774E-2,-1.8783119E-3,-2.2453722E-2,-2.6644444E-2,-8.810545E-3,-4.8987446E-3,8.93877E-4,-9.798477E-3,3.799707E-3,9.339911E-3,2.0339783E-2,3.584886E-2,8.08908E-3,3.7610676E-2,4.987507E-2,5.603401E-2,8.484201E-2],"categories":[],"categories_nodes":[],"categories_segments":[],"categories_sizes":[],"default_left":[0,0,0,0,0,0,0,0,0,0,0,0,0,0,0,0,0,0,0,0,0,0,0,0,0,0,0,0,0,0,0,0,0,0,0,0,0,0,0,0,0,0,0,0,0],"id":26,"left_children":[1,3,5,7,9,11,13,-1,-1,15,17,19,21,23,25,27,29,31,33,35,37,-1,39,-1,41,-1,43,-1,-1,-1,-1,-1,-1,-1,-1,-1,-1,-1,-1,-1,-1,-1,-1,-1,-1],"loss_changes":[4.1801773E2,3.877968E1,4.148079E1,2.6113129E0,4.9225674E0,5.3294334E0,7.382004E0,0E0,0E0,4.5209694E-1,8.556057E-1,1.0693293E0,1.411953E-1,2.425827E0,2.1865005E0,3.4299374E-1,9.512329E-2,5.7485294E-1,1.8277338E-1,1.643784E-1,4.6846628E-1,0E0,2.504921E-1,0E0,6.7816925E-1,0E0,9.928894E-2,0E0,0E0,0E0,0E0,0E0,0E0,0E0,0E0,0E0,0E0,0E0,0E0,0E0,0E0,0E0,0E0,0E0,0E0],"parents":[2147483647,0,0,1,1,2,2,3,3,4,4,5,5,6,6,9,9,10,10,11,11,12,12,13,13,14,14,15,15,16,16,17,17,18,18,19,19,20,20,22,22,24,24,26,26],"right_children":[2,4,6,8,10,12,14,-1,-1,16,18,20,22,24,26,28,30,32,34,36,38,-1,40,-1,42,-1,44,-1,-1,-1,-1,-1,-1,-1,-1,-1,-1,-1,-1,-1,-1,-1,-1,-1,-1],"split_conditions":[3.1431668E2,1.08183334E2,5.7445E2,6.7E1,1.909E2,4.4523334E2,7.936E2,-5.160569E-2,-3.6442123E-2,2.43E1,2.58E2,3.5666666E2,5.0611667E2,3.8016666E1,4.0733334E1,1.1665E2,2.5466667E1,2.6333334E1,3.6183334E1,2.2983334E1,3.865E1,2.4714615E-2,4.7E1,6.563128E-2,6.796E2,1.0567256E-1,8.787E2,-2.1186387E-3,-3.8094774E-2,-1.8783119E-3,-2.2453722E-2,-2.6644444E-2,-8.810545E-3,-4.8987446E-3,8.93877E-4,-9.798477E-3,3.799707E-3,9.339911E-3,2.0339783E-2,3.584886E-2,8.08908E-3,3.7610676E-2,4.987507E-2,5.603401E-2,8.484201E-2],"split_indices":[0,0,0,0,0,0,0,0,0,1,0,0,0,1,1,0,1,1,1,1,1,0,1,0,0,0,0,0,0,0,0,0,0,0,0,0,0,0,0,0,0,0,0,0,0],"split_type":[0,0,0,0,0,0,0,0,0,0,0,0,0,0,0,0,0,0,0,0,0,0,0,0,0,0,0,0,0,0,0,0,0,0,0,0,0,0,0,0,0,0,0,0,0],"sum_hessian":[1.949E3,1.01E3,9.39E2,6.08E2,4.02E2,4.48E2,4.91E2,4.66E2,1.42E2,1.83E2,2.19E2,2.25E2,2.23E2,3.83E2,1.08E2,4.5E1,1.38E2,1.05E2,1.14E2,6.9E1,1.56E2,1.2E2,1.03E2,6.5E1,3.18E2,2.1E1,8.7E1,5E0,4E1,7E0,1.31E2,1.8E1,8.7E1,6.6E1,4.8E1,3E0,6.6E1,7.9E1,7.7E1,9.5E1,8E0,1.44E2,1.74E2,6.7E1,2E1],"tree_param":{"num_deleted":"0","num_feature":"2","num_nodes":"45","size_leaf_vector":"1"}},{"base_weights":[1.3819301E-3,-3.9166006E-1,4.6418193E-1,-5.075054E-1,-1.09041676E-1,2.9879057E-1,6.8065727E-1,-5.6044275E-1,-3.7490842E-1,-1.9189754E-1,-3.0862108E-2,1.549862E-1,3.7609363E-1,1.1860708E-1,6.53785E-1,-5.126404E-2,-4.062792E-2,-3.4191426E-2,-2.6616526E-1,-0E0,-2.156013E-1,1.2661438E-1,-5.0383214E-2,9.968927E-2,2.0174904E-1,2.3775185E-2,4.3284082E-1,6.213828E-1,8.3356604E-2,-2.5899377E-2,-6.937762E-3,-5.5061607E-3,3.5273896E-3,-6.024691E-2,-1.4762251E-2,-0E0,2.1079304E-2,-6.709553E-3,1.2114412E-3,1.252725E-2,1.7149774E-3,1.6621469E-2,-0E0,4.849463E-2,3.071099E-2,5.7797056E-2,4.353049E-2],"categories":[],"categories_nodes":[],"categories_segments":[],"categories_sizes":[],"default_left":[0,0,0,0,0,0,0,0,0,0,0,0,0,0,0,0,0,0,0,0,0,0,0,0,0,0,0,0,0,0,0,0,0,0,0,0,0,0,0,0,0,0,0,0,0,0,0],"id":27,"left_children":[1,3,5,7,9,11,13,15,17,19,21,23,25,-1,27,-1,-1,-1,29,31,33,35,37,39,41,-1,43,45,-1,-1,-1,-1,-1,-1,-1,-1,-1,-1,-1,-1,-1,-1,-1,-1,-1,-1,-1],"loss_changes":[3.6246057E2,3.4787186E1,3.1851547E1,4.4282074E0,1.9077437E0,5.4039803E0,5.5545044E0,1.0300751E0,6.786194E-1,7.022476E-1,4.837093E-1,2.7289486E-1,8.5090256E-1,0E0,2.7399445E0,0E0,0E0,0E0,5.501003E-1,5.6429505E-2,1.4341602E0,4.217585E-1,3.8284138E-1,3.1359494E-1,1.03933334E-1,0E0,6.031189E-1,1.3883209E0,0E0,0E0,0E0,0E0,0E0,0E0,0E0,0E0,0E0,0E0,0E0,0E0,0E0,0E0,0E0,0E0,0E0,0E0,0E0],"parents":[2147483647,0,0,1,1,2,2,3,3,4,4,5,5,6,6,7,7,8,8,9,9,10,10,11,11,12,12,14,14,18,18,19,19,20,20,21,21,22,22,23,23,24,24,26,26,27,27],"right_children":[2,4,6,8,10,12,14,16,18,20,22,24,26,-1,28,-1,-1,-1,30,32,34,36,38,40,42,-1,44,46,-1,-1,-1,-1,-1,-1,-1,-1,-1,-1,-1,-1,-1,-1,-1,-1,-1,-1,-1],"split_conditions":[3.3448334E2,1.6543333E2,6.3376666E2,8.338333E1,2.4771666E2,4.4235E2,3.0866667E1,6.9333334E0,3.0866667E1,2.2516666E1,2.4683332E1,3.8016666E1,5.1773334E2,1.1860708E-1,8.787E2,-5.126404E-2,-4.062792E-2,-3.4191426E-2,1.4826666E2,2.0133333E1,2.3066668E1,2.2866667E1,3.8016666E1,3.1233334E1,4.3558334E2,2.3775185E-2,3.495E1,4.3716667E1,8.3356604E-2,-2.5899377E-2,-6.937762E-3,-5.5061607E-3,3.5273896E-3,-6.024691E-2,-1.4762251E-2,-0E0,2.1079304E-2,-6.709553E-3,1.2114412E-3,1.252725E-2,1.7149774E-3,1.6621469E-2,-0E0,4.849463E-2,3.071099E-2,5.7797056E-2,4.353049E-2],"split_indices":[0,0,0,0,0,0,1,0,1,1,1,1,0,0,0,0,0,0,0,1,1,1,1,1,0,0,1,1,0,0,0,0,0,0,0,0,0,0,0,0,0,0,0,0,0,0,0],"split_type":[0,0,0,0,0,0,0,0,0,0,0,0,0,0,0,0,0,0,0,0,0,0,0,0,0,0,0,0,0,0,0,0,0,0,0,0,0,0,0,0,0,0,0,0,0,0,0],"sum_hessian":[1.989E3,1.075E3,9.14E2,7.6E2,3.15E2,5.22E2,3.92E2,5.36E2,2.24E2,1.48E2,1.67E2,1.87E2,3.35E2,9E0,3.83E2,2E2,3.36E2,1.44E2,8E1,1.6E1,1.32E2,1.4E1,1.53E2,9.4E1,9.3E1,1.49E2,1.86E2,3.59E2,2.4E1,5.7E1,2.3E1,5E0,1.1E1,4E0,1.28E2,6E0,8E0,1.07E2,4.6E1,4.9E1,4.5E1,9E1,3E0,3.4E1,1.52E2,1.46E2,2.13E2],"tree_param":{"num_deleted":"0","num_feature":"2","num_nodes":"47","size_leaf_vector":"1"}},{"base_weights":[3.4358524E-4,-3.5458806E-1,4.3025744E-1,-4.682114E-1,-8.993847E-2,2.9495454E-1,6.3863236E-1,-5.252566E-1,-3.625986E-1,-1.490674E-1,-0E0,1.8560606E-1,3.7727278E-1,9.3631005E-1,5.6690145E-1,-4.3098897E-2,-2.958736E-1,-5.2777532E-2,-3.4092963E-1,-0E0,-1.6126157E-1,-2.3698257E-2,2.7158583E-2,1.18023805E-1,2.3622923E-1,4.6079487E-2,3.497214E-1,6.2383458E-2,1.0257685E-1,5.0302815E-1,5.5444717E-2,7.7141926E-2,-4.3962173E-2,-7.644812E-3,-2.832144E-2,-3.2295713E-3,7.4119135E-3,-4.0166344E-2,-1.1142822E-2,2.3039165E-3,-7.903795E-3,2.9417214E-3,-0E0,1.21436E-3,1.3053765E-2,2.0081308E-2,2.8864583E-3,-0E0,2.8241446E-2,4.0976614E-2,1.746179E-3],"categories":[],"categories_nodes":[],"categories_segments":[],"categories_sizes":[],"default_left":[0,0,0,0,0,0,0,0,0,0,0,0,0,0,0,0,0,0,0,0,0,0,0,0,0,0,0,0,0,0,0,0,0,0,0,0,0,0,0,0,0,0,0,0,0,0,0,0,0,0,0],"id":28,"left_children":[1,3,5,7,9,11,13,15,17,19,21,23,25,27,29,-1,31,-1,33,35,37,39,41,43,45,-1,47,-1,-1,49,-1,-1,-1,-1,-1,-1,-1,-1,-1,-1,-1,-1,-1,-1,-1,-1,-1,-1,-1,-1,-1],"loss_changes":[2.979621E2,3.1729736E1,2.4034424E1,3.6361084E0,1.6555295E0,4.4102745E0,5.5559998E0,7.0222473E-1,7.600975E-1,4.4315767E-1,8.549183E-2,5.5669785E-1,7.649002E-1,4.5756912E-1,9.757614E-1,0E0,1.1104231E1,0E0,5.0034523E-1,8.3968595E-2,8.572135E-1,3.6893812E-1,1.6775921E-2,4.0278518E-1,1.9620848E-1,0E0,1.3559341E-1,0E0,0E0,5.3385544E-1,0E0,0E0,0E0,0E0,0E0,0E0,0E0,0E0,0E0,0E0,0E0,0E0,0E0,0E0,0E0,0E0,0E0,0E0,0E0,0E0,0E0],"parents":[2147483647,0,0,1,1,2,2,3,3,4,4,5,5,6,6,7,7,8,8,9,9,10,10,11,11,12,12,13,13,14,14,16,16,18,18,19,19,20,20,21,21,22,22,23,23,24,24,26,26,29,29],"right_children":[2,4,6,8,10,12,14,16,18,20,22,24,26,28,30,-1,32,-1,34,36,38,40,42,44,46,-1,48,-1,-1,50,-1,-1,-1,-1,-1,-1,-1,-1,-1,-1,-1,-1,-1,-1,-1,-1,-1,-1,-1,-1,-1],"split_conditions":[3.467E2,1.6543333E2,6.5406665E2,6.7E1,2.7398334E2,4.7963333E2,3.9566666E1,3.1716667E1,1.5E1,2.21E1,3.635E1,4.0501666E2,3.27E1,8.209667E2,7.936E2,-4.3098897E-2,3.185E1,-5.2777532E-2,1.9E1,2.0133333E1,2.3066668E1,3.305E1,3.2316666E2,3.25E1,4.4533333E1,4.6079487E-2,3.2966667E1,6.2383458E-2,1.0257685E-1,5.3983334E1,5.5444717E-2,7.7141926E-2,-4.3962173E-2,-7.644812E-3,-2.832144E-2,-3.2295713E-3,7.4119135E-3,-4.0166344E-2,-1.1142822E-2,2.3039165E-3,-7.903795E-3,2.9417214E-3,-0E0,1.21436E-3,1.3053765E-2,2.0081308E-2,2.8864583E-3,-0E0,2.8241446E-2,4.0976614E-2,1.746179E-3],"split_indices":[0,0,0,0,0,0,1,1,1,1,1,0,1,0,0,0,1,0,1,1,1,1,0,1,1,0,1,0,0,1,0,0,0,0,0,0,0,0,0,0,0,0,0,0,0,0,0,0,0,0,0],"split_type":[0,0,0,0,0,0,0,0,0,0,0,0,0,0,0,0,0,0,0,0,0,0,0,0,0,0,0,0,0,0,0,0,0,0,0,0,0,0,0,0,0,0,0,0,0,0,0,0,0,0,0],"sum_hessian":[1.949E3,1.067E3,8.82E2,7.44E2,3.23E2,5.39E2,3.43E2,4.75E2,2.69E2,1.91E2,1.32E2,2.37E2,3.02E2,6.1E1,2.82E2,4.44E2,3.1E1,1.3E1,2.56E2,1.1E1,1.8E2,8E1,5.2E1,1.09E2,1.28E2,3E1,2.72E2,4.7E1,1.4E1,1.96E2,8.6E1,4E0,2.7E1,1.6E1,2.4E2,4E0,7E0,7E0,1.73E2,4.3E1,3.7E1,4E1,1.2E1,3.8E1,7.1E1,1.16E2,1.2E1,4E0,2.68E2,1.91E2,5E0],"tree_param":{"num_deleted":"0","num_feature":"2","num_nodes":"51","size_leaf_vector":"1"}},{"base_weights":[8.319912E-3,-3.525484E-1,3.794364E-1,-4.5754743E-1,-1.7172451E-1,1.7928061E-1,5.318125E-1,-4.1565705E-2,-3.9012557E-1,-2.4790674E-1,-6.4197436E-2,9.539005E-2,2.657181E-1,5.027023E-1,8.222995E-2,-3.2620106E-2,-2.4055852E-1,-3.0771548E-1,-1.885703E-1,6.2556274E-2,-8.1224866E-2,4.8895575E-2,1.3506122E-1,2.7371716E-1,-0E0,4.1508356E-1,5.7856107E-1,9.6002E-2,-3.4017716E-2,-1.06172105E-2,-2.6527168E-2,-0E0,-1.5591342E-2,-3.007769E-3,1.1079307E-2,-1.0527923E-2,-1.0219733E-3,-7.250714E-4,5.2638827E-3,2.5195489E-2,7.6333233E-3,1.4253979E-3,2.2494908E-2,-0E0,3.431665E-4,4.7556296E-2,3.014789E-2,6.0224336E-2,3.894447E-2],"categories":[],"categories_nodes":[],"categories_segments":[],"categories_sizes":[],"default_left":[0,0,0,0,0,0,0,0,0,0,0,0,0,0,0,0,0,0,0,0,0,0,0,0,0,0,0,0,0,0,0,0,0,0,0,0,0,0,0,0,0,0,0,0,0,0,0,0,0],"id":29,"left_children":[1,3,5,7,9,11,13,-1,15,17,19,21,23,25,-1,-1,27,29,31,33,35,37,39,41,43,45,47,-1,-1,-1,-1,-1,-1,-1,-1,-1,-1,-1,-1,-1,-1,-1,-1,-1,-1,-1,-1,-1,-1],"loss_changes":[2.6403397E2,1.8450523E1,2.907759E1,1.7386627E0,2.8305216E0,2.819869E0,6.141159E0,0E0,2.686119E-1,3.6196995E-1,3.645181E-1,2.8732276E-1,3.5882568E-1,2.47641E0,0E0,0E0,1.1229698E1,5.8971405E-2,2.0692062E-1,1.8878913E-1,4.129092E-1,1.4448494E-1,4.992721E-1,1.8995857E-1,8.6482396E-5,7.6945496E-1,2.9930801E0,0E0,0E0,0E0,0E0,0E0,0E0,0E0,0E0,0E0,0E0,0E0,0E0,0E0,0E0,0E0,0E0,0E0,0E0,0E0,0E0,0E0,0E0],"parents":[2147483647,0,0,1,1,2,2,3,3,4,4,5,5,6,6,8,8,9,9,10,10,11,11,12,12,13,13,16,16,17,17,18,18,19,19,20,20,21,21,22,22,23,23,24,24,25,25,26,26],"right_children":[2,4,6,8,10,12,14,-1,16,18,20,22,24,26,-1,-1,28,30,32,34,36,38,40,42,44,46,48,-1,-1,-1,-1,-1,-1,-1,-1,-1,-1,-1,-1,-1,-1,-1,-1,-1,-1,-1,-1,-1,-1],"split_conditions":[3.0556668E2,1.08183334E2,5.4245E2,2.39E1,2.1938333E2,4.2478333E2,8.787E2,-4.1565705E-2,3.1716667E1,2.9916666E1,2.5733334E1,3.6706668E2,4.7E1,6.849667E2,8.222995E-2,-3.2620106E-2,3.185E1,2.0866667E1,3.0066668E1,2.125E1,3.5766666E1,2.725E1,2.8066668E1,2.6933332E1,4.8416668E1,3.5033333E1,4.245E1,9.6002E-2,-3.4017716E-2,-1.06172105E-2,-2.6527168E-2,-0E0,-1.5591342E-2,-3.007769E-3,1.1079307E-2,-1.0527923E-2,-1.0219733E-3,-7.250714E-4,5.2638827E-3,2.5195489E-2,7.6333233E-3,1.4253979E-3,2.2494908E-2,-0E0,3.431665E-4,4.7556296E-2,3.014789E-2,6.0224336E-2,3.894447E-2],"split_indices":[0,0,0,0,0,0,0,0,1,1,1,0,1,0,0,0,1,1,1,1,1,1,1,1,1,1,1,0,0,0,0,0,0,0,0,0,0,0,0,0,0,0,0,0,0,0,0,0,0],"split_type":[0,0,0,0,0,0,0,0,0,0,0,0,0,0,0,0,0,0,0,0,0,0,0,0,0,0,0,0,0,0,0,0,0,0,0,0,0,0,0,0,0,0,0,0,0,0,0,0,0],"sum_hessian":[1.968E3,9.97E2,9.71E2,6.27E2,3.7E2,4.23E2,5.48E2,3.16E2,3.11E2,2.12E2,1.58E2,2.2E2,2.03E2,5.22E2,2.6E1,2.72E2,3.9E1,9.7E1,1.15E2,1.4E1,1.44E2,1.1E2,1.1E2,1.96E2,7E0,2.51E2,2.71E2,3E0,3.6E1,1.6E1,8.1E1,2E0,1.13E2,3E0,1.1E1,7.7E1,6.7E1,1.7E1,9.3E1,1.5E1,9.5E1,8E0,1.88E2,4E0,3E0,3.7E1,2.14E2,8.7E1,1.84E2],"tree_param":{"num_deleted":"0","num_feature":"2","num_nodes":"49","size_leaf_vector":"1"}},{"base_weights":[-1.3803712E-3,-3.1473133E-1,3.5624632E-1,-3.9902017E-1,-8.397217E-2,1.8539144E-1,4.9836105E-1,-4.4257417E-1,-2.915888E-1,-1.3199656E-1,-2.8620854E-2,9.540466E-2,2.4711496E-1,9.133269E-2,4.7595775E-1,-4.0524576E-2,-3.9738885E-1,-4.7686245E-2,-2.734063E-1,5.4745685E-2,-1.5072729E-1,-8.122757E-2,7.0692797E-4,3.3853654E-2,1.3758098E-1,3.7786838E-2,2.5226796E-1,3.7405467E-1,5.83679E-1,-3.290879E-2,-1.929368E-2,-0E0,-2.3072133E-2,6.7955223E-3,-0E0,-3.903262E-2,-7.7938274E-3,-1.0570792E-3,-1.6874801E-2,-1.0314634E-5,2.5829864E-3,6.6539305E-3,-2.6805207E-4,1.1565332E-2,-0E0,-1.891776E-2,1.7280603E-2,3.000751E-2,1.7925574E-2,3.0580088E-2,9.401836E-3,4.3696344E-2,6.7719504E-2],"categories":[],"categories_nodes":[],"categories_segments":[],"categories_sizes":[],"default_left":[0,0,0,0,0,0,0,0,0,0,0,0,0,0,0,0,0,0,0,0,0,0,0,0,0,0,0,0,0,0,0,0,0,0,0,0,0,0,0,0,0,0,0,0,0,0,0,0,0,0,0,0,0],"id":30,"left_children":[1,3,5,7,9,11,13,15,17,19,21,23,25,-1,27,-1,29,-1,31,33,35,37,39,41,43,45,47,49,51,-1,-1,-1,-1,-1,-1,-1,-1,-1,-1,-1,-1,-1,-1,-1,-1,-1,-1,-1,-1,-1,-1,-1,-1],"loss_changes":[2.2111966E2,2.01287E1,2.17882E1,2.9369125E0,6.566589E-1,2.102212E0,5.307358E0,6.7575073E-1,4.7850227E-1,5.847466E-1,2.6548734E-1,3.5312557E-1,7.479191E-2,0E0,4.3967667E0,0E0,1.5940475E-1,0E0,8.780365E-1,3.4924287E-2,2.024933E0,3.6979824E-1,2.1537926E-2,1.9644701E-1,7.1110964E-2,5.9755796E-1,3.1742668E-1,1.656189E-1,6.505127E-1,0E0,0E0,0E0,0E0,0E0,0E0,0E0,0E0,0E0,0E0,0E0,0E0,0E0,0E0,0E0,0E0,0E0,0E0,0E0,0E0,0E0,0E0,0E0,0E0],"parents":[2147483647,0,0,1,1,2,2,3,3,4,4,5,5,6,6,7,7,8,8,9,9,10,10,11,11,12,12,14,14,16,16,18,18,19,19,20,20,21,21,22,22,23,23,24,24,25,25,26,26,27,27,28,28],"right_children":[2,4,6,8,10,12,14,16,18,20,22,24,26,-1,28,-1,30,-1,32,34,36,38,40,42,44,46,48,50,52,-1,-1,-1,-1,-1,-1,-1,-1,-1,-1,-1,-1,-1,-1,-1,-1,-1,-1,-1,-1,-1,-1,-1,-1],"split_conditions":[3.285E2,1.7733333E2,5.7445E2,8.578333E1,2.612E2,4.2478333E2,3.0866667E1,6.9333334E0,1.5E1,2.2516666E1,3.3966667E1,3.6183334E1,2.6933332E1,9.133269E-2,7.1761664E2,-4.0524576E-2,3.1716667E1,-4.7686245E-2,1.9E1,2.1136667E2,2.5816668E1,3.305E1,3.9566666E1,3E1,4.3816666E1,4.4523334E2,3.37E1,5.155E1,8.787E2,-3.290879E-2,-1.929368E-2,-0E0,-2.3072133E-2,6.7955223E-3,-0E0,-3.903262E-2,-7.7938274E-3,-1.0570792E-3,-1.6874801E-2,-1.0314634E-5,2.5829864E-3,6.6539305E-3,-2.6805207E-4,1.1565332E-2,-0E0,-1.891776E-2,1.7280603E-2,3.000751E-2,1.7925574E-2,3.0580088E-2,9.401836E-3,4.3696344E-2,6.7719504E-2],"split_indices":[0,0,0,0,0,0,1,0,1,1,1,1,1,0,0,0,1,0,1,0,1,1,1,1,1,0,1,1,0,0,0,0,0,0,0,0,0,0,0,0,0,0,0,0,0,0,0,0,0,0,0,0,0],"split_type":[0,0,0,0,0,0,0,0,0,0,0,0,0,0,0,0,0,0,0,0,0,0,0,0,0,0,0,0,0,0,0,0,0,0,0,0,0,0,0,0,0,0,0,0,0,0,0,0,0,0,0,0,0],"sum_hessian":[1.97E3,1.051E3,9.19E2,7.67E2,2.84E2,4.21E2,4.98E2,5.38E2,2.29E2,1.45E2,1.39E2,1.77E2,2.44E2,1.3E1,4.85E2,2.1E2,3.28E2,8E0,2.21E2,1E1,1.35E2,5.6E1,8.3E1,7.9E1,9.8E1,9E0,2.35E2,2.56E2,2.29E2,2.95E2,3.3E1,1.2E1,2.09E2,8E0,2E0,1.5E1,1.2E2,4.1E1,1.5E1,6.4E1,1.9E1,4E1,3.9E1,9.2E1,6E0,2E0,7E0,3.6E1,1.99E2,2.45E2,1.1E1,2.07E2,2.2E1],"tree_param":{"num_deleted":"0","num_feature":"2","num_nodes":"53","size_leaf_vector":"1"}},{"base_weights":[6.8448093E-3,-2.6149943E-1,3.5522196E-1,-3.60827E-1,-6.4200334E-2,2.265584E-1,4.7706643E-1,-3.6601294E-2,-3.1622925E-1,-1.4221981E-1,-6.0295104E-3,1.4937514E-1,2.9949287E-1,4.423566E-1,6.214078E-2,3.3503014E-1,-3.2613194E-1,-2.2023846E-1,-8.4333174E-2,-2.856111E-2,5.060772E-2,9.49264E-2,2.1813686E-1,3.251789E-2,2.4933118E-1,5.5030566E-1,3.8298887E-1,9.378067E-2,-3.9657574E-2,-2.815384E-2,-1.64648E-2,-0E0,-2.235591E-2,4.9549923E-4,-1.0054023E-2,3.5098537E-3,-3.1581474E-3,-0E0,4.643022E-3,1.7165197E-2,3.147846E-3,1.8156398E-2,-0E0,9.032672E-3,2.3354756E-2,7.002081E-2,4.1064657E-2,3.1057864E-2,-0E0],"categories":[],"categories_nodes":[],"categories_segments":[],"categories_sizes":[],"default_left":[0,0,0,0,0,0,0,0,0,0,0,0,0,0,0,0,0,0,0,0,0,0,0,0,0,0,0,0,0,0,0,0,0,0,0,0,0,0,0,0,0,0,0,0,0,0,0,0,0],"id":31,"left_children":[1,3,5,7,9,11,13,-1,15,17,19,21,23,25,-1,27,29,31,33,35,37,39,41,-1,43,45,47,-1,-1,-1,-1,-1,-1,-1,-1,-1,-1,-1,-1,-1,-1,-1,-1,-1,-1,-1,-1,-1,-1],"loss_changes":[1.858473E2,2.168782E1,1.2965614E1,2.496727E0,1.6328452E0,2.0566597E0,3.2686996E0,0E0,3.5256195E0,4.9789262E-1,2.7469888E-1,5.807948E-1,5.8101654E-1,1.6496887E0,0E0,6.749373E0,1.1332588E0,8.103075E-1,4.386617E-1,1.3369322E-1,3.903389E-2,6.8241656E-1,3.908491E-2,0E0,5.943718E-1,2.2518158E-2,6.2852097E-1,0E0,0E0,0E0,0E0,0E0,0E0,0E0,0E0,0E0,0E0,0E0,0E0,0E0,0E0,0E0,0E0,0E0,0E0,0E0,0E0,0E0,0E0],"parents":[2147483647,0,0,1,1,2,2,3,3,4,4,5,5,6,6,8,8,9,9,10,10,11,11,12,12,13,13,15,15,16,16,17,17,18,18,19,19,20,20,21,21,22,22,24,24,25,25,26,26],"right_children":[2,4,6,8,10,12,14,-1,16,18,20,22,24,26,-1,28,30,32,34,36,38,40,42,-1,44,46,48,-1,-1,-1,-1,-1,-1,-1,-1,-1,-1,-1,-1,-1,-1,-1,-1,-1,-1,-1,-1,-1,-1],"split_conditions":[3.6706668E2,1.614E2,6.1406665E2,1.0933333E1,2.4771666E2,4.8301666E2,8.466E2,-3.6601294E-2,1.175E1,2.985E1,3.875E1,4.0083332E1,3.6933334E1,4.245E1,6.214078E-2,2.505E1,3.1716667E1,2.2516666E1,3.2883335E1,2.3816668E1,2.531E2,3.035E1,4.545E1,3.251789E-2,4.085E1,3.0666666E1,8.367833E2,9.378067E-2,-3.9657574E-2,-2.815384E-2,-1.64648E-2,-0E0,-2.235591E-2,4.9549923E-4,-1.0054023E-2,3.5098537E-3,-3.1581474E-3,-0E0,4.643022E-3,1.7165197E-2,3.147846E-3,1.8156398E-2,-0E0,9.032672E-3,2.3354756E-2,7.002081E-2,4.1064657E-2,3.1057864E-2,-0E0],"split_indices":[0,0,0,0,0,0,0,0,0,1,1,1,1,1,0,1,1,1,1,1,0,1,1,0,1,1,0,0,0,0,0,0,0,0,0,0,0,0,0,0,0,0,0,0,0,0,0,0,0],"split_type":[0,0,0,0,0,0,0,0,0,0,0,0,0,0,0,0,0,0,0,0,0,0,0,0,0,0,0,0,0,0,0,0,0,0,0,0,0,0,0,0,0,0,0,0,0,0,0,0,0],"sum_hessian":[1.984E3,1.12E3,8.64E2,7.42E2,3.78E2,4.25E2,4.39E2,2.25E2,5.17E2,1.56E2,2.22E2,2.13E2,2.12E2,3.99E2,4E1,6E0,5.11E2,6E1,9.6E1,1.67E2,5.5E1,1.26E2,8.7E1,6E1,1.52E2,1.33E2,2.66E2,3E0,3E0,4.14E2,9.7E1,1.3E1,4.7E1,2.6E1,7E1,1.4E1,1.53E2,2E0,5.3E1,3.5E1,9.1E1,8.1E1,6E0,4.1E1,1.11E2,8E0,1.25E2,2.63E2,3E0],"tree_param":{"num_deleted":"0","num_feature":"2","num_nodes":"49","size_leaf_vector":"1"}},{"base_weights":[-4.997491E-3,-2.6930475E-1,3.0428094E-1,-3.7710026E-1,-1.1860023E-1,1.8967718E-1,4.2967007E-1,-3.5273004E-2,-3.1439257E-1,-2.0482016E-1,-5.9040193E-2,1.274677E-1,2.4753737E-1,3.6149266E-1,5.9111416E-1,-2.6790025E-2,-1.3996068E-1,-2.6375464E-1,-1.4934509E-1,8.0199204E-2,-7.431806E-2,7.840788E-2,1.5812673E-1,3.589481E-1,2.1350558E-1,3.6346266E-1,-0E0,7.0179634E-2,4.6572378E-1,2.2552396E-1,-2.8460719E-2,-2.3702264E-2,-6.153596E-3,-0E0,-1.2975643E-2,-0E0,1.2073249E-2,-2.5314845E-2,-4.4908947E-3,-0E0,8.163545E-3,1.3448475E-2,-0E0,1.0934968E-2,3.44831E-2,9.481611E-3,2.0800745E-2,3.9374556E-2,2.696199E-2,3.0224495E-2,5.174332E-2],"categories":[],"categories_nodes":[],"categories_segments":[],"categories_sizes":[],"default_left":[0,0,0,0,0,0,0,0,0,0,0,0,0,0,0,0,0,0,0,0,0,0,0,0,0,0,0,0,0,0,0,0,0,0,0,0,0,0,0,0,0,0,0,0,0,0,0,0,0,0,0],"id":32,"left_children":[1,3,5,7,9,11,13,-1,15,17,19,21,23,25,27,-1,29,31,33,35,37,39,41,43,45,47,-1,-1,49,-1,-1,-1,-1,-1,-1,-1,-1,-1,-1,-1,-1,-1,-1,-1,-1,-1,-1,-1,-1,-1,-1],"loss_changes":[1.6047658E2,1.6841652E1,1.2476074E1,1.7709045E0,2.1150475E0,1.4408169E0,3.7727966E0,0E0,7.8123283E-1,2.661481E-1,5.824588E-1,1.9603729E-1,4.38859E-1,3.073349E-1,2.866043E0,0E0,2.5577374E1,2.1556234E-1,2.189951E-1,2.0513935E-1,8.41074E-1,2.0895392E-1,1.6569257E-1,3.5554504E-1,5.716858E-1,2.641983E-1,0E0,0E0,3.977642E-1,0E0,0E0,0E0,0E0,0E0,0E0,0E0,0E0,0E0,0E0,0E0,0E0,0E0,0E0,0E0,0E0,0E0,0E0,0E0,0E0,0E0,0E0],"parents":[2147483647,0,0,1,1,2,2,3,3,4,4,5,5,6,6,8,8,9,9,10,10,11,11,12,12,13,13,14,14,16,16,17,17,18,18,19,19,20,20,21,21,22,22,23,23,24,24,25,25,28,28],"right_children":[2,4,6,8,10,12,14,-1,16,18,20,22,24,26,28,-1,30,32,34,36,38,40,42,44,46,48,-1,-1,50,-1,-1,-1,-1,-1,-1,-1,-1,-1,-1,-1,-1,-1,-1,-1,-1,-1,-1,-1,-1,-1,-1],"split_conditions":[3.3448334E2,1.0148333E2,6.101E2,1.9983334E1,1.8281667E2,4.7116666E2,7.864667E2,-3.5273004E-2,3.1716667E1,2.8916666E1,2.43E1,3.9361667E2,3.5033333E1,5.6183334E1,4.245E1,-2.6790025E-2,3.185E1,1.6543333E2,2.9716667E1,2.1938333E2,2.5816668E1,2.8483334E1,4.4533333E1,5.0611667E2,4.085E1,3.7733334E1,-0E0,7.0179634E-2,8.787E2,2.2552396E-1,-2.8460719E-2,-2.3702264E-2,-6.153596E-3,-0E0,-1.2975643E-2,-0E0,1.2073249E-2,-2.5314845E-2,-4.4908947E-3,-0E0,8.163545E-3,1.3448475E-2,-0E0,1.0934968E-2,3.44831E-2,9.481611E-3,2.0800745E-2,3.9374556E-2,2.696199E-2,3.0224495E-2,5.174332E-2],"split_indices":[0,0,0,0,0,0,0,0,1,1,1,0,1,1,1,0,1,0,1,0,1,1,1,0,1,1,0,0,0,0,0,0,0,0,0,0,0,0,0,0,0,0,0,0,0,0,0,0,0,0,0],"split_type":[0,0,0,0,0,0,0,0,0,0,0,0,0,0,0,0,0,0,0,0,0,0,0,0,0,0,0,0,0,0,0,0,0,0,0,0,0,0,0,0,0,0,0,0,0,0,0,0,0,0,0],"sum_hessian":[1.96E3,1.058E3,9.02E2,6.13E2,4.45E2,4.76E2,4.26E2,2.94E2,3.19E2,1.76E2,2.69E2,2.37E2,2.39E2,3.06E2,1.2E2,2.81E2,3.8E1,7.7E1,9.9E1,2.2E1,2.47E2,1.01E2,1.36E2,4.8E1,1.91E2,3.05E2,1E0,3.2E1,8.8E1,1E0,3.7E1,6.2E1,1.5E1,7E0,9.2E1,8E0,1.4E1,1.3E1,2.34E2,2.2E1,7.9E1,1.26E2,1E1,1.5E1,3.3E1,6.9E1,1.22E2,4.3E1,2.62E2,6.5E1,2.3E1],"tree_param":{"num_deleted":"0","num_feature":"2","num_nodes":"51","size_leaf_vector":"1"}},{"base_weights":[1.1689872E-3,-2.751656E-1,2.6693773E-1,-3.0257596E-2,-1.4589173E-1,1.066234E-1,3.8235936E-1,-1.7717592E-1,-4.291384E-2,3.59835E-2,1.6142833E-1,3.2964122E-1,5.401004E-1,-4.2878374E-1,-1.6682018E-1,8.961337E-2,-6.0913447E-2,-0E0,7.5124554E-2,1.1633421E-1,1.9815698E-1,3.8614802E-2,3.0638486E-1,7.893001E-1,3.622194E-2,-0E0,-3.8880073E-2,2.0794106E-4,-1.4848531E-2,-0E0,1.1224295E-2,-1.7076131E-2,-8.9425896E-4,5.2575837E-3,-7.406897E-4,6.9853025E-3,-9.7194355E-4,2.054889E-2,5.7005845E-3,1.8204397E-2,7.438393E-3,1.915684E-2,2.8629925E-2,-0E0,6.4568155E-2],"categories":[],"categories_nodes":[],"categories_segments":[],"categories_sizes":[],"default_left":[0,0,0,0,0,0,0,0,0,0,0,0,0,0,0,0,0,0,0,0,0,0,0,0,0,0,0,0,0,0,0,0,0,0,0,0,0,0,0,0,0,0,0,0,0],"id":33,"left_children":[1,3,5,-1,7,9,11,13,15,17,19,21,23,25,27,29,31,33,35,37,39,-1,41,43,-1,-1,-1,-1,-1,-1,-1,-1,-1,-1,-1,-1,-1,-1,-1,-1,-1,-1,-1,-1,-1],"loss_changes":[1.4617224E2,1.2576912E1,1.8431541E1,0E0,1.2651062E0,1.5352254E0,4.0626984E0,3.8270473E-1,2.5135684E-1,2.6542723E-1,1.6414928E-1,8.686218E-1,1.7308426E0,2.7151465E-1,1.1377096E0,7.367905E-2,6.2512827E-1,7.1351364E-2,1.4447421E-1,5.175861E-1,1.4491415E-1,0E0,8.628998E-1,2.7788353E-1,0E0,0E0,0E0,0E0,0E0,0E0,0E0,0E0,0E0,0E0,0E0,0E0,0E0,0E0,0E0,0E0,0E0,0E0,0E0,0E0,0E0],"parents":[2147483647,0,0,1,1,2,2,4,4,5,5,6,6,7,7,8,8,9,9,10,10,11,11,12,12,13,13,14,14,15,15,16,16,17,17,18,18,19,19,20,20,22,22,23,23],"right_children":[2,4,6,-1,8,10,12,14,16,18,20,22,24,26,28,30,32,34,36,38,40,-1,42,44,-1,-1,-1,-1,-1,-1,-1,-1,-1,-1,-1,-1,-1,-1,-1,-1,-1,-1,-1,-1,-1],"split_conditions":[2.8638333E2,8.338333E1,5.1773334E2,-3.0257596E-2,2.3143333E2,3.9361667E2,7.7638336E2,1.5933333E1,2.43E1,3.635E1,4.0083332E1,3.5033333E1,4.17E1,8.578333E1,2.1066668E1,2.125E1,2.985E1,2.3566668E1,4.2583332E1,3.035E1,4.4533333E1,3.8614802E-2,6.5406665E2,7.8088336E2,3.622194E-2,-0E0,-3.8880073E-2,2.0794106E-4,-1.4848531E-2,-0E0,1.1224295E-2,-1.7076131E-2,-8.9425896E-4,5.2575837E-3,-7.406897E-4,6.9853025E-3,-9.7194355E-4,2.054889E-2,5.7005845E-3,1.8204397E-2,7.438393E-3,1.915684E-2,2.8629925E-2,-0E0,6.4568155E-2],"split_indices":[0,0,0,0,0,0,0,1,1,1,1,1,1,0,1,1,1,1,1,1,1,0,0,0,0,0,0,0,0,0,0,0,0,0,0,0,0,0,0,0,0,0,0,0,0],"split_type":[0,0,0,0,0,0,0,0,0,0,0,0,0,0,0,0,0,0,0,0,0,0,0,0,0,0,0,0,0,0,0,0,0,0,0,0,0,0,0,0,0,0,0,0,0],"sum_hessian":[1.987E3,9.73E2,1.014E3,5.37E2,4.36E2,4.28E2,5.86E2,3.29E2,1.07E2,1.93E2,2.35E2,4.46E2,1.4E2,8E0,3.21E2,8E0,9.9E1,1.03E2,9E1,1.16E2,1.19E2,5.1E1,3.95E2,3.1E1,1.09E2,1E0,7E0,2.9E1,2.92E2,2E0,6E0,2E1,7.9E1,1.3E1,9E1,8.5E1,5E0,2.3E1,9.3E1,8.7E1,3.2E1,1.81E2,2.14E2,1E0,3E1],"tree_param":{"num_deleted":"0","num_feature":"2","num_nodes":"45","size_leaf_vector":"1"}},{"base_weights":[-0E0,-2.511113E-1,2.4235067E-1,-3.0788845E-1,-1.0370359E-1,1.4597684E-1,4.1381904E-1,-2.9481309E-2,-2.587947E-1,-2.2074154E-1,-6.590863E-2,5.859267E-2,2.004384E-1,5.543721E-1,3.595509E-1,-2.7847502E-1,-1.4729938E-1,-2.8372198E-1,1.7947465E-2,-0E0,-7.430274E-2,2.6481546E-2,1.1374562E-1,3.4025165E-1,1.7626351E-1,4.6132421E-1,6.6690035E-2,3.3677658E-1,4.501175E-2,-3.7383907E-2,-2.110378E-2,1.2749177E-1,-2.0053167E-2,-0E0,-2.5073124E-2,1.7708244E-2,-3.9887778E-3,-3.1838475E-3,4.2393035E-3,-2.0388093E-2,-4.7866E-3,2.7264901E-3,-1.3601867E-2,9.83754E-3,-0E0,1.5650697E-2,3.308076E-2,1.4422938E-2,-0E0,-0E0,3.77811E-2,2.855879E-2,1.4682571E-2],"categories":[],"categories_nodes":[],"categories_segments":[],"categories_sizes":[],"default_left":[0,0,0,0,0,0,0,0,0,0,0,0,0,0,0,0,0,0,0,0,0,0,0,0,0,0,0,0,0,0,0,0,0,0,0,0,0,0,0,0,0,0,0,0,0,0,0,0,0,0,0,0,0],"id":34,"left_children":[1,3,5,7,9,11,13,-1,15,17,19,21,23,25,27,29,31,33,35,37,39,41,43,45,47,49,-1,51,-1,-1,-1,-1,-1,-1,-1,-1,-1,-1,-1,-1,-1,-1,-1,-1,-1,-1,-1,-1,-1,-1,-1,-1,-1],"loss_changes":[1.20341E2,7.831299E0,1.6180683E1,1.5381546E0,1.0228205E0,2.911829E0,1.8488045E0,0E0,5.452671E-1,1.1106739E0,1.3123119E-1,3.6359376E-1,9.2220974E-1,1.003952E0,3.718071E-1,2.6831818E-1,1.205615E1,3.2728195E-1,2.9682124E-1,5.577797E-2,2.8871155E-1,1.8320118E-1,9.856963E-2,5.5315018E-2,2.655077E-1,3.270626E-1,0E0,3.2829285E-1,0E0,0E0,0E0,0E0,0E0,0E0,0E0,0E0,0E0,0E0,0E0,0E0,0E0,0E0,0E0,0E0,0E0,0E0,0E0,0E0,0E0,0E0,0E0,0E0,0E0],"parents":[2147483647,0,0,1,1,2,2,3,3,4,4,5,5,6,6,8,8,9,9,10,10,11,11,12,12,13,13,14,14,15,15,16,16,17,17,18,18,19,19,20,20,21,21,22,22,23,23,24,24,25,25,27,27],"right_children":[2,4,6,8,10,12,14,-1,16,18,20,22,24,26,28,30,32,34,36,38,40,42,44,46,48,50,-1,52,-1,-1,-1,-1,-1,-1,-1,-1,-1,-1,-1,-1,-1,-1,-1,-1,-1,-1,-1,-1,-1,-1,-1,-1,-1],"split_conditions":[2.8243332E2,1.3675E2,6.5406665E2,2.19E1,2.6216667E1,4.1965E2,4.085E1,-2.9481309E-2,3.1716667E1,2.2543333E2,2.795E1,3.865E1,3.27E1,8.209667E2,8.787E2,1.5E1,3.185E1,1.4388333E2,2.3561667E2,2.7E1,2.915E1,4.1523334E2,4.3816666E1,4.9085E2,6.4868335E2,6.5848334E2,6.6690035E-2,5.185E1,4.501175E-2,-3.7383907E-2,-2.110378E-2,1.2749177E-1,-2.0053167E-2,-0E0,-2.5073124E-2,1.7708244E-2,-3.9887778E-3,-3.1838475E-3,4.2393035E-3,-2.0388093E-2,-4.7866E-3,2.7264901E-3,-1.3601867E-2,9.83754E-3,-0E0,1.5650697E-2,3.308076E-2,1.4422938E-2,-0E0,-0E0,3.77811E-2,2.855879E-2,1.4682571E-2],"split_indices":[0,0,0,0,1,0,1,0,1,0,1,1,1,0,0,1,1,0,0,1,1,0,1,0,0,0,0,1,0,0,0,0,0,0,0,0,0,0,0,0,0,0,0,0,0,0,0,0,0,0,0,0,0],"split_type":[0,0,0,0,0,0,0,0,0,0,0,0,0,0,0,0,0,0,0,0,0,0,0,0,0,0,0,0,0,0,0,0,0,0,0,0,0,0,0,0,0,0,0,0,0,0,0,0,0,0,0,0,0],"sum_hessian":[1.974E3,9.7E2,1.004E3,6.96E2,2.74E2,6.47E2,3.57E2,3.01E2,3.95E2,6.1E1,2.13E2,2.54E2,3.93E2,9.2E1,2.65E2,3.29E2,6.6E1,5E1,1.1E1,2.2E1,1.91E2,1.69E2,8.5E1,5.1E1,3.42E2,7.4E1,1.8E1,2.45E2,2E1,1.7E1,3.12E2,2E0,6.4E1,6E0,4.4E1,4E0,7E0,1.1E1,1.1E1,9E0,1.82E2,1.67E2,2E0,7.9E1,6E0,2.2E1,2.9E1,3.35E2,7E0,2E0,7.2E1,2.11E2,3.4E1],"tree_param":{"num_deleted":"0","num_feature":"2","num_nodes":"53","size_leaf_vector":"1"}},{"base_weights":[4.1141384E-3,-1.8775243E-1,2.6311067E-1,-2.533457E-1,-3.2548357E-2,1.5802489E-1,3.628985E-1,-2.761616E-1,-1.1962022E-1,-9.666491E-2,-7.87917E-3,8.657096E-2,2.0873836E-1,7.6023325E-2,3.4246805E-1,-2.4073517E-2,-2.1547884E-1,1.1820511E0,-1.8437724E-1,-2.767019E-1,-5.7899985E-2,7.6432005E-2,-1.7959094E-2,4.402831E-2,1.347556E-1,3.3921587E-1,1.9099167E-1,3.1605715E-1,4.5595717E-2,-3.480232E-2,-1.554985E-2,-4.617161E-3,1.6326994E-1,-2.5439769E-2,-9.687418E-3,-0E0,-4.649772E-2,3.6990265E-3,-5.804856E-3,-2.110599E-3,1.9391641E-2,-2.4481045E-2,-1.4926921E-4,2.2233827E-2,1.9580605E-3,1.3594696E-2,-0E0,-0E0,3.1218199E-2,1.0023911E-2,1.8530756E-2,3.2475606E-2,2.2090366E-2],"categories":[],"categories_nodes":[],"categories_segments":[],"categories_sizes":[],"default_left":[0,0,0,0,0,0,0,0,0,0,0,0,0,0,0,0,0,0,0,0,0,0,0,0,0,0,0,0,0,0,0,0,0,0,0,0,0,0,0,0,0,0,0,0,0,0,0,0,0,0,0,0,0],"id":35,"left_children":[1,3,5,7,9,11,13,15,17,19,21,23,25,-1,27,-1,29,31,33,35,37,39,41,43,45,47,49,51,-1,-1,-1,-1,-1,-1,-1,-1,-1,-1,-1,-1,-1,-1,-1,-1,-1,-1,-1,-1,-1,-1,-1,-1,-1],"loss_changes":[1.0004646E2,1.1569683E1,8.584042E0,2.173771E0,4.8593712E-1,1.3274469E0,3.8997993E0,6.1009216E-1,1.0283156E1,3.9803016E-1,1.8795587E-1,2.5921047E-1,1.3140297E-1,0E0,1.713726E0,0E0,4.5957756E-1,7.459151E0,6.91731E-1,1.2910218E0,1.4165133E-1,5.107563E-1,9.254837E-1,2.94961E-1,3.8149822E-1,2.3555875E-1,3.2575512E-1,7.8806686E-1,0E0,0E0,0E0,0E0,0E0,0E0,0E0,0E0,0E0,0E0,0E0,0E0,0E0,0E0,0E0,0E0,0E0,0E0,0E0,0E0,0E0,0E0,0E0,0E0,0E0],"parents":[2147483647,0,0,1,1,2,2,3,3,4,4,5,5,6,6,7,7,8,8,9,9,10,10,11,11,12,12,14,14,16,16,17,17,18,18,19,19,20,20,21,21,22,22,23,23,24,24,25,25,26,26,27,27],"right_children":[2,4,6,8,10,12,14,16,18,20,22,24,26,-1,28,-1,30,32,34,36,38,40,42,44,46,48,50,52,-1,-1,-1,-1,-1,-1,-1,-1,-1,-1,-1,-1,-1,-1,-1,-1,-1,-1,-1,-1,-1,-1,-1,-1,-1],"split_conditions":[3.6706668E2,1.8001666E2,6.1406665E2,3.1716667E1,2.3143333E2,4.7116666E2,3.0866667E1,6.938333E1,3.185E1,2.4433332E1,2.4433332E1,3.9766666E1,3.2166668E1,7.6023325E-2,8.466E2,-2.4073517E-2,1.475E1,1.0933333E1,8.888333E1,2.2516666E1,2.4916666E1,2.2983334E1,2.685E1,2.3816668E1,4.4033333E1,4.9085E2,4.085E1,4.1466667E1,4.5595717E-2,-3.480232E-2,-1.554985E-2,-4.617161E-3,1.6326994E-1,-2.5439769E-2,-9.687418E-3,-0E0,-4.649772E-2,3.6990265E-3,-5.804856E-3,-2.110599E-3,1.9391641E-2,-2.4481045E-2,-1.4926921E-4,2.2233827E-2,1.9580605E-3,1.3594696E-2,-0E0,-0E0,3.1218199E-2,1.0023911E-2,1.8530756E-2,3.2475606E-2,2.2090366E-2],"split_indices":[0,0,0,1,0,0,1,0,1,1,1,1,1,0,0,0,1,0,0,1,1,1,1,1,1,0,1,1,0,0,0,0,0,0,0,0,0,0,0,0,0,0,0,0,0,0,0,0,0,0,0,0,0],"split_type":[0,0,0,0,0,0,0,0,0,0,0,0,0,0,0,0,0,0,0,0,0,0,0,0,0,0,0,0,0,0,0,0,0,0,0,0,0,0,0,0,0,0,0,0,0,0,0,0,0,0,0,0,0],"sum_hessian":[2.009E3,1.153E3,8.56E2,8.07E2,3.46E2,4.22E2,4.34E2,6.84E2,1.23E2,8.8E1,2.58E2,1.82E2,2.4E2,1.1E1,4.23E2,4.74E2,2.1E2,4E0,1.19E2,1.1E1,7.7E1,2E1,2.38E2,1.05E2,7.7E1,2.1E1,2.19E2,3.85E2,3.8E1,1.3E1,1.97E2,2E0,2E0,3.3E1,8.6E1,6E0,5E0,4E0,7.3E1,1.1E1,9E0,9E0,2.29E2,4E0,1.01E2,6.1E1,1.6E1,4E0,1.7E1,9.2E1,1.27E2,1.09E2,2.76E2],"tree_param":{"num_deleted":"0","num_feature":"2","num_nodes":"53","size_leaf_vector":"1"}},{"base_weights":[8.810925E-3,-1.7637287E-1,2.4938813E-1,-2.3504215E-1,-2.753653E-2,1.7448339E-1,3.9142558E-1,-2.5466752E-1,-1.17865294E-1,-9.547315E-2,-1.2423125E-2,1.19585566E-1,2.2756249E-1,5.889885E-1,3.4106216E-1,-2.249138E-2,-1.9673222E-1,4.5755205E-1,-1.5961415E-1,-0E0,-2.1808939E-1,-2.7102344E-2,4.6125457E-2,1.2613335E-1,-2.319842E-3,3.2615617E-1,2.0342258E-1,7.8821406E-2,5.0334764E-1,2.2927971E-1,2.9580036E-2,-3.0589504E-2,-1.41993975E-2,-3.429353E-2,1.0447481E-1,-2.6019089E-2,-8.486699E-3,-6.508217E-3,1.7723449E-2,-2.5252532E-2,-4.54288E-3,5.966948E-4,-3.3232137E-3,4.3085525E-3,-0E0,6.89723E-3,1.32500995E-2,2.6753673E-2,-0E0,-0E0,1.6632188E-2,1.9825285E-3,4.1627243E-2,7.3058927E-3,2.301121E-2],"categories":[],"categories_nodes":[],"categories_segments":[],"categories_sizes":[],"default_left":[0,0,0,0,0,0,0,0,0,0,0,0,0,0,0,0,0,0,0,0,0,0,0,0,0,0,0,0,0,0,0,0,0,0,0,0,0,0,0,0,0,0,0,0,0,0,0,0,0,0,0,0,0,0,0],"id":36,"left_children":[1,3,5,7,9,11,13,15,17,19,21,23,25,27,29,-1,31,33,35,37,39,41,43,45,-1,47,49,-1,51,53,-1,-1,-1,-1,-1,-1,-1,-1,-1,-1,-1,-1,-1,-1,-1,-1,-1,-1,-1,-1,-1,-1,-1,-1,-1],"loss_changes":[8.795979E1,9.556412E0,8.690933E0,1.5552788E0,2.6149905E-1,1.4025974E0,2.0128174E0,6.556473E-1,2.8689919E0,7.1266896E-1,2.2336371E-1,3.453741E-1,2.3992157E-1,1.2013817E-1,2.6514435E-1,0E0,3.5124683E-1,7.267328E0,7.0834184E-1,6.064689E-1,1.3478911E-1,1.335968E-1,2.7397819E-2,2.6713705E-1,0E0,1.4858103E-1,3.0464077E-1,0E0,5.5178642E-2,1.92518E-1,0E0,0E0,0E0,0E0,0E0,0E0,0E0,0E0,0E0,0E0,0E0,0E0,0E0,0E0,0E0,0E0,0E0,0E0,0E0,0E0,0E0,0E0,0E0,0E0,0E0],"parents":[2147483647,0,0,1,1,2,2,3,3,4,4,5,5,6,6,7,7,8,8,9,9,10,10,11,11,12,12,13,13,14,14,16,16,17,17,18,18,19,19,20,20,21,21,22,22,23,23,25,25,26,26,28,28,29,29],"right_children":[2,4,6,8,10,12,14,16,18,20,22,24,26,28,30,-1,32,34,36,38,40,42,44,46,-1,48,50,-1,52,54,-1,-1,-1,-1,-1,-1,-1,-1,-1,-1,-1,-1,-1,-1,-1,-1,-1,-1,-1,-1,-1,-1,-1,-1,-1],"split_conditions":[3.6706668E2,1.909E2,6.849667E2,3.1716667E1,2.7E1,5.1773334E2,3.9766666E1,6.7E1,3.185E1,2.43E1,3.3448334E2,5.1355E2,3.5033333E1,3.0866667E1,7.2138336E2,-2.249138E-2,1.5933333E1,4.5116665E1,6.7E1,2.3066668E1,2.5466667E1,3.25E1,4.17E1,3.9766666E1,-2.319842E-3,6.796E2,3.5616665E1,7.8821406E-2,3.27E1,4.5366665E1,2.9580036E-2,-3.0589504E-2,-1.41993975E-2,-3.429353E-2,1.0447481E-1,-2.6019089E-2,-8.486699E-3,-6.508217E-3,1.7723449E-2,-2.5252532E-2,-4.54288E-3,5.966948E-4,-3.3232137E-3,4.3085525E-3,-0E0,6.89723E-3,1.32500995E-2,2.6753673E-2,-0E0,-0E0,1.6632188E-2,1.9825285E-3,4.1627243E-2,7.3058927E-3,2.301121E-2],"split_indices":[0,0,0,1,1,0,1,0,1,1,0,0,1,1,0,0,1,0,0,1,1,1,1,1,0,0,1,0,1,1,0,0,0,0,0,0,0,0,0,0,0,0,0,0,0,0,0,0,0,0,0,0,0,0,0],"split_type":[0,0,0,0,0,0,0,0,0,0,0,0,0,0,0,0,0,0,0,0,0,0,0,0,0,