{"learner":{"attributes":{"scikit_learn":"{\"_estimator_type\": \"regressor\"}"},"feature_names":[],"feature_types":[],"gradient_booster":{"model":{"cats":{"enc":[],"feature_segments":[],"sorted_idx":[]},"gbtree_model_param":{"num_parallel_tree":"1","num_trees":"300"},"iteration_indptr":[0,1,2,3,4,5,6,7,8,9,10,11,12,13,14,15,16,17,18,19,20,21,22,23,24,25,26,27,28,29,30,31,32,33,34,35,36,37,38,39,40,41,42,43,44,45,46,47,48,49,50,51,52,53,54,55,56,57,58,59,60,61,62,63,64,65,66,67,68,69,70,71,72,73,74,75,76,77,78,79,80,81,82,83,84,85,86,87,88,89,90,91,92,93,94,95,96,97,98,99,100,101,102,103,104,105,106,107,108,109,110,111,112,113,114,115,116,117,118,119,120,121,122,123,124,125,126,127,128,129,130,131,132,133,134,135,136,137,138,139,140,141,142,143,144,145,146,147,148,149,150,151,152,153,154,155,156,157,158,159,160,161,162,163,164,165,166,167,168,169,170,171,172,173,174,175,176,177,178,179,180,181,182,183,184,185,186,187,188,189,190,191,192,193,194,195,196,197,198,199,200,201,202,203,204,205,206,207,208,209,210,211,212,213,214,215,216,217,218,219,220,221,222,223,224,225,226,227,228,229,230,231,232,233,234,235,236,237,238,239,240,241,242,243,244,245,246,247,248,249,250,251,252,253,254,255,256,257,258,259,260,261,262,263,264,265,266,267,268,269,270,271,272,273,274,275,276,277,278,279,280,281,282,283,284,285,286,287,288,289,290,291,292,293,294,295,296,297,298,299,300],"tree_info":[0,0,0,0,0,0,0,0,0,0,0,0,0,0,0,0,0,0,0,0,0,0,0,0,0,0,0,0,0,0,0,0,0,0,0,0,0,0,0,0,0,0,0,0,0,0,0,0,0,0,0,0,0,0,0,0,0,0,0,0,0,0,0,0,0,0,0,0,0,0,0,0,0,0,0,0,0,0,0,0,0,0,0,0,0,0,0,0,0,0,0,0,0,0,0,0,0,0,0,0,0,0,0,0,0,0,0,0,0,0,0,0,0,0,0,0,0,0,0,0,0,0,0,0,0,0,0,0,0,0,0,0,0,0,0,0,0,0,0,0,0,0,0,0,0,0,0,0,0,0,0,0,0,0,0,0,0,0,0,0,0,0,0,0,0,0,0,0,0,0,0,0,0,0,0,0,0,0,0,0,0,0,0,0,0,0,0,0,0,0,0,0,0,0,0,0,0,0,0,0,0,0,0,0,0,0,0,0,0,0,0,0,0,0,0,0,0,0,0,0,0,0,0,0,0,0,0,0,0,0,0,0,0,0,0,0,0,0,0,0,0,0,0,0,0,0,0,0,0,0,0,0,0,0,0,0,0,0,0,0,0,0,0,0,0,0,0,0,0,0,0,0,0,0,0,0,0,0,0,0,0,0,0,0,0,0,0,0,0,0,0,0,0,0,0,0,0,0,0,0],"trees":[{"base_weights":[3.8600087E-3,-3.7201803E0,4.0425653E0,-4.9230304E0,-1.5232201E0,2.008491E0,5.597818E0,-1.1919518E0,-9.0288556E-1,-5.32662E-1,-1.4346305E-1,2.3562634E-1,6.308851E-1,1.0527375E0,1.4548812E0],"categories":[],"categories_nodes":[],"categories_segments":[],"categories_sizes":[],"default_left":[0,0,0,0,0,0,0,0,0,0,0,0,0,0,0],"id":0,"left_children":[1,3,5,7,9,11,13,-1,-1,-1,-1,-1,-1,-1,-1],"loss_changes":[2.4545967E4,2.232212E3,2.461213E3,1.9418457E2,2.3281244E2,2.6921985E2,3.2701953E2,0E0,0E0,0E0,0E0,0E0,0E0,0E0,0E0],"parents":[2147483647,0,0,1,1,2,2,3,3,4,4,5,5,6,6],"right_children":[2,4,6,8,10,12,14,-1,-1,-1,-1,-1,-1,-1,-1],"split_conditions":[3.1431668E2,1.252E2,5.487167E2,4.715E1,2.1938333E2,4.2478333E2,7.1761664E2,-1.1919518E0,-9.0288556E-1,-5.32662E-1,-1.4346305E-1,2.3562634E-1,6.308851E-1,1.0527375E0,1.4548812E0],"split_indices":[0,0,0,0,0,0,0,0,0,0,0,0,0,0,0],"split_type":[0,0,0,0,0,0,0,0,0,0,0,0,0,0,0],"sum_hessian":[1.63E3,8.48E2,7.82E2,5.47E2,3.01E2,3.4E2,4.42E2,3.37E2,2.1E2,1.47E2,1.54E2,1.64E2,1.76E2,2.49E2,1.93E2],"tree_param":{"num_deleted":"0","num_feature":"2","num_nodes":"15","size_leaf_vector":"1"}},{"base_weights":[-4.1757245E-2,-2.878028E0,3.2342043E0,-3.7696018E0,-8.71482E-1,1.8013629E0,4.539648E0,-9.1508245E-1,-6.525107E-1,-3.079771E-1,-6.767932E-2,2.2898304E-1,5.4400116E-1,9.0660256E-1,1.2209105E0],"categories":[],"categories_nodes":[],"categories_segments":[],"categories_sizes":[],"default_left":[0,0,0,0,0,0,0,0,0,0,0,0,0,0,0],"id":1,"left_children":[1,3,5,7,9,11,13,-1,-1,-1,-1,-1,-1,-1,-1],"loss_changes":[1.495914E4,1.5378237E3,1.3852759E3,1.7043555E2,7.809628E1,1.7811194E2,1.3625586E2,0E0,0E0,0E0,0E0,0E0,0E0,0E0,0E0],"parents":[2147483647,0,0,1,1,2,2,3,3,4,4,5,5,6,6],"right_children":[2,4,6,8,10,12,14,-1,-1,-1,-1,-1,-1,-1,-1],"split_conditions":[3.2316666E2,1.543E2,5.8113336E2,6.495E1,2.4771666E2,4.4523334E2,7.720833E2,-9.1508245E-1,-6.525107E-1,-3.079771E-1,-6.767932E-2,2.2898304E-1,5.4400116E-1,9.0660256E-1,1.2209105E0],"split_indices":[0,0,0,0,0,0,0,0,0,0,0,0,0,0,0],"split_type":[0,0,0,0,0,0,0,0,0,0,0,0,0,0,0],"sum_hessian":[1.608E3,8.62E2,7.46E2,5.96E2,2.66E2,3.57E2,3.89E2,3.98E2,1.98E2,1.36E2,1.3E2,1.69E2,1.88E2,2.79E2,1.1E2],"tree_param":{"num_deleted":"0","num_feature":"2","num_nodes":"15","size_leaf_vector":"1"}},{"base_weights":[2.3597514E-2,-2.1597245E0,2.6370797E0,-2.9742794E0,-6.786507E-1,1.7241198E0,3.7688475E0,-7.438758E-1,-5.52285E-1,-2.7887288E-1,-4.1836124E-2,2.4411254E-1,5.290392E-1,7.233276E-1,9.1461176E-1],"categories":[],"categories_nodes":[],"categories_segments":[],"categories_sizes":[],"default_left":[0,0,0,0,0,0,0,0,0,0,0,0,0,0,0],"id":2,"left_children":[1,3,5,7,9,11,13,-1,-1,-1,-1,-1,-1,-1,-1],"loss_changes":[8.987341E3,1.0308948E3,7.3105273E2,9.237891E1,8.6919174E1,1.6210205E2,4.1470703E1,0E0,0E0,0E0,0E0,0E0,0E0,0E0,0E0],"parents":[2147483647,0,0,1,1,2,2,3,3,4,4,5,5,6,6],"right_children":[2,4,6,8,10,12,14,-1,-1,-1,-1,-1,-1,-1,-1],"split_conditions":[3.467E2,1.406E2,6.3376666E2,3.6316666E1,2.4066667E2,4.9483334E2,7.283333E2,-7.438758E-1,-5.52285E-1,-2.7887288E-1,-4.1836124E-2,2.4411254E-1,5.290392E-1,7.233276E-1,9.1461176E-1],"split_indices":[0,0,0,0,0,0,0,0,0,0,0,0,0,0,0],"split_type":[0,0,0,0,0,0,0,0,0,0,0,0,0,0,0],"sum_hessian":[1.573E3,8.57E2,7.16E2,5.52E2,3.05E2,3.98E2,3.18E2,2.9E2,2.62E2,1.37E2,1.68E2,2.11E2,1.87E2,1.47E2,1.71E2],"tree_param":{"num_deleted":"0","num_feature":"2","num_nodes":"15","size_leaf_vector":"1"}},{"base_weights":[8.042295E-3,-1.6371363E0,2.115681E0,-2.2576473E0,-3.909166E-1,1.3290074E0,2.836898E0,-5.694518E-1,-3.9496028E-1,-1.5907918E-1,7.0098205E-3,1.9258535E-1,3.8483042E-1,5.8022577E-1,8.070669E-1],"categories":[],"categories_nodes":[],"categories_segments":[],"categories_sizes":[],"default_left":[0,0,0,0,0,0,0,0,0,0,0,0,0,0,0],"id":3,"left_children":[1,3,5,7,9,11,13,-1,-1,-1,-1,-1,-1,-1,-1],"loss_changes":[5.7493022E3,7.174641E2,4.0620288E2,8.7698E1,4.4113037E1,6.3611267E1,4.9254395E1,0E0,0E0,0E0,0E0,0E0,0E0,0E0,0E0],"parents":[2147483647,0,0,1,1,2,2,3,3,4,4,5,5,6,6],"right_children":[2,4,6,8,10,12,14,-1,-1,-1,-1,-1,-1,-1,-1],"split_conditions":[3.5666666E2,1.6543333E2,6.1406665E2,5.065E1,2.7398334E2,4.7963333E2,8.078333E2,-5.694518E-1,-3.9496028E-1,-1.5907918E-1,7.0098205E-3,1.9258535E-1,3.8483042E-1,5.8022577E-1,8.070669E-1],"split_indices":[0,0,0,0,0,0,0,0,0,0,0,0,0,0,0],"split_type":[0,0,0,0,0,0,0,0,0,0,0,0,0,0,0],"sum_hessian":[1.656E3,9.3E2,7.26E2,6.2E2,3.1E2,3.49E2,3.77E2,3.58E2,2.62E2,1.74E2,1.36E2,1.7E2,1.79E2,3.08E2,6.9E1],"tree_param":{"num_deleted":"0","num_feature":"2","num_nodes":"15","size_leaf_vector":"1"}},{"base_weights":[2.0538524E-2,-1.2312868E0,1.7170478E0,-1.7365918E0,-1.9839732E-1,1.2426451E0,2.3784277E0,-4.260198E-1,-2.5631538E-1,-1.0408196E-1,1.7789658E-2,1.9709125E-1,3.4196627E-1,4.8616847E-1,6.651936E-1],"categories":[],"categories_nodes":[],"categories_segments":[],"categories_sizes":[],"default_left":[0,0,0,0,0,0,0,0,0,0,0,0,0,0,0],"id":4,"left_children":[1,3,5,7,9,11,13,-1,-1,-1,-1,-1,-1,-1,-1],"loss_changes":[3.455596E3,4.870155E2,2.1168042E2,6.761658E1,2.3977993E1,4.092041E1,2.1391846E1,0E0,0E0,0E0,0E0,0E0,0E0,0E0,0E0],"parents":[2147483647,0,0,1,1,2,2,3,3,4,4,5,5,6,6],"right_children":[2,4,6,8,10,12,14,-1,-1,-1,-1,-1,-1,-1,-1],"split_conditions":[3.8516666E2,1.7391667E2,6.5848334E2,9.015E1,2.8243332E2,5.0908334E2,8.209667E2,-4.260198E-1,-2.5631538E-1,-1.0408196E-1,1.7789658E-2,1.9709125E-1,3.4196627E-1,4.8616847E-1,6.651936E-1],"split_indices":[0,0,0,0,0,0,0,0,0,0,0,0,0,0,0],"split_type":[0,0,0,0,0,0,0,0,0,0,0,0,0,0,0],"sum_hessian":[1.625E3,9.35E2,6.9E2,6.27E2,3.08E2,4.04E2,2.86E2,4.62E2,1.65E2,1.56E2,1.52E2,1.94E2,2.1E2,2.31E2,5.5E1],"tree_param":{"num_deleted":"0","num_feature":"2","num_nodes":"15","size_leaf_vector":"1"}},{"base_weights":[2.9223831E-3,-9.5782685E-1,1.334692E0,-1.4681075E0,-3.3981052E-1,9.672291E-1,1.9151113E0,-3.950784E-1,-2.815375E-1,-1.706029E-1,-1.809985E-2,1.5310726E-1,2.7310535E-1,3.9629114E-1,5.501816E-1],"categories":[],"categories_nodes":[],"categories_segments":[],"categories_sizes":[],"default_left":[0,0,0,0,0,0,0,0,0,0,0,0,0,0,0],"id":5,"left_children":[1,3,5,7,9,11,13,-1,-1,-1,-1,-1,-1,-1,-1],"loss_changes":[2.1152332E3,3.0116364E2,1.4422302E2,2.826831E1,4.83401E1,2.9732086E1,1.070874E1,0E0,0E0,0E0,0E0,0E0,0E0,0E0,0E0],"parents":[2147483647,0,0,1,1,2,2,3,3,4,4,5,5,6,6],"right_children":[2,4,6,8,10,12,14,-1,-1,-1,-1,-1,-1,-1,-1],"split_conditions":[3.8516666E2,1.1098333E2,6.7125E2,1.0933333E1,1.9896666E2,5.1773334E2,8.367833E2,-3.950784E-1,-2.815375E-1,-1.706029E-1,-1.809985E-2,1.5310726E-1,2.7310535E-1,3.9629114E-1,5.501816E-1],"split_indices":[0,0,0,0,0,0,0,0,0,0,0,0,0,0,0],"split_type":[0,0,0,0,0,0,0,0,0,0,0,0,0,0,0],"sum_hessian":[1.651E3,9.59E2,6.92E2,5.24E2,4.35E2,4.26E2,2.66E2,1.87E2,3.37E2,1.6E2,2.75E2,2.17E2,2.09E2,2.27E2,3.9E1],"tree_param":{"num_deleted":"0","num_feature":"2","num_nodes":"15","size_leaf_vector":"1"}},{"base_weights":[-2.0702E-2,-9.181343E-1,8.871201E-1,-1.1884407E0,-4.5036423E-1,3.936844E-1,1.2620302E0,-3.0825403E-1,-2.322221E-1,-1.3545921E-1,-5.0202068E-2,1.5947701E-2,1.3505262E-1,2.4464361E-1,3.546343E-1],"categories":[],"categories_nodes":[],"categories_segments":[],"categories_sizes":[],"default_left":[0,0,0,0,0,0,0,0,0,0,0,0,0,0,0],"id":6,"left_children":[1,3,5,7,9,11,13,-1,-1,-1,-1,-1,-1,-1,-1],"loss_changes":[1.324735E3,1.0191046E2,1.4798492E2,1.1660828E1,1.0448151E1,2.4367897E1,2.0616455E1,0E0,0E0,0E0,0E0,0E0,0E0,0E0,0E0],"parents":[2147483647,0,0,1,1,2,2,3,3,4,4,5,5,6,6],"right_children":[2,4,6,8,10,12,14,-1,-1,-1,-1,-1,-1,-1,-1],"split_conditions":[2.8638333E2,1.0148333E2,5.3148334E2,1.0933333E1,1.9896666E2,3.9361667E2,7.6065E2,-3.0825403E-1,-2.322221E-1,-1.3545921E-1,-5.0202068E-2,1.5947701E-2,1.3505262E-1,2.4464361E-1,3.546343E-1],"split_indices":[0,0,0,0,0,0,0,0,0,0,0,0,0,0,0],"split_type":[0,0,0,0,0,0,0,0,0,0,0,0,0,0,0],"sum_hessian":[1.624E3,8.17E2,8.07E2,5.16E2,3.01E2,3.5E2,4.57E2,1.93E2,3.23E2,1.7E2,1.31E2,1.44E2,2.06E2,3.24E2,1.33E2],"tree_param":{"num_deleted":"0","num_feature":"2","num_nodes":"15","size_leaf_vector":"1"}},{"base_weights":[-4.9459944E-3,-7.332068E-1,6.9499797E-1,-9.483739E-1,-4.109834E-1,3.031617E-1,9.931338E-1,-2.3958412E-1,-1.6968238E-1,-1.2449365E-1,-5.5615045E-2,2.6014516E-2,1.05862804E-1,1.7134628E-1,2.6027063E-1],"categories":[],"categories_nodes":[],"categories_segments":[],"categories_sizes":[],"default_left":[0,0,0,0,0,0,0,0,0,0,0,0,0,0,0],"id":7,"left_children":[1,3,5,7,9,11,13,-1,-1,-1,-1,-1,-1,-1,-1],"loss_changes":[8.441551E2,5.5092102E1,9.751764E1,1.0123718E1,7.4026527E0,1.1665352E1,1.7354218E1,0E0,0E0,0E0,0E0,0E0,0E0,0E0,0E0],"parents":[2147483647,0,0,1,1,2,2,3,3,4,4,5,5,6,6],"right_children":[2,4,6,8,10,12,14,-1,-1,-1,-1,-1,-1,-1,-1],"split_conditions":[2.8243332E2,9.188333E1,5.3148334E2,2.39E1,3.095E1,4.0875E2,6.8195E2,-2.3958412E-1,-1.6968238E-1,-1.2449365E-1,-5.5615045E-2,2.6014516E-2,1.05862804E-1,1.7134628E-1,2.6027063E-1],"split_indices":[0,0,0,0,1,0,0,0,0,0,0,0,0,0,0],"split_type":[0,0,0,0,0,0,0,0,0,0,0,0,0,0,0],"sum_hessian":[1.654E3,8.11E2,8.43E2,4.84E2,3.27E2,3.66E2,4.77E2,2.65E2,2.19E2,1.62E2,1.65E2,1.82E2,1.84E2,2.28E2,2.49E2],"tree_param":{"num_deleted":"0","num_feature":"2","num_nodes":"15","size_leaf_vector":"1"}},{"base_weights":[-8.690406E-3,-5.122927E-1,6.388778E-1,-7.461919E-1,-2.0588736E-1,4.233705E-1,9.59274E-1,-1.8808842E-1,-1.4318396E-1,-9.176652E-2,-1.8434234E-2,4.984501E-2,1.1757427E-1,2.956775E-1,1.8053354E-1],"categories":[],"categories_nodes":[],"categories_segments":[],"categories_sizes":[],"default_left":[0,0,0,0,0,0,0,0,0,0,0,0,0,0,0],"id":8,"left_children":[1,3,5,7,9,11,13,-1,-1,-1,-1,-1,-1,-1,-1],"loss_changes":[5.2660394E2,6.442131E1,4.7511963E1,3.870514E0,9.877579E0,8.711311E0,1.2642273E1,0E0,0E0,0E0,0E0,0E0,0E0,0E0,0E0],"parents":[2147483647,0,0,1,1,2,2,3,3,4,4,5,5,6,6],"right_children":[2,4,6,8,10,12,14,-1,-1,-1,-1,-1,-1,-1,-1],"split_conditions":[3.6706668E2,1.044E2,6.7125E2,1.9983334E1,1.909E2,4.7116666E2,4.0733334E1,-1.8808842E-1,-1.4318396E-1,-9.176652E-2,-1.8434234E-2,4.984501E-2,1.1757427E-1,2.956775E-1,1.8053354E-1],"split_indices":[0,0,0,0,0,0,1,0,0,0,0,0,0,0,0],"split_type":[0,0,0,0,0,0,0,0,0,0,0,0,0,0,0],"sum_hessian":[1.613E3,9.08E2,7.05E2,5.13E2,3.95E2,4.24E2,2.81E2,2.33E2,2.8E2,1.42E2,2.53E2,1.56E2,2.68E2,7.1E1,2.1E2],"tree_param":{"num_deleted":"0","num_feature":"2","num_nodes":"15","size_leaf_vector":"1"}},{"base_weights":[2.0099407E-2,-3.530576E-1,5.018548E-1,-5.2859485E-1,-1.260935E-1,3.146263E-1,7.241085E-1,-1.4686708E-1,-9.705985E-2,-4.70194E-2,1.717613E-2,3.9733708E-2,8.380422E-2,2.5384387E-1,1.425921E-1],"categories":[],"categories_nodes":[],"categories_segments":[],"categories_sizes":[],"default_left":[0,0,0,0,0,0,0,0,0,0,0,0,0,0,0],"id":9,"left_children":[1,3,5,7,9,11,13,-1,-1,-1,-1,-1,-1,-1,-1],"loss_changes":[2.8646088E2,3.527761E1,2.8111053E1,5.163315E0,7.14727E0,2.9797287E0,8.486206E0,0E0,0E0,0E0,0E0,0E0,0E0,0E0,0E0],"parents":[2147483647,0,0,1,1,2,2,3,3,4,4,5,5,6,6],"right_children":[2,4,6,8,10,12,14,-1,-1,-1,-1,-1,-1,-1,-1],"split_conditions":[3.6706668E2,1.08183334E2,6.425833E2,1.0933333E1,3.5766666E1,4.6015E2,3.8916668E1,-1.4686708E-1,-9.705985E-2,-4.70194E-2,1.717613E-2,3.9733708E-2,8.380422E-2,2.5384387E-1,1.425921E-1],"split_indices":[0,0,0,0,1,0,1,0,0,0,0,0,0,0,0],"split_type":[0,0,0,0,0,0,0,0,0,0,0,0,0,0,0],"sum_hessian":[1.591E3,8.96E2,6.95E2,5.03E2,3.93E2,3.8E2,3.15E2,1.89E2,3.14E2,2.77E2,1.16E2,1.3E2,2.5E2,4.4E1,2.71E2],"tree_param":{"num_deleted":"0","num_feature":"2","num_nodes":"15","size_leaf_vector":"1"}},{"base_weights":[6.222921E-3,-3.4371755E-1,3.4091252E-1,-4.2339584E-1,-1.1093149E-1,1.4385085E-1,4.9908677E-1,-1.1756254E-1,-8.299961E-2,5.7840787E-2,-3.4269203E-2,1.3435009E-2,5.109557E-2,9.938148E-2,2.2264418E-1],"categories":[],"categories_nodes":[],"categories_segments":[],"categories_sizes":[],"default_left":[0,0,0,0,0,0,0,0,0,0,0,0,0,0,0],"id":10,"left_children":[1,3,5,7,9,11,13,-1,-1,-1,-1,-1,-1,-1,-1],"loss_changes":[1.9067207E2,1.4378098E1,2.5507118E1,2.2715607E0,3.429697E0,2.546805E0,9.837418E0,0E0,0E0,0E0,0E0,0E0,0E0,0E0,0E0],"parents":[2147483647,0,0,1,1,2,2,3,3,4,4,5,5,6,6],"right_children":[2,4,6,8,10,12,14,-1,-1,-1,-1,-1,-1,-1,-1],"split_conditions":[2.8638333E2,3.14E1,5.3148334E2,7.8E0,3.185E1,4.1111667E2,8.466E2,-1.1756254E-1,-8.299961E-2,5.7840787E-2,-3.4269203E-2,1.3435009E-2,5.109557E-2,9.938148E-2,2.2264418E-1],"split_indices":[0,1,0,0,1,0,0,0,0,0,0,0,0,0,0],"split_type":[0,0,0,0,0,0,0,0,0,0,0,0,0,0,0],"sum_hessian":[1.626E3,7.94E2,8.32E2,5.89E2,2.05E2,3.73E2,4.59E2,1.66E2,4.23E2,2E1,1.85E2,1.97E2,1.76E2,4.23E2,3.6E1],"tree_param":{"num_deleted":"0","num_feature":"2","num_nodes":"15","size_leaf_vector":"1"}},{"base_weights":[-0E0,-2.7228278E-1,2.6954138E-1,-3.6052245E-1,-1.3388845E-1,2.1315344E-1,7.0038134E-1,-9.302142E-2,-7.2343044E-2,-4.3141916E-2,-6.9926465E-3,1.9277392E-2,6.2347095E-2,2.4935108E-1,1.19193345E-1],"categories":[],"categories_nodes":[],"categories_segments":[],"categories_sizes":[],"default_left":[0,0,0,0,0,0,0,0,0,0,0,0,0,0,0],"id":11,"left_children":[1,3,5,7,9,11,13,-1,-1,-1,-1,-1,-1,-1,-1],"loss_changes":[1.1955565E2,9.55891E0,1.9175232E1,3.8136292E-1,1.8896732E0,6.15403E0,4.767685E0,0E0,0E0,0E0,0E0,0E0,0E0,0E0,0E0],"parents":[2147483647,0,0,1,1,2,2,3,3,4,4,5,5,6,6],"right_children":[2,4,6,8,10,12,14,-1,-1,-1,-1,-1,-1,-1,-1],"split_conditions":[3.0158334E2,1.0148333E2,7.991667E2,6.2833333E0,2.1938333E2,4.7963333E2,4.0733334E1,-9.302142E-2,-7.2343044E-2,-4.3141916E-2,-6.9926465E-3,1.9277392E-2,6.2347095E-2,2.4935108E-1,1.19193345E-1],"split_indices":[0,0,0,0,0,0,1,0,0,0,0,0,0,0,0],"split_type":[0,0,0,0,0,0,0,0,0,0,0,0,0,0,0],"sum_hessian":[1.627E3,8.1E2,8.17E2,4.91E2,3.19E2,7.25E2,9.2E1,1.55E2,3.36E2,1.94E2,1.25E2,2.64E2,4.61E2,2.2E1,7E1],"tree_param":{"num_deleted":"0","num_feature":"2","num_nodes":"15","size_leaf_vector":"1"}},{"base_weights":[8.462807E-3,-2.0667244E-1,1.9088912E-1,-2.4892768E-1,-4.2740867E-2,1.276013E-1,4.1045028E-1,-6.371608E-2,-3.7756886E-2,1.6472428E-1,-2.1996703E-2,6.7889784E-3,3.935716E-2,1.4218897E-1,6.4048216E-2],"categories":[],"categories_nodes":[],"categories_segments":[],"categories_sizes":[],"default_left":[0,0,0,0,0,0,0,0,0,0,0,0,0,0,0],"id":12,"left_children":[1,3,5,7,9,11,13,-1,-1,-1,-1,-1,-1,-1,-1],"loss_changes":[6.3923016E1,4.9818764E0,1.1894566E1,1.5294685E0,6.7989674E0,3.2877102E0,4.7373924E0,0E0,0E0,0E0,0E0,0E0,0E0,0E0,0E0],"parents":[2147483647,0,0,1,1,2,2,3,3,4,4,5,5,6,6],"right_children":[2,4,6,8,10,12,14,-1,-1,-1,-1,-1,-1,-1,-1],"split_conditions":[2.612E2,3.1716667E1,7.2138336E2,7.878333E1,3.195E1,4.1523334E2,4.345E1,-6.371608E-2,-3.7756886E-2,1.6472428E-1,-2.1996703E-2,6.7889784E-3,3.935716E-2,1.4218897E-1,6.4048216E-2],"split_indices":[0,1,0,0,1,0,1,0,0,0,0,0,0,0,0],"split_type":[0,0,0,0,0,0,0,0,0,0,0,0,0,0,0],"sum_hessian":[1.627E3,7.45E2,8.82E2,5.89E2,1.56E2,6.88E2,1.94E2,3.79E2,2.1E2,9E0,1.47E2,2.43E2,4.45E2,6.2E1,1.32E2],"tree_param":{"num_deleted":"0","num_feature":"2","num_nodes":"15","size_leaf_vector":"1"}},{"base_weights":[-2.9814204E-3,-1.8665782E-1,1.7027628E-1,-2.3589261E-1,-7.055035E-2,6.737179E-2,2.9600638E-1,-5.4051407E-2,-2.8177464E-2,-6.347026E-2,-2.5157093E-3,1.6998049E-2,-3.8653668E-2,2.6519415E-1,5.963301E-2],"categories":[],"categories_nodes":[],"categories_segments":[],"categories_sizes":[],"default_left":[0,0,0,0,0,0,0,0,0,0,0,0,0,0,0],"id":13,"left_children":[1,3,5,7,9,11,13,-1,-1,-1,-1,-1,-1,-1,-1],"loss_changes":[5.1627262E1,4.3098316E0,1.0539545E1,3.2512283E-1,2.9089544E0,1.0653782E0,7.2271423E0,0E0,0E0,0E0,0E0,0E0,0E0,0E0,0E0],"parents":[2147483647,0,0,1,1,2,2,3,3,4,4,5,5,6,6],"right_children":[2,4,6,8,10,12,14,-1,-1,-1,-1,-1,-1,-1,-1],"split_conditions":[2.7051666E2,2.9916666E1,5.910333E2,1.7391667E2,5.065E1,4.7E1,2.9466667E1,-5.4051407E-2,-2.8177464E-2,-6.347026E-2,-2.5157093E-3,1.6998049E-2,-3.8653668E-2,2.6519415E-1,5.963301E-2],"split_indices":[0,1,0,0,0,1,1,0,0,0,0,0,0,0,0],"split_type":[0,0,0,0,0,0,0,0,0,0,0,0,0,0,0],"sum_hessian":[1.62E3,7.88E2,8.32E2,5.49E2,2.39E2,4.61E2,3.71E2,4.97E2,5.2E1,4.8E1,1.91E2,4.46E2,1.5E1,8E0,3.63E2],"tree_param":{"num_deleted":"0","num_feature":"2","num_nodes":"15","size_leaf_vector":"1"}},{"base_weights":[-9.436847E-4,-1.3479987E-1,1.1989382E-1,-1.6102935E-1,-3.4012772E-2,8.4028505E-2,3.0589238E-1,-4.792842E-2,-3.1495966E-2,2.2255303E-1,-1.83933E-2,1.0559071E-2,3.3019997E-2,1.187278E-1,4.3543108E-2],"categories":[],"categories_nodes":[],"categories_segments":[],"categories_sizes":[],"default_left":[0,0,0,0,0,0,0,0,0,0,0,0,0,0,0],"id":14,"left_children":[1,3,5,7,9,11,13,-1,-1,-1,-1,-1,-1,-1,-1],"loss_changes":[2.617983E1,1.913065E0,5.3972654E0,3.674488E-1,8.083927E0,1.5759363E0,2.83292E0,0E0,0E0,0E0,0E0,0E0,0E0,0E0,0E0],"parents":[2147483647,0,0,1,1,2,2,3,3,4,4,5,5,6,6],"right_children":[2,4,6,8,10,12,14,-1,-1,-1,-1,-1,-1,-1,-1],"split_conditions":[2.612E2,3.1716667E1,7.6065E2,4E0,3.185E1,5.910333E2,4.2966667E1,-4.792842E-2,-3.1495966E-2,2.2255303E-1,-1.83933E-2,1.0559071E-2,3.3019997E-2,1.187278E-1,4.3543108E-2],"split_indices":[0,1,0,0,1,0,1,0,0,0,0,0,0,0,0],"split_type":[0,0,0,0,0,0,0,0,0,0,0,0,0,0,0],"sum_hessian":[1.616E3,7.69E2,8.47E2,6.05E2,1.64E2,7.14E2,1.33E2,1.34E2,4.71E2,6E0,1.58E2,4.69E2,2.45E2,3.9E1,9.4E1],"tree_param":{"num_deleted":"0","num_feature":"2","num_nodes":"15","size_leaf_vector":"1"}},{"base_weights":[-9.850789E-4,-9.360928E-2,1.4630136E-1,-1.3618849E-1,6.342347E-2,1.24449216E-1,1.4412984E-1,-3.818177E-2,-2.0927705E-2,-1.799894E-2,2.0835552E-2,6.012073E-2,1.7861959E-2],"categories":[],"categories_nodes":[],"categories_segments":[],"categories_sizes":[],"default_left":[0,0,0,0,0,0,0,0,0,0,0,0,0],"id":15,"left_children":[1,3,5,7,9,11,-1,-1,-1,-1,-1,-1,-1],"loss_changes":[2.1823383E1,6.6450176E0,6.3000975E0,1.0175056E0,9.605387E-1,3.582882E0,0E0,0E0,0E0,0E0,0E0,0E0,0E0],"parents":[2147483647,0,0,1,1,2,2,3,3,4,4,5,5],"right_children":[2,4,6,8,10,12,-1,-1,-1,-1,-1,-1,-1],"split_conditions":[4.1111667E2,3.4733334E1,8.787E2,7.878333E1,2.0523334E2,3.7733334E1,1.4412984E-1,-3.818177E-2,-2.0927705E-2,-1.799894E-2,2.0835552E-2,6.012073E-2,1.7861959E-2],"split_indices":[0,1,0,0,0,1,0,0,0,0,0,0,0],"split_type":[0,0,0,0,0,0,0,0,0,0,0,0,0],"sum_hessian":[1.6E3,9.85E2,6.15E2,7.78E2,2.07E2,5.92E2,2.3E1,3.98E2,3.8E2,3.3E1,1.74E2,1.29E2,4.63E2],"tree_param":{"num_deleted":"0","num_feature":"2","num_nodes":"13","size_leaf_vector":"1"}},{"base_weights":[-3.2984836E-3,-1.0951025E-1,6.7178346E-2,-1.4535046E-1,-7.997988E-2,4.7534253E-2,2.492806E-1,-2.7489558E-2,-4.0184516E-2,2.1259098E-3,-2.0996328E-2,1.4958543E-3,1.9636353E-2,1.3226138E-1,4.3932863E-2],"categories":[],"categories_nodes":[],"categories_segments":[],"categories_sizes":[],"default_left":[0,0,0,0,0,0,0,0,0,0,0,0,0,0,0],"id":16,"left_children":[1,3,5,7,9,11,13,-1,-1,-1,-1,-1,-1,-1,-1],"loss_changes":[1.18597975E1,5.2418566E-1,3.1977024E0,2.6397705E-3,5.4985356E-1,1.401663E0,9.524307E-1,0E0,0E0,0E0,0E0,0E0,0E0,0E0,0E0],"parents":[2147483647,0,0,1,1,2,2,3,3,4,4,5,5,6,6],"right_children":[2,4,6,8,10,12,14,-1,-1,-1,-1,-1,-1,-1,-1],"split_conditions":[1.909E2,2.7966667E1,7.936E2,9.966666E0,1.9E1,5.0255E2,3.8433334E1,-2.7489558E-2,-4.0184516E-2,2.1259098E-3,-2.0996328E-2,1.4958543E-3,1.9636353E-2,1.3226138E-1,4.3932863E-2],"split_indices":[0,0,0,0,1,0,1,0,0,0,0,0,0,0,0],"split_type":[0,0,0,0,0,0,0,0,0,0,0,0,0,0,0],"sum_hessian":[1.579E3,6.33E2,9.46E2,2.75E2,3.58E2,8.58E2,8.8E1,1.91E2,8.4E1,4.7E1,3.11E2,4.42E2,4.16E2,8E0,8E1],"tree_param":{"num_deleted":"0","num_feature":"2","num_nodes":"15","size_leaf_vector":"1"}},{"base_weights":[7.6095527E-3,-4.045924E-2,7.7632256E-2,-5.6646984E-2,7.4959986E-2,6.1561696E-2,4.2453852E-1,-2.2114856E-2,-6.9523635E-3,-5.0635776E-3,2.6957227E-2,6.6467114E-2,8.596366E-3,1.4568081E-1,4.630999E-2],"categories":[],"categories_nodes":[],"categories_segments":[],"categories_sizes":[],"default_left":[0,0,0,0,0,0,0,0,0,0,0,0,0,0,0],"id":17,"left_children":[1,3,5,7,9,11,13,-1,-1,-1,-1,-1,-1,-1,-1],"loss_changes":[5.3637733E0,1.742059E0,3.3115158E0,8.252125E-1,5.7990235E-1,3.1644638E0,7.1037054E-1,0E0,0E0,0E0,0E0,0E0,0E0,0E0,0E0],"parents":[2147483647,0,0,1,1,2,2,3,3,4,4,5,5,6,6],"right_children":[2,4,6,8,10,12,14,-1,-1,-1,-1,-1,-1,-1,-1],"split_conditions":[3.9361667E2,3.635E1,8.5945E2,2.4766666E1,2.6551666E2,3.2166668E1,5.015E1,-2.2114856E-2,-6.9523635E-3,-5.0635776E-3,2.6957227E-2,6.6467114E-2,8.596366E-3,1.4568081E-1,4.630999E-2],"split_indices":[0,1,0,1,0,1,1,0,0,0,0,0,0,0,0],"split_type":[0,0,0,0,0,0,0,0,0,0,0,0,0,0,0],"sum_hessian":[1.585E3,9.35E2,6.5E2,8.25E2,1.1E2,6.24E2,2.6E1,2.9E2,5.35E2,3.2E1,7.8E1,5E1,5.74E2,1E1,1.6E1],"tree_param":{"num_deleted":"0","num_feature":"2","num_nodes":"15","size_leaf_vector":"1"}},{"base_weights":[1.045833E-2,-3.4410045E-2,7.449914E-2,-1.0080946E-1,-7.661927E-3,1.3171943E-1,-0E0,-1.7471919E-2,-3.21006E-2,-4.692623E-3,2.0237055E-2,1.10974265E-2,5.1382884E-2,-2.1655331E-3,6.8481974E-2],"categories":[],"categories_nodes":[],"categories_segments":[],"categories_sizes":[],"default_left":[0,0,0,0,0,0,0,0,0,0,0,0,0,0,0],"id":18,"left_children":[1,3,5,7,9,11,13,-1,-1,-1,-1,-1,-1,-1,-1],"loss_changes":[4.7217636E0,1.6320575E0,2.8591704E0,1.1178422E-1,8.979957E-1,2.9796839E0,9.969646E-1,0E0,0E0,0E0,0E0,0E0,0E0,0E0,0E0],"parents":[2147483647,0,0,1,1,2,2,3,3,4,4,5,5,6,6],"right_children":[2,4,6,8,10,12,14,-1,-1,-1,-1,-1,-1,-1,-1],"split_conditions":[3.8831668E2,2.71E1,4.4033333E1,1.0933333E1,3.8133335E1,5.8685E2,8.907167E2,-1.7471919E-2,-3.21006E-2,-4.692623E-3,2.0237055E-2,1.10974265E-2,5.1382884E-2,-2.1655331E-3,6.8481974E-2],"split_indices":[0,0,1,0,1,0,0,0,0,0,0,0,0,0,0],"split_type":[0,0,0,0,0,0,0,0,0,0,0,0,0,0,0],"sum_hessian":[1.633E3,9.55E2,6.78E2,2.67E2,6.88E2,3.81E2,2.97E2,1.92E2,7.5E1,6.11E2,7.7E1,2.16E2,1.65E2,2.88E2,9E0],"tree_param":{"num_deleted":"0","num_feature":"2","num_nodes":"15","size_leaf_vector":"1"}},{"base_weights":[3.0397621E-3,-5.3618006E-2,3.8788147E-2,-4.090078E-2,-1.7168097E-1,3.0314736E-2,1.4825082E-1,-1.7563464E-2,-2.5449179E-5,-8.874404E-2,-7.0054843E-3,7.946146E-3,-2.9943611E-2,7.15223E-2,1.3784961E-2],"categories":[],"categories_nodes":[],"categories_segments":[],"categories_sizes":[],"default_left":[0,0,0,0,0,0,0,0,0,0,0,0,0,0,0],"id":19,"left_children":[1,3,5,7,9,11,13,-1,-1,-1,-1,-1,-1,-1,-1],"loss_changes":[3.2500627E0,7.9031205E-1,8.09396E-1,8.4441674E-1,1.5080516E0,8.413076E-1,7.4601376E-1,0E0,0E0,0E0,0E0,0E0,0E0,0E0,0E0],"parents":[2147483647,0,0,1,1,2,2,3,3,4,4,5,5,6,6],"right_children":[2,4,6,8,10,12,14,-1,-1,-1,-1,-1,-1,-1,-1],"split_conditions":[1.8001666E2,1.4388333E2,8.078333E2,2.7966667E1,2.6216667E1,5.155E1,4.245E1,-1.7563464E-2,-2.5449179E-5,-8.874404E-2,-7.0054843E-3,7.946146E-3,-2.9943611E-2,7.15223E-2,1.3784961E-2],"split_indices":[0,0,0,0,1,1,1,0,0,0,0,0,0,0,0],"split_type":[0,0,0,0,0,0,0,0,0,0,0,0,0,0,0],"sum_hessian":[1.607E3,6.15E2,9.92E2,5.61E2,5.4E1,9.27E2,6.5E1,2.79E2,2.82E2,1.8E1,3.6E1,9E2,2.7E1,1.8E1,4.7E1],"tree_param":{"num_deleted":"0","num_feature":"2","num_nodes":"15","size_leaf_vector":"1"}},{"base_weights":[1.7022822E-3,-2.7986593E-4,1.05459444E-1,-2.0518078E-2,3.095939E-2,-3.0665316E-2,-3.3390655E-3,4.233465E-2,1.3070122E-3],"categories":[],"categories_nodes":[],"categories_segments":[],"categories_sizes":[],"default_left":[0,0,0,0,0,0,0,0,0],"id":20,"left_children":[1,3,-1,5,7,-1,-1,-1,-1],"loss_changes":[1.8336918E0,1.022371E0,0E0,5.39335E-1,2.4167948E0,0E0,0E0,0E0,0E0],"parents":[2147483647,0,0,1,1,3,3,4,4],"right_children":[2,4,-1,6,8,-1,-1,-1,-1],"split_conditions":[9.215833E2,4.1111667E2,1.05459444E-1,1.5E1,3.5033333E1,-3.0665316E-2,-3.3390655E-3,4.233465E-2,1.3070122E-3],"split_indices":[0,0,0,1,1,0,0,0,0],"split_type":[0,0,0,0,0,0,0,0,0],"sum_hessian":[1.632E3,1.625E3,7E0,9.98E2,6.27E2,3.7E1,9.61E2,8E1,5.47E2],"tree_param":{"num_deleted":"0","num_feature":"2","num_nodes":"9","size_leaf_vector":"1"}},{"base_weights":[-1.1703068E-2,-2.585888E-2,9.0903684E-2,-5.883671E-2,-1.22691095E-2,1.8060945E-1,1.4735278E-2,-8.4204525E-3,-2.9992245E-2,-1.7853642E-2,-1.09589906E-4,1.6400572E-2,4.6594135E-2,-3.025559E-3,3.563616E-2],"categories":[],"categories_nodes":[],"categories_segments":[],"categories_sizes":[],"default_left":[0,0,0,0,0,0,0,0,0,0,0,0,0,0,0],"id":21,"left_children":[1,3,5,7,9,11,13,-1,-1,-1,-1,-1,-1,-1,-1],"loss_changes":[2.3105345E0,5.9569234E-1,1.1851861E0,5.321517E-1,7.812582E-1,9.0213776E-2,5.4419905E-1,0E0,0E0,0E0,0E0,0E0,0E0,0E0,0E0],"parents":[2147483647,0,0,1,1,2,2,3,3,4,4,5,5,6,6],"right_children":[2,4,6,8,10,12,14,-1,-1,-1,-1,-1,-1,-1,-1],"split_conditions":[7.2138336E2,7.878333E1,4.585E1,5.065E1,2.655E1,7.551E2,8.787E2,-8.4204525E-3,-2.9992245E-2,-1.7853642E-2,-1.09589906E-4,1.6400572E-2,4.6594135E-2,-3.025559E-3,3.563616E-2],"split_indices":[0,0,1,0,1,0,0,0,0,0,0,0,0,0,0],"split_type":[0,0,0,0,0,0,0,0,0,0,0,0,0,0,0],"sum_hessian":[1.615E3,1.425E3,1.9E2,4.02E2,1.023E3,8.3E1,1.07E2,3.25E2,7.7E1,1.41E2,8.82E2,2.4E1,5.9E1,8.7E1,2E1],"tree_param":{"num_deleted":"0","num_feature":"2","num_nodes":"15","size_leaf_vector":"1"}},{"base_weights":[-0E0,-2.084567E-2,4.512411E-2,-3.5581164E-2,5.347255E-2,2.3730682E-1,-0E0,-5.309712E-3,-3.1305008E-2,1.5391442E-2,-2.8396528E-2,9.47668E-3,6.922911E-2,-4.0156436E-3,1.7497621E-2],"categories":[],"categories_nodes":[],"categories_segments":[],"categories_sizes":[],"default_left":[0,0,0,0,0,0,0,0,0,0,0,0,0,0,0],"id":22,"left_children":[1,3,5,7,9,11,13,-1,-1,-1,-1,-1,-1,-1,-1],"loss_changes":[1.5280716E0,1.204556E0,4.41591E0,1.0351117E0,5.0632244E-1,1.2294936E0,6.190051E-1,0E0,0E0,0E0,0E0,0E0,0E0,0E0,0E0],"parents":[2147483647,0,0,1,1,2,2,3,3,4,4,5,5,6,6],"right_children":[2,4,6,8,10,12,14,-1,-1,-1,-1,-1,-1,-1,-1],"split_conditions":[4.9901666E2,3.8016666E1,3.7733334E1,3.7528333E2,4.8665E2,5.686667E2,7.936E2,-5.309712E-3,-3.1305008E-2,1.5391442E-2,-2.8396528E-2,9.47668E-3,6.922911E-2,-4.0156436E-3,1.7497621E-2],"split_indices":[0,1,1,0,0,0,0,0,0,0,0,0,0,0,0],"split_type":[0,0,0,0,0,0,0,0,0,0,0,0,0,0,0],"sum_hessian":[1.62E3,1.107E3,5.13E2,9.31E2,1.76E2,9.6E1,4.17E2,8.47E2,8.4E1,1.65E2,1.1E1,3E1,6.6E1,3.38E2,7.9E1],"tree_param":{"num_deleted":"0","num_feature":"2","num_nodes":"15","size_leaf_vector":"1"}},{"base_weights":[4.146398E-3,1.56812E-3,2.2727677E-1,5.113799E-3,-1.508125E-1,8.981241E-2,-0E0,-2.9031394E-2,1.8491754E-3,-4.1183665E-2,-0E0],"categories":[],"categories_nodes":[],"categories_segments":[],"categories_sizes":[],"default_left":[0,0,0,0,0,0,0,0,0,0,0],"id":23,"left_children":[1,3,5,7,9,-1,-1,-1,-1,-1,-1],"loss_changes":[8.02364E-1,7.88086E-1,5.0679195E-1,6.430102E-1,1.9560266E-1,0E0,0E0,0E0,0E0,0E0,0E0],"parents":[2147483647,0,0,1,1,2,2,3,3,4,4],"right_children":[2,4,6,8,10,-1,-1,-1,-1,-1,-1],"split_conditions":[8.907167E2,5.155E1,5.23E1,1.5E1,8.5945E2,8.981241E-2,-0E0,-2.9031394E-2,1.8491754E-3,-4.1183665E-2,-0E0],"split_indices":[0,1,1,1,0,0,0,0,0,0,0],"split_type":[0,0,0,0,0,0,0,0,0,0,0],"sum_hessian":[1.633E3,1.618E3,1.5E1,1.586E3,3.2E1,7E0,8E0,3.2E1,1.554E3,2.6E1,6E0],"tree_param":{"num_deleted":"0","num_feature":"2","num_nodes":"11","size_leaf_vector":"1"}},{"base_weights":[-2.7705785E-3,-1.5191436E-2,5.7555433E-2,-1.1075847E-2,-2.6410881E-2,1.2829039E-1,2.2648294E-2,-4.495726E-3,8.602267E-3,-0E0,3.3113774E-2,-2.476281E-3,1.5769185E-2],"categories":[],"categories_nodes":[],"categories_segments":[],"categories_sizes":[],"default_left":[0,0,0,0,0,0,0,0,0,0,0,0,0],"id":24,"left_children":[1,3,5,7,-1,9,11,-1,-1,-1,-1,-1,-1],"loss_changes":[1.1780837E0,4.9827546E-1,5.633264E-1,5.9822774E-1,0E0,1.9097745E-1,3.4458804E-1,0E0,0E0,0E0,0E0,0E0,0E0],"parents":[2147483647,0,0,1,1,2,2,3,3,5,5,6,6],"right_children":[2,4,6,8,-1,10,12,-1,-1,-1,-1,-1,-1],"split_conditions":[6.7125E2,4.7283333E1,4.245E1,5.0255E2,-2.6410881E-2,6.9026666E2,4.8716667E1,-4.495726E-3,8.602267E-3,-0E0,3.3113774E-2,-2.476281E-3,1.5769185E-2],"split_indices":[0,1,1,0,0,0,1,0,0,0,0,0,0],"split_type":[0,0,0,0,0,0,0,0,0,0,0,0,0],"sum_hessian":[1.604E3,1.339E3,2.65E2,1.295E3,4.4E1,8.1E1,1.84E2,1.102E3,1.93E2,1.4E1,6.7E1,1.02E2,8.2E1],"tree_param":{"num_deleted":"0","num_feature":"2","num_nodes":"13","size_leaf_vector":"1"}},{"base_weights":[1.1413054E-2,9.325672E-3,7.042964E-2,-3.468745E-2,1.2942667E-2,-0E0,-8.941377E-3,2.0503629E-2,1.6508559E-3],"categories":[],"categories_nodes":[],"categories_segments":[],"categories_sizes":[],"default_left":[0,0,0,0,0,0,0,0,0],"id":25,"left_children":[1,3,-1,5,7,-1,-1,-1,-1],"loss_changes":[8.510317E-1,2.4593517E-1,0E0,2.997312E-2,5.99729E-1,0E0,0E0,0E0,0E0],"parents":[2147483647,0,0,1,1,3,3,4,4],"right_children":[2,4,-1,6,8,-1,-1,-1,-1],"split_conditions":[9.215833E2,2.9166667E0,7.042964E-2,1.475E1,1.175E1,-0E0,-8.941377E-3,2.0503629E-2,1.6508559E-3],"split_indices":[0,0,0,1,0,0,0,0,0],"split_type":[0,0,0,0,0,0,0,0,0],"sum_hessian":[1.631E3,1.623E3,8E0,1.1E2,1.513E3,1.2E1,9.8E1,8.8E1,1.425E3],"tree_param":{"num_deleted":"0","num_feature":"2","num_nodes":"9","size_leaf_vector":"1"}},{"base_weights":[3.3621201E-3,1.2017073E-3,1.6271885E-1,9.5396675E-3,-4.0494088E-2,5.3723637E-2,-0E0,-8.655457E-4,1.5696703E-2,-1.2738668E-2,3.51059E-3],"categories":[],"categories_nodes":[],"categories_segments":[],"categories_sizes":[],"default_left":[0,0,0,0,0,0,0,0,0,0,0],"id":26,"left_children":[1,3,5,7,9,-1,-1,-1,-1,-1,-1],"loss_changes":[4.6055683E-1,5.4049987E-1,2.3900044E-1,1.1666913E0,2.7767757E-1,0E0,0E0,0E0,0E0,0E0,0E0],"parents":[2147483647,0,0,1,1,2,2,3,3,4,4],"right_children":[2,4,6,8,10,-1,-1,-1,-1,-1,-1],"split_conditions":[8.907167E2,4.4383335E1,5.2866665E1,5.0255E2,7.936E2,5.3723637E-2,-0E0,-8.655457E-4,1.5696703E-2,-1.2738668E-2,3.51059E-3],"split_indices":[0,1,1,0,0,0,0,0,0,0,0],"split_type":[0,0,0,0,0,0,0,0,0,0,0],"sum_hessian":[1.623E3,1.606E3,1.7E1,1.351E3,2.55E2,1.1E1,6E0,1.102E3,2.49E2,2.03E2,5.2E1],"tree_param":{"num_deleted":"0","num_feature":"2","num_nodes":"11","size_leaf_vector":"1"}},{"base_weights":[2.9377508E-4,-8.2496274E-4,1.4283782E-1,2.4767462E-2,-8.597723E-3,6.7574784E-2,-0E0,-0E0,2.6794553E-1,-2.5918564E-2,-2.5000115E-4],"categories":[],"categories_nodes":[],"categories_segments":[],"categories_sizes":[],"default_left":[0,0,0,0,0,0,0,0,0,0,0],"id":27,"left_children":[1,3,5,7,9,-1,-1,-1,-1,-1,-1],"loss_changes":[3.478122E-1,3.1475687E-1,3.135778E-1,1.0161487E1,9.62585E-1,0E0,0E0,0E0,0E0,0E0,0E0],"parents":[2147483647,0,0,1,1,2,2,3,3,4,4],"right_children":[2,4,6,8,10,-1,-1,-1,-1,-1,-1],"split_conditions":[8.907167E2,5.2583332E1,5.0966667E1,5.065E1,7.878333E1,6.7574784E-2,-0E0,-0E0,2.6794553E-1,-2.5918564E-2,-2.5000115E-4],"split_indices":[0,0,1,0,0,0,0,0,0,0,0],"split_type":[0,0,0,0,0,0,0,0,0,0,0],"sum_hessian":[1.645E3,1.629E3,1.6E1,3.61E2,1.268E3,6E0,1E1,3.55E2,6E0,7.5E1,1.193E3],"tree_param":{"num_deleted":"0","num_feature":"2","num_nodes":"11","size_leaf_vector":"1"}},{"base_weights":[-6.632286E-3,2.2382265E-2,-1.5173677E-2,3.7215329E-3,4.2578393E-1,-6.170086E-2,-1.1688041E-2,1.0186239E-2,-8.490716E-3,-2.3366045E-2,2.3290612E-1,4.1378442E-2,-4.140298E-3],"categories":[],"categories_nodes":[],"categories_segments":[],"categories_sizes":[],"default_left":[0,0,0,0,0,0,0,0,0,0,0,0,0],"id":28,"left_children":[1,3,5,7,9,-1,11,-1,-1,-1,-1,-1,-1],"loss_changes":[3.9327735E-1,2.367904E0,9.819154E-1,6.118104E-1,5.397546E0,0E0,1.6714236E0,0E0,0E0,0E0,0E0,0E0,0E0],"parents":[2147483647,0,0,1,1,2,2,3,3,4,4,6,6],"right_children":[2,4,6,8,10,-1,12,-1,-1,-1,-1,-1,-1],"split_conditions":[5.2583332E1,4.94E1,1.5933333E1,2.505E1,2.9466667E1,-6.170086E-2,2.0433332E1,1.0186239E-2,-8.490716E-3,-2.3366045E-2,2.3290612E-1,4.1378442E-2,-4.140298E-3],"split_indices":[0,0,1,1,1,0,1,0,0,0,0,0,0],"split_type":[0,0,0,0,0,0,0,0,0,0,0,0,0],"sum_hessian":[1.602E3,3.48E2,1.254E3,3.35E2,1.3E1,1.3E1,1.241E3,1.74E2,1.61E2,7E0,6E0,3.9E1,1.202E3],"tree_param":{"num_deleted":"0","num_feature":"2","num_nodes":"13","size_leaf_vector":"1"}},{"base_weights":[1.2150138E-2,-2.741211E-2,1.752165E-2,-0E0,-3.4876738E-2,6.045171E-1,1.1465818E-2,-8.329209E-3,-0E0,2.7965745E-1,-0E0,-6.318242E-2,2.9281317E-3],"categories":[],"categories_nodes":[],"categories_segments":[],"categories_sizes":[],"default_left":[0,0,0,0,0,0,0,0,0,0,0,0,0],"id":29,"left_children":[1,3,5,-1,7,9,11,-1,-1,-1,-1,-1,-1],"loss_changes":[3.4646106E-1,5.804129E-2,4.8560634E0,0E0,9.352416E-3,6.194944E0,6.429465E-1,0E0,0E0,0E0,0E0,0E0,0E0],"parents":[2147483647,0,0,1,1,2,2,4,4,5,5,6,6],"right_children":[2,4,6,-1,8,10,12,-1,-1,-1,-1,-1,-1],"split_conditions":[9.966666E0,1.5E1,1.175E1,-0E0,6.9333334E0,2.52E1,1.3483334E1,-8.329209E-3,-0E0,2.7965745E-1,-0E0,-6.318242E-2,2.9281317E-3],"split_indices":[0,1,0,0,0,1,1,0,0,0,0,0,0],"split_type":[0,0,0,0,0,0,0,0,0,0,0,0,0],"sum_hessian":[1.655E3,1.84E2,1.471E3,2.3E1,1.61E2,1.3E1,1.458E3,1.43E2,1.8E1,6E0,7E0,6E0,1.452E3],"tree_param":{"num_deleted":"0","num_feature":"2","num_nodes":"13","size_leaf_vector":"1"}},{"base_weights":[-4.421477E-3,-1.3002224E-2,4.4334445E-2,9.430518E-3,-2.1450598E-2,2.932531E-2,8.727483E-3,-6.2391843E-4,1.23256765E-1,-1.5691385E-2,-2.2393456E-3,-0E0,2.1315772E-2],"categories":[],"categories_nodes":[],"categories_segments":[],"categories_sizes":[],"default_left":[0,0,0,0,0,0,0,0,0,0,0,0,0],"id":30,"left_children":[1,3,5,7,9,-1,11,-1,-1,-1,-1,-1,-1],"loss_changes":[6.645443E-1,2.7255315E-1,6.5485954E-1,2.7954926E0,5.327761E-1,0E0,1.3702513E-1,0E0,0E0,0E0,0E0,0E0,0E0],"parents":[2147483647,0,0,1,1,2,2,3,3,4,4,6,6],"right_children":[2,4,6,8,10,-1,12,-1,-1,-1,-1,-1,-1],"split_conditions":[6.849667E2,5.2583332E1,4.1216667E1,5.065E1,2.7366667E1,2.932531E-2,8.787E2,-6.2391843E-4,1.23256765E-1,-1.5691385E-2,-2.2393456E-3,-0E0,2.1315772E-2],"split_indices":[0,0,1,0,1,0,0,0,0,0,0,0,0],"split_type":[0,0,0,0,0,0,0,0,0,0,0,0,0],"sum_hessian":[1.631E3,1.398E3,2.33E2,3.63E2,1.035E3,6.1E1,1.72E2,3.55E2,8E0,1.8E2,8.55E2,1.57E2,1.5E1],"tree_param":{"num_deleted":"0","num_feature":"2","num_nodes":"13","size_leaf_vector":"1"}},{"base_weights":[-3.6185877E-3,-1.3916583E-2,1.4445211E-2,-2.4015242E-2,4.235449E-2,7.735426E-2,2.969169E-3,-2.7552326E-3,-2.9337872E-2,1.2751368E-2,-2.7511138E-2,1.672288E-2,-2.1806685E-3],"categories":[],"categories_nodes":[],"categories_segments":[],"categories_sizes":[],"default_left":[0,0,0,0,0,0,0,0,0,0,0,0,0],"id":31,"left_children":[1,3,5,7,9,-1,11,-1,-1,-1,-1,-1,-1],"loss_changes":[3.019818E-1,5.900987E-1,1.9878514E0,1.0479007E0,3.6410475E-1,0E0,5.6073207E-1,0E0,0E0,0E0,0E0,0E0,0E0],"parents":[2147483647,0,0,1,1,2,2,3,3,4,4,6,6],"right_children":[2,4,6,8,10,-1,12,-1,-1,-1,-1,-1,-1],"split_conditions":[4.6701666E2,3.7216667E1,3.0866667E1,3.467E2,4.4383335E1,7.735426E-2,3.7733334E1,-2.7552326E-3,-2.9337872E-2,1.2751368E-2,-2.7511138E-2,1.672288E-2,-2.1806685E-3],"split_indices":[0,1,1,0,1,0,1,0,0,0,0,0,0],"split_type":[0,0,0,0,0,0,0,0,0,0,0,0,0],"sum_hessian":[1.623E3,1.055E3,5.68E2,9.04E2,1.51E2,1.6E1,5.52E2,8.24E2,8E1,1.42E2,9E0,8.9E1,4.63E2],"tree_param":{"num_deleted":"0","num_feature":"2","num_nodes":"13","size_leaf_vector":"1"}},{"base_weights":[-1.3111214E-3,-4.805979E-2,6.5492326E-3,-1.9805254E-2,-1.13451555E-1,-2.4083032E-1,9.711719E-3,-0E0,-5.5525517E-3,-3.1438235E-2,-2.984708E-3,-6.7517664E-3,-6.8386406E-2,9.57854E-3,-1.6014476E-3],"categories":[],"categories_nodes":[],"categories_segments":[],"categories_sizes":[],"default_left":[0,0,0,0,0,0,0,0,0,0,0,0,0,0,0],"id":32,"left_children":[1,3,5,7,9,11,13,-1,-1,-1,-1,-1,-1,-1,-1],"loss_changes":[6.197732E-1,3.6861682E-1,9.393776E-1,2.8277941E-2,1.01264715E-1,6.238878E-3,8.043172E-1,0E0,0E0,0E0,0E0,0E0,0E0,0E0,0E0],"parents":[2147483647,0,0,1,1,2,2,3,3,4,4,5,5,6,6],"right_children":[2,4,6,8,10,12,14,-1,-1,-1,-1,-1,-1,-1,-1],"split_conditions":[2.19E1,9.966666E0,1.5E1,1.5416667E1,1.7516666E1,8.121667E1,3.2166668E1,-0E0,-5.5525517E-3,-3.1438235E-2,-2.984708E-3,-6.7517664E-3,-6.8386406E-2,9.57854E-3,-1.6014476E-3],"split_indices":[0,0,1,1,0,0,1,0,0,0,0,0,0,0,0],"split_type":[0,0,0,0,0,0,0,0,0,0,0,0,0,0,0],"sum_hessian":[1.617E3,2.43E2,1.374E3,1.77E2,6.6E1,1.4E1,1.36E3,2.4E1,1.53E2,4.6E1,2E1,6E0,8E0,4.66E2,8.94E2],"tree_param":{"num_deleted":"0","num_feature":"2","num_nodes":"15","size_leaf_vector":"1"}},{"base_weights":[4.935901E-4,-2.726752E-2,1.12813255E-2,-1.6207844E-2,-3.240464E-2,1.6461168E-1,4.498602E-3,-7.4751787E-3,1.7438662E-1,-2.1383656E-2,5.0485626E-2,-2.3651429E-2,2.6397621E-3],"categories":[],"categories_nodes":[],"categories_segments":[],"categories_sizes":[],"default_left":[0,0,0,0,0,0,0,0,0,0,0,0,0],"id":33,"left_children":[1,3,5,7,-1,9,11,-1,-1,-1,-1,-1,-1],"loss_changes":[4.7257844E-1,4.769532E-1,1.1197903E0,5.3787727E0,0E0,8.82902E-1,8.9326864E-1,0E0,0E0,0E0,0E0,0E0,0E0],"parents":[2147483647,0,0,1,1,2,2,3,3,5,5,6,6],"right_children":[2,4,6,8,-1,10,12,-1,-1,-1,-1,-1,-1],"split_conditions":[8.338333E1,3.185E1,2.21E1,3.1633333E1,-3.240464E-2,1.475E1,2.5816668E1,-7.4751787E-3,1.7438662E-1,-2.1383656E-2,5.0485626E-2,-2.3651429E-2,2.6397621E-3],"split_indices":[0,1,1,1,0,1,1,0,0,0,0,0,0],"split_type":[0,0,0,0,0,0,0,0,0,0,0,0,0],"sum_hessian":[1.608E3,4.34E2,1.174E3,4.03E2,3.1E1,4.5E1,1.129E3,3.96E2,7E0,7E0,3.8E1,6.5E1,1.064E3],"tree_param":{"num_deleted":"0","num_feature":"2","num_nodes":"13","size_leaf_vector":"1"}},{"base_weights":[-2.8459176E-3,-2.6214574E-2,5.814457E-3,-3.2067206E-2,4.991432E-2,4.474674E-2,-4.95935E-3,-4.481168E-3,-4.640637E-2,5.287512E-3,1.5557745E-1,3.5779367E-3,-5.08936E-3],"categories":[],"categories_nodes":[],"categories_segments":[],"categories_sizes":[],"default_left":[0,0,0,0,0,0,0,0,0,0,0,0,0],"id":34,"left_children":[1,3,5,7,-1,9,11,-1,-1,-1,-1,-1,-1],"loss_changes":[3.3579785E-1,5.584469E-1,5.056217E-1,7.859794E-1,0E0,3.1253338E0,3.4700298E-1,0E0,0E0,0E0,0E0,0E0,0E0],"parents":[2147483647,0,0,1,1,2,2,3,3,5,5,6,6],"right_children":[2,4,6,8,-1,10,12,-1,-1,-1,-1,-1,-1],"split_conditions":[2.7366667E1,4.4235E2,3.185E1,3.1431668E2,4.991432E-2,3.1716667E1,4.8665E2,-4.481168E-3,-4.640637E-2,5.287512E-3,1.5557745E-1,3.5779367E-3,-5.08936E-3],"split_indices":[1,0,1,0,0,1,0,0,0,0,0,0,0],"split_type":[0,0,0,0,0,0,0,0,0,0,0,0,0],"sum_hessian":[1.597E3,4.5E2,1.147E3,4.43E2,7E0,2.6E2,8.87E2,4.2E2,2.3E1,2.54E2,6E0,3.94E2,4.93E2],"tree_param":{"num_deleted":"0","num_feature":"2","num_nodes":"13","size_leaf_vector":"1"}},{"base_weights":[4.2161304E-3,2.2247774E-3,1.2868328E-1,2.3074524E-2,-3.4609453E-3,3.9286576E-2,-0E0,2.237054E-3,1.0373483E-1,-9.584415E-3,6.49323E-4],"categories":[],"categories_nodes":[],"categories_segments":[],"categories_sizes":[],"default_left":[0,0,0,0,0,0,0,0,0,0,0],"id":35,"left_children":[1,3,5,7,9,-1,-1,-1,-1,-1,-1],"loss_changes":[3.2666466E-1,2.0341814E-1,1.3059014E-1,1.8418549E0,3.4544158E-1,0E0,0E0,0E0,0E0,0E0,0E0],"parents":[2147483647,0,0,1,1,2,2,3,3,4,4],"right_children":[2,4,6,8,10,-1,-1,-1,-1,-1,-1],"split_conditions":[8.787E2,5.2583332E1,5.2866665E1,5.065E1,2.725E1,3.9286576E-2,-0E0,2.237054E-3,1.0373483E-1,-9.584415E-3,6.49323E-4],"split_indices":[0,0,1,0,1,0,0,0,0,0,0],"split_type":[0,0,0,0,0,0,0,0,0,0,0],"sum_hessian":[1.635E3,1.615E3,2E1,3.68E2,1.247E3,1.4E1,6E0,3.6E2,8E0,1.84E2,1.063E3],"tree_param":{"num_deleted":"0","num_feature":"2","num_nodes":"11","size_leaf_vector":"1"}},{"base_weights":[-1.9219273E-3,-7.278537E-3,3.4681976E-2,1.3064069E-2,-2.5382306E-2,-1.00007154E-1,5.6486547E-2,4.1149705E-4,3.8985565E-2,-3.7420288E-2,-3.1104705E-3,-2.5842555E-2,-0E0,3.0327072E-2,1.7727263E-3],"categories":[],"categories_nodes":[],"categories_segments":[],"categories_sizes":[],"default_left":[0,0,0,0,0,0,0,0,0,0,0,0,0,0,0],"id":36,"left_children":[1,3,5,7,9,11,13,-1,-1,-1,-1,-1,-1,-1,-1],"loss_changes":[2.973308E-1,5.269942E-1,5.375361E-1,1.0846661E0,1.1268992E0,4.5381784E-3,5.7332176E-1,0E0,0E0,0E0,0E0,0E0,0E0,0E0,0E0],"parents":[2147483647,0,0,1,1,2,2,3,3,4,4,5,5,6,6],"right_children":[2,4,6,8,10,12,14,-1,-1,-1,-1,-1,-1,-1,-1],"split_conditions":[7.2138336E2,3.1233334E1,3.865E1,3.8516666E2,3.2033333E1,3.8016666E1,7.6768335E2,4.1149705E-4,3.8985565E-2,-3.7420288E-2,-3.1104705E-3,-2.5842555E-2,-0E0,3.0327072E-2,1.7727263E-3],"split_indices":[0,1,1,0,1,1,0,0,0,0,0,0,0,0,0],"split_type":[0,0,0,0,0,0,0,0,0,0,0,0,0,0,0],"sum_hessian":[1.598E3,1.409E3,1.89E2,6.48E2,7.61E2,2.2E1,1.67E2,6.11E2,3.7E1,5E1,7.11E2,1.6E1,6E0,5.7E1,1.1E2],"tree_param":{"num_deleted":"0","num_feature":"2","num_nodes":"15","size_leaf_vector":"1"}},{"base_weights":[-1.0828535E-2,-1.9597936E-2,8.793964E-3,-1.6131653E-2,-1.3102706E-1,7.187744E-2,-1.1052343E-2,-5.323046E-3,1.2758609E-2,-0E0,-4.399335E-2,-0E0,1.9705942E-2,-1.6530504E-2,4.4565955E-3],"categories":[],"categories_nodes":[],"categories_segments":[],"categories_sizes":[],"default_left":[0,0,0,0,0,0,0,0,0,0,0,0,0,0,0],"id":37,"left_children":[1,3,5,7,9,11,13,-1,-1,-1,-1,-1,-1,-1,-1],"loss_changes":[2.8490415E-1,3.4952417E-1,6.3698494E-1,6.452219E-1,2.6189566E-1,1.4795619E-1,7.527839E-1,0E0,0E0,0E0,0E0,0E0,0E0,0E0,0E0],"parents":[2147483647,0,0,1,1,2,2,3,3,4,4,5,5,6,6],"right_children":[2,4,6,8,10,12,14,-1,-1,-1,-1,-1,-1,-1,-1],"split_conditions":[4.0216667E1,3.9566666E1,5.1355E2,5.547E2,4.1965E2,3.5996667E2,6.5406665E2,-5.323046E-3,1.2758609E-2,-0E0,-4.399335E-2,-0E0,1.9705942E-2,-1.6530504E-2,4.4565955E-3],"split_indices":[1,1,0,0,0,0,0,0,0,0,0,0,0,0,0],"split_type":[0,0,0,0,0,0,0,0,0,0,0,0,0,0,0],"sum_hessian":[1.616E3,1.138E3,4.78E2,1.11E3,2.8E1,1.21E2,3.57E2,1.009E3,1.01E2,1E1,1.8E1,2.5E1,9.6E1,1.23E2,2.34E2],"tree_param":{"num_deleted":"0","num_feature":"2","num_nodes":"15","size_leaf_vector":"1"}},{"base_weights":[-1.2815756E-3,5.858196E-2,-8.678213E-3,1.3702529E-2,5.884395E-2,-6.62004E-2,-1.6539531E-6,-1.5309147E-4,1.2990508E-2,-0E0,-4.6256684E-2,-2.5381E-3,3.7377838E-3],"categories":[],"categories_nodes":[],"categories_segments":[],"categories_sizes":[],"default_left":[0,0,0,0,0,0,0,0,0,0,0,0,0],"id":38,"left_children":[1,3,5,7,-1,9,11,-1,-1,-1,-1,-1,-1],"loss_changes":[6.98511E-1,1.4401107E0,6.9544506E-1,1.2972257E-1,0E0,1.6692849E0,2.4976501E-1,0E0,0E0,0E0,0E0,0E0,0E0],"parents":[2147483647,0,0,1,1,2,2,3,3,5,5,6,6],"right_children":[2,4,6,8,-1,10,12,-1,-1,-1,-1,-1,-1],"split_conditions":[2.1066668E1,9.015E1,2.5816668E1,3.1516666E1,5.884395E-2,1.4826666E2,4.0083332E1,-1.5309147E-4,1.2990508E-2,-0E0,-4.6256684E-2,-2.5381E-3,3.7377838E-3],"split_indices":[1,0,1,0,0,0,1,0,0,0,0,0,0],"split_type":[0,0,0,0,0,0,0,0,0,0,0,0,0],"sum_hessian":[1.643E3,1.71E2,1.472E3,1.44E2,2.7E1,1.83E2,1.289E3,1E2,4.4E1,1.28E2,5.5E1,7.89E2,5E2],"tree_param":{"num_deleted":"0","num_feature":"2","num_nodes":"13","size_leaf_vector":"1"}},{"base_weights":[9.098917E-3,3.6726914E-2,4.93787E-3,-1.28779875E-5,2.054319E-1,-1.5110902E-1,6.844608E-3,-0E0,-1.0323594E-2,-0E0,-5.2268274E-2,-1.428455E-2,2.1003378E-3],"categories":[],"categories_nodes":[],"categories_segments":[],"categories_sizes":[],"default_left":[0,0,0,0,0,0,0,0,0,0,0,0,0],"id":39,"left_children":[1,3,5,7,-1,9,11,-1,-1,-1,-1,-1,-1],"loss_changes":[1.5576902E-1,6.723343E0,3.2746196E-1,1.5413941E-2,0E0,9.827882E-2,2.342816E-1,0E0,0E0,0E0,0E0,0E0,0E0],"parents":[2147483647,0,0,1,1,2,2,3,3,5,5,6,6],"right_children":[2,4,6,8,-1,10,12,-1,-1,-1,-1,-1,-1],"split_conditions":[1.175E1,1.0933333E1,1.5E1,3.035E1,2.054319E-1,8.121667E1,1.825E1,-0E0,-1.0323594E-2,-0E0,-5.2268274E-2,-1.428455E-2,2.1003378E-3],"split_indices":[0,0,1,1,0,0,0,0,0,0,0,0,0],"split_type":[0,0,0,0,0,0,0,0,0,0,0,0,0],"sum_hessian":[1.573E3,1.86E2,1.387E3,1.79E2,7E0,1.2E1,1.375E3,1.73E2,6E0,6E0,6E0,4.1E1,1.334E3],"tree_param":{"num_deleted":"0","num_feature":"2","num_nodes":"13","size_leaf_vector":"1"}},{"base_weights":[6.2403954E-3,4.163271E-2,-1.61858E-3,1.0604966E-2,1.8063132E-1,-4.88014E-2,1.6249589E-3,-1.7083375E-3,4.7699556E-2,-3.5029459E-3,-2.4999091E-2,6.2926114E-3,-1.3070214E-3],"categories":[],"categories_nodes":[],"categories_segments":[],"categories_sizes":[],"default_left":[0,0,0,0,0,0,0,0,0,0,0,0,0],"id":40,"left_children":[1,3,5,7,-1,9,11,-1,-1,-1,-1,-1,-1],"loss_changes":[4.7272754E-1,6.916665E0,2.2840756E-1,1.2521882E0,0E0,1.2508835E-1,2.6115227E-1,0E0,0E0,0E0,0E0,0E0,0E0],"parents":[2147483647,0,0,1,1,2,2,3,3,5,5,6,6],"right_children":[2,4,6,8,-1,10,12,-1,-1,-1,-1,-1,-1],"split_conditions":[2.505E1,2.5E1,2.685E1,2.2543333E2,1.8063132E-1,1.909E2,3.185E1,-1.7083375E-3,4.7699556E-2,-3.5029459E-3,-2.4999091E-2,6.2926114E-3,-1.3070214E-3],"split_indices":[1,1,1,0,0,0,1,0,0,0,0,0,0],"split_type":[0,0,0,0,0,0,0,0,0,0,0,0,0],"sum_hessian":[1.612E3,3.06E2,1.306E3,2.96E2,1E1,9.5E1,1.211E3,2.7E2,2.6E1,7E1,2.5E1,2.82E2,9.29E2],"tree_param":{"num_deleted":"0","num_feature":"2","num_nodes":"13","size_leaf_vector":"1"}},{"base_weights":[2.4013338E-3,-3.4694787E-2,8.917157E-3,-2.1290133E-2,-4.8341952E-2,6.127566E-2,3.6257394E-3,-2.9648448E-4,-2.0865919E-2,-0E0,1.1932262E-1,-3.1281058E-2,1.3182296E-3],"categories":[],"categories_nodes":[],"categories_segments":[],"categories_sizes":[],"default_left":[0,0,0,0,0,0,0,0,0,0,0,0,0],"id":41,"left_children":[1,3,5,7,-1,9,11,-1,-1,-1,-1,-1,-1],"loss_changes":[3.6916444E-1,4.0631905E-1,3.3956525E-1,2.545994E-1,0E0,3.098264E0,3.5144916E-1,0E0,0E0,0E0,0E0,0E0,0E0],"parents":[2147483647,0,0,1,1,2,2,3,3,5,5,6,6],"right_children":[2,4,6,8,-1,10,12,-1,-1,-1,-1,-1,-1],"split_conditions":[1.825E1,3.14E1,5.2583332E1,1.0933333E1,-4.8341952E-2,3.1633333E1,1.5933333E1,-2.9648448E-4,-2.0865919E-2,-0E0,1.1932262E-1,-3.1281058E-2,1.3182296E-3],"split_indices":[0,1,0,0,0,1,1,0,0,0,0,0,0],"split_type":[0,0,0,0,0,0,0,0,0,0,0,0,0],"sum_hessian":[1.589E3,2.23E2,1.366E3,2.12E2,1.1E1,1.14E2,1.252E3,1.74E2,3.8E1,1.03E2,1.1E1,1.5E1,1.237E3],"tree_param":{"num_deleted":"0","num_feature":"2","num_nodes":"13","size_leaf_vector":"1"}},{"base_weights":[2.3161562E-3,2.3235245E-2,-2.5654403E-3,5.107242E-4,4.513263E-1,-4.4620708E-2,8.3306385E-3,3.0827841E-3,-6.291009E-2,-2.6978053E-2,2.6631135E-1,-5.0611934E-3,-2.9665392E-2,-2.510561E-2,2.9785195E-3],"categories":[],"categories_nodes":[],"categories_segments":[],"categories_sizes":[],"default_left":[0,0,0,0,0,0,0,0,0,0,0,0,0,0,0],"id":42,"left_children":[1,3,5,7,9,11,13,-1,-1,-1,-1,-1,-1,-1,-1],"loss_changes":[1.7472787E-1,2.8805926E0,6.0227454E-1,1.0398719E0,7.3371816E0,4.3263632E-1,5.757246E-1,0E0,0E0,0E0,0E0,0E0,0E0,0E0,0E0],"parents":[2147483647,0,0,1,1,2,2,3,3,4,4,5,5,6,6],"right_children":[2,4,6,8,10,12,14,-1,-1,-1,-1,-1,-1,-1,-1],"split_conditions":[2.505E1,2.5E1,1.1415E2,3.285E2,5.6666665E0,3.14E1,2.6933332E1,3.0827841E-3,-6.291009E-2,-2.6978053E-2,2.6631135E-1,-5.0611934E-3,-2.9665392E-2,-2.510561E-2,2.9785195E-3],"split_indices":[1,1,0,0,0,1,1,0,0,0,0,0,0,0,0],"split_type":[0,0,0,0,0,0,0,0,0,0,0,0,0,0,0],"sum_hessian":[1.588E3,3.23E2,1.265E3,3.09E2,1.4E1,2.71E2,9.94E2,2.98E2,1.1E1,8E0,6E0,2.25E2,4.6E1,3.5E1,9.59E2],"tree_param":{"num_deleted":"0","num_feature":"2","num_nodes":"15","size_leaf_vector":"1"}},{"base_weights":[3.141568E-3,2.6065502E-2,-1.5483178E-2,2.0175723E-2,5.9352852E-2,-1.8375939E-2,9.073546E-2,3.0139594E-3,3.207018E-2,-2.2028452E-3,-1.2970233E-2,2.7753979E-2,-0E0],"categories":[],"categories_nodes":[],"categories_segments":[],"categories_sizes":[],"default_left":[0,0,0,0,0,0,0,0,0,0,0,0,0],"id":43,"left_children":[1,3,5,7,-1,9,11,-1,-1,-1,-1,-1,-1],"loss_changes":[6.9841594E-1,8.8425434E-1,2.2864491E-1,4.936317E-1,0E0,2.509031E-1,4.2786732E-2,0E0,0E0,0E0,0E0,0E0,0E0],"parents":[2147483647,0,0,1,1,2,2,3,3,5,5,6,6],"right_children":[2,4,6,8,-1,10,12,-1,-1,-1,-1,-1,-1],"split_conditions":[3.23E1,5.547E2,8.787E2,3.1716667E1,5.9352852E-2,4.7283333E1,5.2866665E1,3.0139594E-3,3.207018E-2,-2.2028452E-3,-1.2970233E-2,2.7753979E-2,-0E0],"split_indices":[1,0,0,1,0,1,1,0,0,0,0,0,0],"split_type":[0,0,0,0,0,0,0,0,0,0,0,0,0],"sum_hessian":[1.619E3,7.4E2,8.79E2,7.26E2,1.4E1,8.62E2,1.7E1,6.96E2,3E1,7.28E2,1.34E2,1.1E1,6E0],"tree_param":{"num_deleted":"0","num_feature":"2","num_nodes":"13","size_leaf_vector":"1"}},{"base_weights":[-6.627594E-3,-3.349105E-2,-1.796054E-3,-1.5209829E-2,-1.4904764E-1,3.539604E-2,-5.4794606E-3,-1.7171293E-3,-2.5524689E-2,-6.742924E-2,-9.532561E-3,7.377892E-4,1.889894E-2,-3.3361077E-2,-3.425519E-4],"categories":[],"categories_nodes":[],"categories_segments":[],"categories_sizes":[],"default_left":[0,0,0,0,0,0,0,0,0,0,0,0,0,0,0],"id":44,"left_children":[1,3,5,7,9,11,13,-1,-1,-1,-1,-1,-1,-1,-1],"loss_changes":[1.856558E-1,3.72382E-1,1.7006221E-1,7.334778E-2,2.095977E-1,1.22563615E-1,6.3193035E-1,0E0,0E0,0E0,0E0,0E0,0E0,0E0,0E0],"parents":[2147483647,0,0,1,1,2,2,3,3,4,4,5,5,6,6],"right_children":[2,4,6,8,10,12,14,-1,-1,-1,-1,-1,-1,-1,-1],"split_conditions":[1.4916667E1,1.0933333E1,2.21E1,3.0666666E1,1.175E1,1.97E1,2.3066668E1,-1.7171293E-3,-2.5524689E-2,-6.742924E-2,-9.532561E-3,7.377892E-4,1.889894E-2,-3.3361077E-2,-3.425519E-4],"split_indices":[0,0,1,1,0,1,1,0,0,0,0,0,0,0,0],"split_type":[0,0,0,0,0,0,0,0,0,0,0,0,0,0,0],"sum_hessian":[1.593E3,2.23E2,1.37E3,1.98E2,2.5E1,1.08E2,1.262E3,1.91E2,7E0,7E0,1.8E1,7.4E1,3.4E1,2.8E1,1.234E3],"tree_param":{"num_deleted":"0","num_feature":"2","num_nodes":"15","size_leaf_vector":"1"}},{"base_weights":[8.85531E-3,1.0908989E-2,-7.516284E-2,4.4112145E-3,2.6672116E-2,-2.1616532E-2,-0E0,2.9196152E-3,-5.0578467E-3,1.8763931E-2,1.965848E-3],"categories":[],"categories_nodes":[],"categories_segments":[],"categories_sizes":[],"default_left":[0,0,0,0,0,0,0,0,0,0,0],"id":45,"left_children":[1,3,5,7,9,-1,-1,-1,-1,-1,-1],"loss_changes":[2.4317302E-1,1.4480546E-1,5.092384E-2,2.7584425E-1,3.9912304E-1,0E0,0E0,0E0,0E0,0E0,0E0],"parents":[2147483647,0,0,1,1,2,2,3,3,4,4],"right_children":[2,4,6,8,10,-1,-1,-1,-1,-1,-1],"split_conditions":[5.23E1,4.0333332E1,5.6183334E1,3.706E2,4.9483334E2,-2.1616532E-2,-0E0,2.9196152E-3,-5.0578467E-3,1.8763931E-2,1.965848E-3],"split_indices":[1,1,1,0,0,0,0,0,0,0,0],"split_type":[0,0,0,0,0,0,0,0,0,0,0],"sum_hessian":[1.627E3,1.596E3,3.1E1,1.158E3,4.38E2,2.3E1,8E0,8.92E2,2.66E2,9.3E1,3.45E2],"tree_param":{"num_deleted":"0","num_feature":"2","num_nodes":"11","size_leaf_vector":"1"}},{"base_weights":[-1.1100553E-2,-4.0077172E-2,-8.2404626E-4,-1.805001E-2,-1.6176474E-1,-5.135827E-2,2.1276987E-4,-1.815235E-3,-3.0518966E-2,-7.933752E-2,-1.7280964E-2,3.6051873E-2,-4.4413225E-4],"categories":[],"categories_nodes":[],"categories_segments":[],"categories_sizes":[],"default_left":[0,0,0,0,0,0,0,0,0,0,0,0,0],"id":46,"left_children":[1,3,5,7,9,-1,11,-1,-1,-1,-1,-1,-1],"loss_changes":[4.6259177E-1,9.962096E-1,4.3520284E-1,3.3044565E-1,6.845083E-1,0E0,5.4190904E-1,0E0,0E0,0E0,0E0,0E0,0E0],"parents":[2147483647,0,0,1,1,2,2,3,3,4,4,6,6],"right_children":[2,4,6,8,10,-1,12,-1,-1,-1,-1,-1,-1],"split_conditions":[6.938333E1,4.94E1,1.5E1,3.1516666E1,5.2583332E1,-5.135827E-2,1.9E1,-1.815235E-3,-3.0518966E-2,-7.933752E-2,-1.7280964E-2,3.6051873E-2,-4.4413225E-4],"split_indices":[0,0,1,1,0,0,1,0,0,0,0,0,0],"split_type":[0,0,0,0,0,0,0,0,0,0,0,0,0],"sum_hessian":[1.635E3,4.12E2,1.223E3,3.54E2,5.8E1,7E0,1.216E3,3.33E2,2.1E1,1.4E1,4.4E1,1.9E1,1.197E3],"tree_param":{"num_deleted":"0","num_feature":"2","num_nodes":"13","size_leaf_vector":"1"}},{"base_weights":[-9.587529E-3,-4.023444E-2,1.1077819E-3,-1.1385542E-2,-1.5086907E-1,-3.8198646E-2,5.2330415E-3,2.2501664E-3,-5.6796805E-3,-0E0,-4.036705E-2,-0E0,-3.673166E-2,1.3719182E-1,1.5728097E-4],"categories":[],"categories_nodes":[],"categories_segments":[],"categories_sizes":[],"default_left":[0,0,0,0,0,0,0,0,0,0,0,0,0,0,0],"id":47,"left_children":[1,3,5,7,9,11,13,-1,-1,-1,-1,-1,-1,-1,-1],"loss_changes":[5.587824E-1,1.2956969E0,1.7451315E-1,1.1940943E-1,3.655584E-1,5.2311844E-1,2.692621E0,0E0,0E0,0E0,0E0,0E0,0E0,0E0,0E0],"parents":[2147483647,0,0,1,1,2,2,3,3,4,4,5,5,6,6],"right_children":[2,4,6,8,10,12,14,-1,-1,-1,-1,-1,-1,-1,-1],"split_conditions":[2.7E1,1.4388333E2,5.065E1,1.9166666E1,2.2516666E1,3.14E1,5.2583332E1,2.2501664E-3,-5.6796805E-3,-0E0,-4.036705E-2,-0E0,-3.673166E-2,1.3719182E-1,1.5728097E-4],"split_indices":[1,0,0,1,1,1,0,0,0,0,0,0,0,0,0],"split_type":[0,0,0,0,0,0,0,0,0,0,0,0,0,0,0],"sum_hessian":[1.632E3,4.36E2,1.196E3,3.51E2,8.5E1,9.9E1,1.097E3,1.24E2,2.27E2,1.7E1,6.8E1,7.6E1,2.3E1,6E0,1.091E3],"tree_param":{"num_deleted":"0","num_feature":"2","num_nodes":"15","size_leaf_vector":"1"}},{"base_weights":[1.2801389E-3,3.3126646E-3,-7.219739E-2,-0E0,6.7238815E-2,-1.0681746E-1,-0E0,5.836531E-4,-2.143231E-2,1.7922917E-2,-0E0,-0E0,-3.0503327E-2],"categories":[],"categories_nodes":[],"categories_segments":[],"categories_sizes":[],"default_left":[0,0,0,0,0,0,0,0,0,0,0,0,0],"id":48,"left_children":[1,3,5,7,9,11,-1,-1,-1,-1,-1,-1,-1],"loss_changes":[2.0248999E-1,3.0800205E-1,8.619057E-2,3.5214776E-1,1.1252606E-1,7.219702E-2,0E0,0E0,0E0,0E0,0E0,0E0,0E0],"parents":[2147483647,0,0,1,1,2,2,3,3,4,4,5,5],"right_children":[2,4,6,8,10,12,-1,-1,-1,-1,-1,-1,-1],"split_conditions":[5.185E1,4.8416668E1,8.5945E2,4.7283333E1,8.3195E2,7.1761664E2,-0E0,5.836531E-4,-2.143231E-2,1.7922917E-2,-0E0,-0E0,-3.0503327E-2],"split_indices":[1,1,0,1,0,0,0,0,0,0,0,0,0],"split_type":[0,0,0,0,0,0,0,0,0,0,0,0,0],"sum_hessian":[1.63E3,1.595E3,3.5E1,1.524E3,7.1E1,2.3E1,1.2E1,1.489E3,3.5E1,6.5E1,6E0,6E0,1.7E1],"tree_param":{"num_deleted":"0","num_feature":"2","num_nodes":"13","size_leaf_vector":"1"}},{"base_weights":[5.669752E-3,2.9579159E-2,-1.4667289E-4,7.849936E-3,2.538761E-1,-6.849448E-3,2.6461085E-2,-1.6317975E-3,2.6980702E-2,-2.0782148E-2,1.3245513E-1,-0E0,-1.0196949E-2,7.921769E-3,-1.2573784E-3],"categories":[],"categories_nodes":[],"categories_segments":[],"categories_sizes":[],"default_left":[0,0,0,0,0,0,0,0,0,0,0,0,0,0,0],"id":49,"left_children":[1,3,5,7,9,11,13,-1,-1,-1,-1,-1,-1,-1,-1],"loss_changes":[2.485155E-1,1.5224317E0,2.2311737E-1,6.27343E-1,3.7575443E0,3.1071562E-1,9.425664E-2,0E0,0E0,0E0,0E0,0E0,0E0,0E0,0E0],"parents":[2147483647,0,0,1,1,2,2,3,3,4,4,5,5,6,6],"right_children":[2,4,6,8,10,12,14,-1,-1,-1,-1,-1,-1,-1,-1],"split_conditions":[2.535E1,2.5E1,6.849667E2,1.6543333E2,6.2833333E0,5.764167E2,5.185E1,-1.6317975E-3,2.6980702E-2,-2.0782148E-2,1.3245513E-1,-0E0,-1.0196949E-2,7.921769E-3,-1.2573784E-3],"split_indices":[1,1,0,0,0,0,1,0,0,0,0,0,0,0,0],"split_type":[0,0,0,0,0,0,0,0,0,0,0,0,0,0,0],"sum_hessian":[1.659E3,3.44E2,1.315E3,3.17E2,2.7E1,1.069E3,2.46E2,2.76E2,4.1E1,1.3E1,1.4E1,9.02E2,1.67E2,2.04E2,4.2E1],"tree_param":{"num_deleted":"0","num_feature":"2","num_nodes":"15","size_leaf_vector":"1"}},{"base_weights":[2.616111E-3,2.2091357E-2,-2.6622096E-3,1.0141385E-2,1.07043184E-1,-1.5037471E-2,1.3578393E-2,4.8889806E-3,-3.50014E-2,1.3898621E-2,-4.5670657E-3,2.1161772E-2,-7.029236E-4],"categories":[],"categories_nodes":[],"categories_segments":[],"categories_sizes":[],"default_left":[0,0,0,0,0,0,0,0,0,0,0,0,0],"id":50,"left_children":[1,3,5,7,-1,9,11,-1,-1,-1,-1,-1,-1],"loss_changes":[1.7834957E-1,1.750688E0,2.5270873E-1,6.6360605E-1,0E0,3.034526E-1,7.780455E-1,0E0,0E0,0E0,0E0,0E0,0E0],"parents":[2147483647,0,0,1,1,2,2,3,3,5,5,6,6],"right_children":[2,4,6,8,-1,10,12,-1,-1,-1,-1,-1,-1],"split_conditions":[5.2583332E1,5.065E1,4.7116666E2,3.1633333E1,1.07043184E-1,1.9E1,3.6933334E1,4.8889806E-3,-3.50014E-2,1.3898621E-2,-4.5670657E-3,2.1161772E-2,-7.029236E-4],"split_indices":[0,0,0,1,0,1,1,0,0,0,0,0,0],"split_type":[0,0,0,0,0,0,0,0,0,0,0,0,0],"sum_hessian":[1.62E3,3.69E2,1.251E3,3.62E2,7E0,7.31E2,5.2E2,3.42E2,2E1,4.2E1,6.89E2,9.3E1,4.27E2],"tree_param":{"num_deleted":"0","num_feature":"2","num_nodes":"13","size_leaf_vector":"1"}},{"base_weights":[1.5973437E-3,-1.4090222E-2,5.6754574E-3,-5.4795016E-3,-1.2434951E-1,3.9208853E-1,7.735652E-4,-4.817412E-3,3.5037488E-2,-0E0,-5.2758835E-2,-2.2069303E-2,2.3207368E-1,-9.343707E-3,9.820826E-4],"categories":[],"categories_nodes":[],"categories_segments":[],"categories_sizes":[],"default_left":[0,0,0,0,0,0,0,0,0,0,0,0,0,0,0],"id":51,"left_children":[1,3,5,7,9,11,13,-1,-1,-1,-1,-1,-1,-1,-1],"loss_changes":[9.892761E-2,2.1099186E-1,2.264264E0,7.0272315E-1,1.9721416E-1,5.5739765E0,1.8581389E-1,0E0,0E0,0E0,0E0,0E0,0E0,0E0,0E0],"parents":[2147483647,0,0,1,1,2,2,3,3,4,4,5,5,6,6],"right_children":[2,4,6,8,10,12,14,-1,-1,-1,-1,-1,-1,-1,-1],"split_conditions":[2.4916666E1,2.4583334E1,2.505E1,2.1938333E2,1.825E1,6.2833333E0,2.655E1,-4.817412E-3,3.5037488E-2,-0E0,-5.2758835E-2,-2.2069303E-2,2.3207368E-1,-9.343707E-3,9.820826E-4],"split_indices":[1,1,1,0,0,0,1,0,0,0,0,0,0,0,0],"split_type":[0,0,0,0,0,0,0,0,0,0,0,0,0,0,0],"sum_hessian":[1.623E3,3.04E2,1.319E3,2.88E2,1.6E1,1.4E1,1.305E3,2.66E2,2.2E1,9E0,7E0,8E0,6E0,8.9E1,1.216E3],"tree_param":{"num_deleted":"0","num_feature":"2","num_nodes":"15","size_leaf_vector":"1"}},{"base_weights":[-7.1642925E-3,-3.2579746E-2,-5.244403E-4,-1.0946532E-2,-1.7476624E-1,6.643668E-2,-3.3430133E-3,1.0623574E-3,-1.8604754E-2,-2.0601809E-2,-8.629873E-2,-0E0,4.0165428E-2,2.7879928E-3,-2.7818794E-3],"categories":[],"categories_nodes":[],"categories_segments":[],"categories_sizes":[],"default_left":[0,0,0,0,0,0,0,0,0,0,0,0,0,0,0],"id":52,"left_children":[1,3,5,7,9,11,13,-1,-1,-1,-1,-1,-1,-1,-1],"loss_changes":[2.5282827E-1,8.5865986E-1,2.0790988E-1,3.7228057E-1,3.4219205E-1,3.3910096E-1,1.8755586E-1,0E0,0E0,0E0,0E0,0E0,0E0,0E0,0E0],"parents":[2147483647,0,0,1,1,2,2,3,3,4,4,5,5,6,6],"right_children":[2,4,6,8,10,12,14,-1,-1,-1,-1,-1,-1,-1,-1],"split_conditions":[2.52E1,2.4583334E1,2.59E1,1.252E2,1.6543333E2,1.08183334E2,2.6551666E2,1.0623574E-3,-1.8604754E-2,-2.0601809E-2,-8.629873E-2,-0E0,4.0165428E-2,2.7879928E-3,-2.7818794E-3],"split_indices":[1,1,1,0,0,0,0,0,0,0,0,0,0,0,0],"split_type":[0,0,0,0,0,0,0,0,0,0,0,0,0,0,0],"sum_hessian":[1.615E3,3.15E2,1.3E3,2.78E2,3.7E1,4.3E1,1.257E3,2.23E2,5.5E1,3E1,7E0,2.8E1,1.5E1,4.38E2,8.19E2],"tree_param":{"num_deleted":"0","num_feature":"2","num_nodes":"15","size_leaf_vector":"1"}},{"base_weights":[-5.1384703E-3,-2.2265412E-2,-6.777174E-5,-2.94596E-2,4.041918E-2,3.0316602E-2,-3.6709108E-3,-3.886683E-3,-7.125307E-2,-2.9304156E-3,2.9003046E-2,-1.118377E-3,2.0038612E-2],"categories":[],"categories_nodes":[],"categories_segments":[],"categories_sizes":[],"default_left":[0,0,0,0,0,0,0,0,0,0,0,0,0],"id":53,"left_children":[1,3,5,7,-1,9,11,-1,-1,-1,-1,-1,-1],"loss_changes":[1.2841737E-1,4.255994E-1,1.25133E-1,9.628974E-1,0E0,6.000089E-1,1.0547106E-1,0E0,0E0,0E0,0E0,0E0,0E0],"parents":[2147483647,0,0,1,1,2,2,3,3,5,5,6,6],"right_children":[2,4,6,8,-1,10,12,-1,-1,-1,-1,-1,-1],"split_conditions":[2.5816668E1,3.8516666E2,2.7866667E1,3.406E2,4.041918E-2,1.1665E2,9.215833E2,-3.886683E-3,-7.125307E-2,-2.9304156E-3,2.9003046E-2,-1.118377E-3,2.0038612E-2],"split_indices":[1,0,1,0,0,0,0,0,0,0,0,0,0],"split_type":[0,0,0,0,0,0,0,0,0,0,0,0,0],"sum_hessian":[1.632E3,3.45E2,1.287E3,3.37E2,8E0,1.18E2,1.169E3,3.27E2,1E1,7.9E1,3.9E1,1.159E3,1E1],"tree_param":{"num_deleted":"0","num_feature":"2","num_nodes":"13","size_leaf_vector":"1"}},{"base_weights":[-3.9553578E-4,2.8002884E-2,-7.874749E-3,9.11445E-3,1.1108664E-1,-5.1036594E-3,-6.382015E-2,-0E0,1.902838E-2,-2.3556605E-3,3.1102009E-3,-3.3862837E-2,-0E0],"categories":[],"categories_nodes":[],"categories_segments":[],"categories_sizes":[],"default_left":[0,0,0,0,0,0,0,0,0,0,0,0,0],"id":54,"left_children":[1,3,5,7,-1,9,11,-1,-1,-1,-1,-1,-1],"loss_changes":[3.320157E-1,2.5787199E0,1.5970358E-1,2.5844133E-1,0E0,1.327658E-1,2.1873203E-1,0E0,0E0,0E0,0E0,0E0,0E0],"parents":[2147483647,0,0,1,1,2,2,3,3,5,5,6,6],"right_children":[2,4,6,8,-1,10,12,-1,-1,-1,-1,-1,-1],"split_conditions":[2.505E1,2.5E1,5.155E1,1.6543333E2,1.1108664E-1,6.46E2,7.7638336E2,-0E0,1.902838E-2,-2.3556605E-3,3.1102009E-3,-3.3862837E-2,-0E0],"split_indices":[1,1,1,0,0,0,0,0,0,0,0,0,0],"split_type":[0,0,0,0,0,0,0,0,0,0,0,0,0],"sum_hessian":[1.618E3,3.2E2,1.298E3,3.1E2,1E1,1.248E3,5E1,2.73E2,3.7E1,9.91E2,2.57E2,1.7E1,3.3E1],"tree_param":{"num_deleted":"0","num_feature":"2","num_nodes":"13","size_leaf_vector":"1"}},{"base_weights":[8.457008E-3,1.718463E-2,-3.9819228E-3,1.0608938E-2,8.106267E-2,-3.1411033E-2,2.256933E-2,-1.7383565E-4,7.0651313E-3,2.0877045E-2,-0E0,-4.271584E-3,-2.8326858E-2,5.2805144E-2,3.381882E-3],"categories":[],"categories_nodes":[],"categories_segments":[],"categories_sizes":[],"default_left":[0,0,0,0,0,0,0,0,0,0,0,0,0,0,0],"id":55,"left_children":[1,3,5,7,9,11,13,-1,-1,-1,-1,-1,-1,-1,-1],"loss_changes":[1.7821574E-1,3.431772E-1,4.5681763E-1,2.3233764E-1,1.4069128E-1,2.775748E-1,3.1884733E-1,0E0,0E0,0E0,0E0,0E0,0E0,0E0,0E0],"parents":[2147483647,0,0,1,1,2,2,3,3,4,4,5,5,6,6],"right_children":[2,4,6,8,10,12,14,-1,-1,-1,-1,-1,-1,-1,-1],"split_conditions":[4.0875E2,3.5666666E2,6.425833E2,2.9916666E1,4.2583332E1,4.7283333E1,3.0866667E1,-1.7383565E-4,7.0651313E-3,2.0877045E-2,-0E0,-4.271584E-3,-2.8326858E-2,5.2805144E-2,3.381882E-3],"split_indices":[0,0,0,1,1,1,1,0,0,0,0,0,0,0,0],"split_type":[0,0,0,0,0,0,0,0,0,0,0,0,0,0,0],"sum_hessian":[1.567E3,9.49E2,6.18E2,8.7E2,7.9E1,3.15E2,3.03E2,5.51E2,3.19E2,7.3E1,6E0,2.87E2,2.8E1,6E0,2.97E2],"tree_param":{"num_deleted":"0","num_feature":"2","num_nodes":"15","size_leaf_vector":"1"}},{"base_weights":[2.4658726E-3,1.9638918E-2,-1.6626924E-3,-3.0501635E-5,1.3601841E-1,-2.6305826E-2,6.62284E-3,1.07674E-3,-3.0871639E-2,-2.1876823E-2,6.2441003E-2,1.043262E-3,-9.803693E-3,5.5274345E-2,-0E0],"categories":[],"categories_nodes":[],"categories_segments":[],"categories_sizes":[],"default_left":[0,0,0,0,0,0,0,0,0,0,0,0,0,0,0],"id":56,"left_children":[1,3,5,7,9,11,13,-1,-1,-1,-1,-1,-1,-1,-1],"loss_changes":[1.2596005E-1,8.6676407E-1,2.737447E-1,2.8231293E-1,2.0181499E0,2.1739033E-1,1.5368085E0,0E0,0E0,0E0,0E0,0E0,0E0,0E0,0E0],"parents":[2147483647,0,0,1,1,2,2,3,3,4,4,5,5,6,6],"right_children":[2,4,6,8,10,12,14,-1,-1,-1,-1,-1,-1,-1,-1],"split_conditions":[2.5733334E1,2.4766666E1,3.1333334E1,2.9731668E2,6.9333334E0,4.715E1,5.2583332E1,1.07674E-3,-3.0871639E-2,-2.1876823E-2,6.2441003E-2,1.043262E-3,-9.803693E-3,5.5274345E-2,-0E0],"split_indices":[1,1,1,0,0,0,0,0,0,0,0,0,0,0,0],"split_type":[0,0,0,0,0,0,0,0,0,0,0,0,0,0,0],"sum_hessian":[1.623E3,3.42E2,1.281E3,2.89E2,5.3E1,3.4E2,9.41E2,2.76E2,1.3E1,1.9E1,3.4E1,1.14E2,2.26E2,2.4E1,9.17E2],"tree_param":{"num_deleted":"0","num_feature":"2","num_nodes":"15","size_leaf_vector":"1"}},{"base_weights":[-9.975052E-4,2.5620405E-2,-7.978159E-3,9.08747E-3,9.562826E-2,-1.3338433E-1,-3.9477884E-3,-1.1616402E-3,2.472291E-2,-0E0,-3.8671892E-2,-1.9809813E-3,5.800399E-3],"categories":[],"categories_nodes":[],"categories_segments":[],"categories_sizes":[],"default_left":[0,0,0,0,0,0,0,0,0,0,0,0,0],"id":57,"left_children":[1,3,5,7,-1,9,11,-1,-1,-1,-1,-1,-1],"loss_changes":[2.9156095E-1,1.8939066E0,5.7717013E-1,5.248995E-1,0E0,2.555834E-1,1.8464494E-1,0E0,0E0,0E0,0E0,0E0,0E0],"parents":[2147483647,0,0,1,1,2,2,3,3,5,5,6,6],"right_children":[2,4,6,8,-1,10,12,-1,-1,-1,-1,-1,-1],"split_conditions":[2.505E1,2.5E1,2.5816668E1,1.6543333E2,9.562826E-2,5.6666665E0,4.6566666E1,-1.1616402E-3,2.472291E-2,-0E0,-3.8671892E-2,-1.9809813E-3,5.800399E-3],"split_indices":[1,1,1,0,0,0,1,0,0,0,0,0,0],"split_type":[0,0,0,0,0,0,0,0,0,0,0,0,0],"sum_hessian":[1.624E3,3.19E2,1.305E3,3.09E2,1E1,3.5E1,1.27E3,2.67E2,4.2E1,7E0,2.8E1,1.106E3,1.64E2],"tree_param":{"num_deleted":"0","num_feature":"2","num_nodes":"13","size_leaf_vector":"1"}},{"base_weights":[2.8598527E-4,3.2060486E-3,-2.7457356E-2,2.5781506E-4,4.2015553E-2,6.5115425E-3,-8.378198E-2,2.1454333E-3,-1.8385295E-3,2.2985362E-2,-0E0,-1.6274748E-2,1.301993E-2,-3.1126479E-2,-1.9926364E-3],"categories":[],"categories_nodes":[],"categories_segments":[],"categories_sizes":[],"default_left":[0,0,0,0,0,0,0,0,0,0,0,0,0,0,0],"id":58,"left_children":[1,3,5,7,9,11,13,-1,-1,-1,-1,-1,-1,-1,-1],"loss_changes":[1.135367E-1,1.4053339E-1,2.975482E-1,1.1239819E-1,2.5945514E-1,3.176867E-1,1.4985201E-1,0E0,0E0,0E0,0E0,0E0,0E0,0E0,0E0],"parents":[2147483647,0,0,1,1,2,2,3,3,4,4,5,5,6,6],"right_children":[2,4,6,8,10,12,14,-1,-1,-1,-1,-1,-1,-1,-1],"split_conditions":[4.7616665E1,4.5366665E1,7.6355E2,3.185E1,4.62E1,6.5406665E2,5.185E1,2.1454333E-3,-1.8385295E-3,2.2985362E-2,-0E0,-1.6274748E-2,1.301993E-2,-3.1126479E-2,-1.9926364E-3],"split_indices":[1,1,0,1,1,0,1,0,0,0,0,0,0,0,0],"split_type":[0,0,0,0,0,0,0,0,0,0,0,0,0,0,0],"sum_hessian":[1.579E3,1.449E3,1.3E2,1.362E3,8.7E1,7.5E1,5.5E1,6.81E2,6.81E2,3.7E1,5E1,2.5E1,5E1,2.6E1,2.9E1],"tree_param":{"num_deleted":"0","num_feature":"2","num_nodes":"15","size_leaf_vector":"1"}},{"base_weights":[2.025885E-3,2.20277E-2,-5.791328E-3,-2.8705997E-3,4.6454933E-2,-8.320779E-2,4.0820273E-4,2.1630859E-3,-1.600244E-2,2.4813535E-2,3.5485828E-3,-7.08208E-3,-6.2925346E-2,6.131853E-3,-7.8212575E-4],"categories":[],"categories_nodes":[],"categories_segments":[],"categories_sizes":[],"default_left":[0,0,0,0,0,0,0,0,0,0,0,0,0,0,0],"id":59,"left_children":[1,3,5,7,9,11,13,-1,-1,-1,-1,-1,-1,-1,-1],"loss_changes":[2.631701E-1,3.1639373E-1,5.9877163E-1,2.3815016E-1,4.29758E-1,7.5178653E-1,1.2930624E-1,0E0,0E0,0E0,0E0,0E0,0E0,0E0,0E0],"parents":[2147483647,0,0,1,1,2,2,3,3,4,4,5,5,6,6],"right_children":[2,4,6,8,10,12,14,-1,-1,-1,-1,-1,-1,-1,-1],"split_conditions":[2.8183332E1,2.3066668E1,6.04E1,1.223E2,2.505E1,5.065E1,3.1716667E1,2.1630859E-3,-1.600244E-2,2.4813535E-2,3.5485828E-3,-7.08208E-3,-6.2925346E-2,6.131853E-3,-7.8212575E-4],"split_indices":[1,1,0,0,1,0,1,0,0,0,0,0,0,0,0],"split_type":[0,0,0,0,0,0,0,0,0,0,0,0,0,0,0],"sum_hessian":[1.619E3,4.76E2,1.143E3,2.24E2,2.52E2,9.1E1,1.052E3,1.83E2,4.1E1,7.2E1,1.8E2,7.6E1,1.5E1,1.51E2,9.01E2],"tree_param":{"num_deleted":"0","num_feature":"2","num_nodes":"15","size_leaf_vector":"1"}},{"base_weights":[3.0729894E-3,-3.902539E-3,2.2434613E-2,4.5264834E-3,-1.9394547E-2,6.69406E-2,-0E0,-6.2464224E-4,1.7090563E-2,-7.801586E-3,6.7215743E-3,1.0773873E-2,5.5792347E-2,-1.0449557E-2,6.070195E-3],"categories":[],"categories_nodes":[],"categories_segments":[],"categories_sizes":[],"default_left":[0,0,0,0,0,0,0,0,0,0,0,0,0,0,0],"id":60,"left_children":[1,3,5,7,9,11,13,-1,-1,-1,-1,-1,-1,-1,-1],"loss_changes":[2.3459199E-1,1.6492411E-1,4.4012976E-1,4.4873676E-1,3.6194897E-1,3.0913746E-1,4.0420657E-1,0E0,0E0,0E0,0E0,0E0,0E0,0E0,0E0],"parents":[2147483647,0,0,1,1,2,2,3,3,4,4,5,5,6,6],"right_children":[2,4,6,8,10,12,14,-1,-1,-1,-1,-1,-1,-1,-1],"split_conditions":[4.0083332E1,2.4066667E2,5.487167E2,1.8001666E2,5.686667E2,5.3148334E2,4.475E1,-6.2464224E-4,1.7090563E-2,-7.801586E-3,6.7215743E-3,1.0773873E-2,5.5792347E-2,-1.0449557E-2,6.070195E-3],"split_indices":[1,0,0,0,0,0,1,0,0,0,0,0,0,0,0],"split_type":[0,0,0,0,0,0,0,0,0,0,0,0,0,0,0],"sum_hessian":[1.653E3,1.193E3,4.6E2,7.48E2,4.45E2,1.49E2,3.11E2,6.73E2,7.5E1,3.46E2,9.9E1,1.4E2,9E0,1.1E2,2.01E2],"tree_param":{"num_deleted":"0","num_feature":"2","num_nodes":"15","size_leaf_vector":"1"}},{"base_weights":[-3.90123E-3,-1.929854E-2,5.0720493E-3,2.513107E-3,-4.2050537E-2,1.3810587E-1,1.6632256E-4,-3.8651414E-3,7.931072E-3,-3.680653E-2,-5.4414533E-3,-0E0,4.0130127E-2,-3.924913E-2,1.5254511E-3],"categories":[],"categories_nodes":[],"categories_segments":[],"categories_sizes":[],"default_left":[0,0,0,0,0,0,0,0,0,0,0,0,0,0,0],"id":61,"left_children":[1,3,5,7,9,11,13,-1,-1,-1,-1,-1,-1,-1,-1],"loss_changes":[2.3121656E-1,3.3051595E-1,5.657255E-1,2.1579039E-1,5.660265E-1,1.7401546E-1,1.0633391E0,0E0,0E0,0E0,0E0,0E0,0E0,0E0,0E0],"parents":[2147483647,0,0,1,1,2,2,3,3,4,4,5,5,6,6],"right_children":[2,4,6,8,10,12,14,-1,-1,-1,-1,-1,-1,-1,-1],"split_conditions":[1.8001666E2,4.3516666E1,2.43E1,1.0933333E1,5.2583332E1,2.1938333E2,2.655E1,-3.8651414E-3,7.931072E-3,-3.680653E-2,-5.4414533E-3,-0E0,4.0130127E-2,-3.924913E-2,1.5254511E-3],"split_indices":[0,0,1,0,0,0,1,0,0,0,0,0,0,0,0],"split_type":[0,0,0,0,0,0,0,0,0,0,0,0,0,0,0],"sum_hessian":[1.61E3,6.17E2,9.93E2,3.02E2,3.15E2,3E1,9.63E2,1.78E2,1.24E2,3.3E1,2.82E2,8E0,2.2E1,3.1E1,9.32E2],"tree_param":{"num_deleted":"0","num_feature":"2","num_nodes":"15","size_leaf_vector":"1"}},{"base_weights":[-8.833041E-3,-3.7899755E-2,3.5527116E-4,-2.1399776E-2,-1.2102222E-1,8.461131E-2,-2.9016163E-3,-2.637427E-3,-2.9551804E-2,-9.038334E-2,-1.0087044E-2,-5.421204E-3,3.0766306E-2,-2.0011488E-2,2.756748E-4],"categories":[],"categories_nodes":[],"categories_segments":[],"categories_sizes":[],"default_left":[0,0,0,0,0,0,0,0,0,0,0,0,0,0,0],"id":62,"left_children":[1,3,5,7,9,11,13,-1,-1,-1,-1,-1,-1,-1,-1],"loss_changes":[4.632123E-1,4.770227E-1,3.8926834E-1,2.8364554E-1,1.0578656E0,3.9240584E-1,4.882149E-1,0E0,0E0,0E0,0E0,0E0,0E0,0E0,0E0],"parents":[2147483647,0,0,1,1,2,2,3,3,4,4,5,5,6,6],"right_children":[2,4,6,8,10,12,14,-1,-1,-1,-1,-1,-1,-1,-1],"split_conditions":[7.3816666E1,4.94E1,2.21E1,3.14E1,5.2583332E1,1.5933333E1,2.52E1,-2.637427E-3,-2.9551804E-2,-9.038334E-2,-1.0087044E-2,-5.421204E-3,3.0766306E-2,-2.0011488E-2,2.756748E-4],"split_indices":[0,0,1,1,0,1,1,0,0,0,0,0,0,0,0],"split_type":[0,0,0,0,0,0,0,0,0,0,0,0,0,0,0],"sum_hessian":[1.649E3,4.11E2,1.238E3,3.5E2,6.1E1,5.2E1,1.186E3,3.29E2,2.1E1,1E1,5.1E1,1.4E1,3.8E1,5.9E1,1.127E3],"tree_param":{"num_deleted":"0","num_feature":"2","num_nodes":"15","size_leaf_vector":"1"}},{"base_weights":[3.17889E-3,-0E0,6.899987E-2,3.7038259E-3,-7.9897925E-2,1.0085258E-1,-0E0,2.426765E-4,1.9424088E-2,-4.017213E-2,-4.299591E-3,-0E0,2.8682627E-2,-2.1374933E-3,-0E0],"categories":[],"categories_nodes":[],"categories_segments":[],"categories_sizes":[],"default_left":[0,0,0,0,0,0,0,0,0,0,0,0,0,0,0],"id":63,"left_children":[1,3,5,7,9,11,13,-1,-1,-1,-1,-1,-1,-1,-1],"loss_changes":[3.3162564E-1,4.4743347E-1,1.9152418E-1,2.6261297E-1,2.9044768E-1,1.4083588E-1,9.439831E-4,0E0,0E0,0E0,0E0,0E0,0E0,0E0,0E0],"parents":[2147483647,0,0,1,1,2,2,3,3,4,4,5,5,6,6],"right_children":[2,4,6,8,10,12,14,-1,-1,-1,-1,-1,-1,-1,-1],"split_conditions":[4.9933334E1,4.7466667E1,5.3983334E1,4.6566666E1,4.8066666E1,6.796E2,8.272E2,2.426765E-4,1.9424088E-2,-4.017213E-2,-4.299591E-3,-0E0,2.8682627E-2,-2.1374933E-3,-0E0],"split_indices":[1,1,1,1,1,0,0,0,0,0,0,0,0,0,0],"split_type":[0,0,0,0,0,0,0,0,0,0,0,0,0,0,0],"sum_hessian":[1.575E3,1.503E3,7.2E1,1.437E3,6.6E1,5.2E1,2E1,1.402E3,3.5E1,2E1,4.6E1,1.3E1,3.9E1,9E0,1.1E1],"tree_param":{"num_deleted":"0","num_feature":"2","num_nodes":"15","size_leaf_vector":"1"}},{"base_weights":[6.407034E-3,2.5902625E-2,2.2654158E-4,8.930747E-3,4.3469143E-1,-5.51232E-2,3.151655E-3,-2.6660005E-3,6.9792396E-3,-0E0,1.828939E-1,-0E0,-6.883289E-2,1.8035969E-2,6.113821E-6],"categories":[],"categories_nodes":[],"categories_segments":[],"categories_sizes":[],"default_left":[0,0,0,0,0,0,0,0,0,0,0,0,0,0,0],"id":64,"left_children":[1,3,5,7,9,11,13,-1,-1,-1,-1,-1,-1,-1,-1],"loss_changes":[1.7722489E-1,2.2414691E0,1.6975209E-1,1.8006724E-1,2.3813996E0,8.2091326E-1,2.4358843E-1,0E0,0E0,0E0,0E0,0E0,0E0,0E0,0E0],"parents":[2147483647,0,0,1,1,2,2,3,3,4,4,5,5,6,6],"right_children":[2,4,6,8,10,12,14,-1,-1,-1,-1,-1,-1,-1,-1],"split_conditions":[5.2583332E1,4.94E1,2.125E1,6.9333334E0,2.7E1,1.406E2,2.33E1,-2.6660005E-3,6.9792396E-3,-0E0,1.828939E-1,-0E0,-6.883289E-2,1.8035969E-2,6.113821E-6],"split_indices":[0,0,1,0,1,0,1,0,0,0,0,0,0,0,0],"split_type":[0,0,0,0,0,0,0,0,0,0,0,0,0,0,0],"sum_hessian":[1.6E3,3.61E2,1.239E3,3.49E2,1.2E1,5.1E1,1.188E3,1.68E2,1.81E2,6E0,6E0,4.2E1,9E0,3.7E1,1.151E3],"tree_param":{"num_deleted":"0","num_feature":"2","num_nodes":"15","size_leaf_vector":"1"}},{"base_weights":[2.590576E-3,4.1634985E-3,-3.7977144E-2,2.8543237E-3,1.9798385E-2,-2.01904E-2,-0E0,1.2324123E-3,-4.3584933E-3,1.3515708E-3,-3.4083924E-3],"categories":[],"categories_nodes":[],"categories_segments":[],"categories_sizes":[],"default_left":[0,0,0,0,0,0,0,0,0,0,0],"id":65,"left_children":[1,3,5,7,-1,-1,9,-1,-1,-1,-1],"loss_changes":[8.43905E-2,1.2292059E-1,6.697469E-2,8.973077E-2,0E0,0E0,6.1002485E-3,0E0,0E0,0E0,0E0],"parents":[2147483647,0,0,1,1,2,2,3,3,6,6],"right_children":[2,4,6,8,-1,-1,10,-1,-1,-1,-1],"split_conditions":[5.155E1,8.466E2,5.2866665E1,7.1761664E2,1.9798385E-2,-2.01904E-2,5.3983334E1,1.2324123E-3,-4.3584933E-3,1.3515708E-3,-3.4083924E-3],"split_indices":[1,0,1,0,0,0,1,0,0,0,0],"split_type":[0,0,0,0,0,0,0,0,0,0,0],"sum_hessian":[1.637E3,1.591E3,4.6E1,1.575E3,1.6E1,1.5E1,3.1E1,1.429E3,1.46E2,8E0,2.3E1],"tree_param":{"num_deleted":"0","num_feature":"2","num_nodes":"11","size_leaf_vector":"1"}},{"base_weights":[-6.4569525E-3,-3.2058895E-2,-3.9831424E-4,-0E0,-4.2466044E-2,5.9413847E-2,-5.6742085E-3,1.4463353E-3,-0E0,-1.3971907E-2,-4.478754E-3,-1.662398E-3,2.2580521E-1,1.9413772E-3,-2.1350372E-3],"categories":[],"categories_nodes":[],"categories_segments":[],"categories_sizes":[],"default_left":[0,0,0,0,0,0,0,0,0,0,0,0,0,0,0],"id":66,"left_children":[1,3,5,7,9,11,13,-1,-1,-1,-1,-1,-1,-1,-1],"loss_changes":[2.325714E-1,1.2007439E-1,3.8905388E-1,1.4695068E-3,5.678147E-2,7.030137E0,7.284181E-2,0E0,0E0,0E0,0E0,0E0,0E0,0E0,0E0],"parents":[2147483647,0,0,1,1,2,2,3,3,4,4,5,5,6,6],"right_children":[2,4,6,8,10,12,14,-1,-1,-1,-1,-1,-1,-1,-1],"split_conditions":[3.0083334E1,1.775E1,6.04E1,1.5933333E1,2.52E1,3.1716667E1,1.543E2,1.4463353E-3,-0E0,-1.3971907E-2,-4.478754E-3,-1.662398E-3,2.2580521E-1,1.9413772E-3,-2.1350372E-3],"split_indices":[0,1,0,1,1,1,0,0,0,0,0,0,0,0,0],"split_type":[0,0,0,0,0,0,0,0,0,0,0,0,0,0,0],"sum_hessian":[1.624E3,2.91E2,1.333E3,5.9E1,2.32E2,9.8E1,1.235E3,3.3E1,2.6E1,1.04E2,1.28E2,9.2E1,6E0,2.36E2,9.99E2],"tree_param":{"num_deleted":"0","num_feature":"2","num_nodes":"15","size_leaf_vector":"1"}},{"base_weights":[-7.4037043E-3,-5.649074E-4,-3.1195281E-2,-3.6233016E-3,7.655056E-2,9.814138E-3,-3.884187E-2,-4.2368073E-4,-2.2840386E-2,3.3898026E-2,2.3877418E-3,-4.649812E-3,1.186686E-2,-1.2766745E-2,-7.303224E-4],"categories":[],"categories_nodes":[],"categories_segments":[],"categories_sizes":[],"default_left":[0,0,0,0,0,0,0,0,0,0,0,0,0,0,0],"id":67,"left_children":[1,3,5,7,9,11,13,-1,-1,-1,-1,-1,-1,-1,-1],"loss_changes":[2.4808913E-1,2.6218197E-1,1.2661088E-1,1.4980526E-1,1.1329746E-1,7.954751E-2,1.7089376E-1,0E0,0E0,0E0,0E0,0E0,0E0,0E0,0E0],"parents":[2147483647,0,0,1,1,2,2,3,3,4,4,5,5,6,6],"right_children":[2,4,6,8,10,12,14,-1,-1,-1,-1,-1,-1,-1,-1],"split_conditions":[6.1705E2,5.910333E2,3.7533333E1,5.8113336E2,3.9183334E1,3.3966667E1,4.7866665E1,-4.2368073E-4,-2.2840386E-2,3.3898026E-2,2.3877418E-3,-4.649812E-3,1.186686E-2,-1.2766745E-2,-7.303224E-4],"split_indices":[0,0,1,0,1,1,1,0,0,0,0,0,0,0,0],"split_type":[0,0,0,0,0,0,0,0,0,0,0,0,0,0,0],"sum_hessian":[1.641E3,1.295E3,3.46E2,1.254E3,4.1E1,4.2E1,3.04E2,1.24E3,1.4E1,1.4E1,2.7E1,1.7E1,2.5E1,1.86E2,1.18E2],"tree_param":{"num_deleted":"0","num_feature":"2","num_nodes":"15","size_leaf_vector":"1"}},{"base_weights":[-4.2050816E-3,-8.745813E-3,2.8954515E-2,1.794548E-2,-1.3676024E-2,1.260691E-1,7.005448E-4,-1.4284742E-3,1.77391E-1,-7.913729E-3,-1.2560631E-3,-0E0,5.6431107E-2,-3.1294584E-2,4.189038E-3],"categories":[],"categories_nodes":[],"categories_segments":[],"categories_sizes":[],"default_left":[0,0,0,0,0,0,0,0,0,0,0,0,0,0,0],"id":68,"left_children":[1,3,5,7,9,11,13,-1,-1,-1,-1,-1,-1,-1,-1],"loss_changes":[2.340069E-1,1.888894E-1,4.2049086E-1,4.4926267E0,1.9610077E-1,6.779387E-1,3.115606E-1,0E0,0E0,0E0,0E0,0E0,0E0,0E0,0E0],"parents":[2147483647,0,0,1,1,2,2,3,3,4,4,5,5,6,6],"right_children":[2,4,6,8,10,12,14,-1,-1,-1,-1,-1,-1,-1,-1],"split_conditions":[4.6566666E1,1.175E1,4.7466667E1,1.0933333E1,1.08183334E2,6.3376666E2,4.7866665E1,-1.4284742E-3,1.77391E-1,-7.913729E-3,-1.2560631E-3,-0E0,5.6431107E-2,-3.1294584E-2,4.189038E-3],"split_indices":[1,0,1,0,0,0,1,0,0,0,0,0,0,0,0],"split_type":[0,0,0,0,0,0,0,0,0,0,0,0,0,0,0],"sum_hessian":[1.632E3,1.452E3,1.8E2,2.07E2,1.245E3,3.5E1,1.45E2,2.01E2,6E0,3.07E2,9.38E2,1.7E1,1.8E1,1.2E1,1.33E2],"tree_param":{"num_deleted":"0","num_feature":"2","num_nodes":"15","size_leaf_vector":"1"}},{"base_weights":[-5.2609644E-4,2.4831016E-2,-4.5186984E-3,-2.6597066E-3,1.2088113E-1,-2.8095856E-2,-1.4013836E-4,2.125053E-3,-6.8520396E-3,-6.864636E-4,-4.669782E-2,4.9530803E-3,-1.9197327E-3],"categories":[],"categories_nodes":[],"categories_segments":[],"categories_sizes":[],"default_left":[0,0,0,0,0,0,0,0,0,0,0,0,0],"id":69,"left_children":[1,3,5,7,-1,9,11,-1,-1,-1,-1,-1,-1],"loss_changes":[1.5112507E-1,3.1996033E0,1.2902734E-1,7.951636E-2,0E0,7.900427E-1,2.2824924E-1,0E0,0E0,0E0,0E0,0E0,0E0],"parents":[2147483647,0,0,1,1,2,2,3,3,5,5,6,6],"right_children":[2,4,6,8,-1,10,12,-1,-1,-1,-1,-1,-1],"split_conditions":[1.175E1,9.966666E0,2.52E1,2.5E1,1.2088113E-1,2.4683332E1,3.185E1,2.125053E-3,-6.8520396E-3,-6.864636E-4,-4.669782E-2,4.9530803E-3,-1.9197327E-3],"split_indices":[0,0,1,1,0,1,1,0,0,0,0,0,0],"split_type":[0,0,0,0,0,0,0,0,0,0,0,0,0],"sum_hessian":[1.611E3,1.98E2,1.413E3,1.88E2,1E1,1.99E2,1.214E3,1.17E2,7.1E1,1.79E2,2E1,3.14E2,9E2],"tree_param":{"num_deleted":"0","num_feature":"2","num_nodes":"13","size_leaf_vector":"1"}},{"base_weights":[8.3686765E-3,-2.9653069E-2,1.8157767E-2,-1.9940175E-2,-1.3981278E-1,1.0578674E-1,1.4280912E-2,-0E0,-8.748067E-3,-5.1800333E-2,-7.109455E-3,-0E0,3.1500828E-2,4.2785713E-3,-2.5935085E-3],"categories":[],"categories_nodes":[],"categories_segments":[],"categories_sizes":[],"default_left":[0,0,0,0,0,0,0,0,0,0,0,0,0,0,0],"id":70,"left_children":[1,3,5,7,9,11,13,-1,-1,-1,-1,-1,-1,-1,-1],"loss_changes":[6.0292995E-1,2.4696052E-1,3.73187E-1,1.1828081E-1,4.7636837E-2,1.897251E-1,1.754964E-1,0E0,0E0,0E0,0E0,0E0,0E0,0E0,0E0],"parents":[2147483647,0,0,1,1,2,2,3,3,4,4,5,5,6,6],"right_children":[2,4,6,8,10,12,14,-1,-1,-1,-1,-1,-1,-1,-1],"split_conditions":[3.9983334E1,3.1516666E1,1.9E1,5.6666665E0,3.195E1,1.5E1,7.2138336E2,-0E0,-8.748067E-3,-5.1800333E-2,-7.109455E-3,-0E0,3.1500828E-2,4.2785713E-3,-2.5935085E-3],"split_indices":[0,1,1,0,1,1,0,0,0,0,0,0,0,0,0],"split_type":[0,0,0,0,0,0,0,0,0,0,0,0,0,0,0],"sum_hessian":[1.636E3,3.22E2,1.314E3,3.02E2,2E1,4.8E1,1.266E3,1.52E2,1.5E2,7E0,1.3E1,1.3E1,3.5E1,1.076E3,1.9E2],"tree_param":{"num_deleted":"0","num_feature":"2","num_nodes":"15","size_leaf_vector":"1"}},{"base_weights":[-0E0,-4.2873784E-3,1.1023561E-2,5.2231415E-3,-2.1203589E-2,3.742842E-2,-8.96966E-3,-3.4794863E-4,2.5862925E-2,-6.807954E-2,-2.8026754E-3,1.3614485E-2,-7.592663E-4,-3.1037474E-2,-0E0],"categories":[],"categories_nodes":[],"categories_segments":[],"categories_sizes":[],"default_left":[0,0,0,0,0,0,0,0,0,0,0,0,0,0,0],"id":71,"left_children":[1,3,5,7,9,11,13,-1,-1,-1,-1,-1,-1,-1,-1],"loss_changes":[7.520561E-2,2.042053E-1,2.4758327E-1,6.446109E-1,9.2016315E-1,2.3622024E-1,3.193705E-1,0E0,0E0,0E0,0E0,0E0,0E0,0E0,0E0],"parents":[2147483647,0,0,1,1,2,2,3,3,4,4,5,5,6,6],"right_children":[2,4,6,8,10,12,14,-1,-1,-1,-1,-1,-1,-1,-1],"split_conditions":[4.085E1,3.25E1,6.288333E2,3.1516666E1,5.2583332E1,4.4866665E1,6.46E2,-3.4794863E-4,2.5862925E-2,-6.807954E-2,-2.8026754E-3,1.3614485E-2,-7.592663E-4,-3.1037474E-2,-0E0],"split_indices":[1,1,0,1,0,1,0,0,0,0,0,0,0,0,0],"split_type":[0,0,0,0,0,0,0,0,0,0,0,0,0,0,0],"sum_hessian":[1.643E3,1.208E3,4.35E2,7.51E2,4.57E2,2E2,2.35E2,7.04E2,4.7E1,1E1,4.47E2,1.34E2,6.6E1,1.6E1,2.19E2],"tree_param":{"num_deleted":"0","num_feature":"2","num_nodes":"15","size_leaf_vector":"1"}},{"base_weights":[2.342292E-3,6.4420155E-3,-2.3620287E-2,4.9243146E-3,3.1662606E-2,-1.08179085E-1,-5.633002E-3,7.1515184E-4,2.1897841E-2,-2.7433006E-2,-0E0,1.6687564E-3,-1.5383666E-2],"categories":[],"categories_nodes":[],"categories_segments":[],"categories_sizes":[],"default_left":[0,0,0,0,0,0,0,0,0,0,0,0,0],"id":72,"left_children":[1,3,5,7,-1,9,11,-1,-1,-1,-1,-1,-1],"loss_changes":[1.6057397E-1,2.033486E-1,2.3377904E-1,1.5905264E-1,0E0,1.8247426E-2,1.8325706E-1,0E0,0E0,0E0,0E0,0E0,0E0],"parents":[2147483647,0,0,1,1,2,2,3,3,5,5,6,6],"right_children":[2,4,6,8,-1,10,12,-1,-1,-1,-1,-1,-1],"split_conditions":[4.62E1,4.585E1,4.68E1,8.272E2,3.1662606E-2,7.3915E2,8.078333E2,7.1515184E-4,2.1897841E-2,-2.7433006E-2,-0E0,1.6687564E-3,-1.5383666E-2],"split_indices":[1,1,1,0,0,0,0,0,0,0,0,0,0],"split_type":[0,0,0,0,0,0,0,0,0,0,0,0,0],"sum_hessian":[1.603E3,1.405E3,1.98E2,1.395E3,1E1,2.8E1,1.7E2,1.378E3,1.7E1,2.2E1,6E0,1.34E2,3.6E1],"tree_param":{"num_deleted":"0","num_feature":"2","num_nodes":"13","size_leaf_vector":"1"}},{"base_weights":[-0E0,2.3160668E-2,-6.527807E-3,-1.5064308E-3,8.7945774E-2,-3.2353394E-2,9.969701E-3,4.0438897E-3,-2.2316681E-2,-1.1467117E-2,3.8744874E-2,-9.580984E-3,1.7063126E-2,1.1051062E-2,1.3460476E-3],"categories":[],"categories_nodes":[],"categories_segments":[],"categories_sizes":[],"default_left":[0,0,0,0,0,0,0,0,0,0,0,0,0,0,0],"id":73,"left_children":[1,3,5,7,9,11,13,-1,-1,-1,-1,-1,-1,-1,-1],"loss_changes":[2.3107487E-1,5.809542E-1,5.4888135E-1,5.167611E-1,1.2938251E0,6.032171E-1,8.2644545E-2,0E0,0E0,0E0,0E0,0E0,0E0,0E0,0E0],"parents":[2147483647,0,0,1,1,2,2,3,3,4,4,5,5,6,6],"right_children":[2,4,6,8,10,12,14,-1,-1,-1,-1,-1,-1,-1,-1],"split_conditions":[2.535E1,2.2866667E1,3.4216667E1,1.2878334E2,7.8E0,5.0611667E2,3.51E1,4.0438897E-3,-2.2316681E-2,-1.1467117E-2,3.8744874E-2,-9.580984E-3,1.7063126E-2,1.1051062E-2,1.3460476E-3],"split_indices":[1,1,1,0,0,0,1,0,0,0,0,0,0,0,0],"split_type":[0,0,0,0,0,0,0,0,0,0,0,0,0,0,0],"sum_hessian":[1.585E3,3.3E2,1.255E3,2.33E2,9.7E1,5.03E2,7.52E2,1.9E2,4.3E1,3.5E1,6.2E1,4.62E2,4.1E1,5.1E1,7.01E2],"tree_param":{"num_deleted":"0","num_feature":"2","num_nodes":"15","size_leaf_vector":"1"}},{"base_weights":[-5.047576E-3,-7.998267E-3,3.3096943E-2,-6.9708824E-3,-3.2796264E-2,-7.956091E-3,6.230855E-2,-5.407074E-3,-4.4103595E-4,-1.1741188E-2,1.5594632E-3,1.5128811E-2,-0E0],"categories":[],"categories_nodes":[],"categories_segments":[],"categories_sizes":[],"default_left":[0,0,0,0,0,0,0,0,0,0,0,0,0],"id":74,"left_children":[1,3,5,7,-1,9,11,-1,-1,-1,-1,-1,-1],"loss_changes":[1.7238063E-1,1.3129371E-1,1.5902585E-1,1.19792625E-1,0E0,5.274249E-2,2.1429688E-2,0E0,0E0,0E0,0E0,0E0,0E0],"parents":[2147483647,0,0,1,1,2,2,3,3,5,5,6,6],"right_children":[2,4,6,8,-1,10,12,-1,-1,-1,-1,-1,-1],"split_conditions":[7.936E2,7.864667E2,4.36E1,2.52E1,-3.2796264E-2,8.3195E2,5.6183334E1,-5.407074E-3,-4.4103595E-4,-1.1741188E-2,1.5594632E-3,1.5128811E-2,-0E0],"split_indices":[0,0,1,1,0,0,1,0,0,0,0,0,0],"split_type":[0,0,0,0,0,0,0,0,0,0,0,0,0],"sum_hessian":[1.662E3,1.558E3,1.04E2,1.552E3,6E0,3.5E1,6.9E1,3.14E2,1.238E3,1.8E1,1.7E1,6.1E1,8E0],"tree_param":{"num_deleted":"0","num_feature":"2","num_nodes":"13","size_leaf_vector":"1"}},{"base_weights":[-2.705402E-3,1.3796634E-2,-1.6167788E-2,9.553075E-3,5.4695826E-2,-1.7737368E-1,-1.1862535E-2,6.944508E-4,2.1415157E-2,-0E0,-7.9170585E-2,-4.043804E-3,2.5176717E-4],"categories":[],"categories_nodes":[],"categories_segments":[],"categories_sizes":[],"default_left":[0,0,0,0,0,0,0,0,0,0,0,0,0],"id":75,"left_children":[1,3,5,7,-1,9,11,-1,-1,-1,-1,-1,-1],"loss_changes":[3.6087322E-1,5.4723096E-1,5.166174E-1,3.313471E-1,0E0,5.3630537E-1,8.599053E-2,0E0,0E0,0E0,0E0,0E0,0E0],"parents":[2147483647,0,0,1,1,2,2,3,3,5,5,6,6],"right_children":[2,4,6,8,-1,10,12,-1,-1,-1,-1,-1,-1],"split_conditions":[3.185E1,3.1716667E1,6.04E1,4.1523334E2,5.4695826E-2,3.2633335E1,6.7125E2,6.944508E-4,2.1415157E-2,-0E0,-7.9170585E-2,-4.043804E-3,2.5176717E-4],"split_indices":[1,1,0,0,0,0,0,0,0,0,0,0,0],"split_type":[0,0,0,0,0,0,0,0,0,0,0,0,0],"sum_hessian":[1.616E3,7.06E2,9.1E2,6.97E2,9E0,1.9E1,8.91E2,6.57E2,4E1,1.1E1,8E0,6.24E2,2.67E2],"tree_param":{"num_deleted":"0","num_feature":"2","num_nodes":"13","size_leaf_vector":"1"}},{"base_weights":[7.108597E-4,1.8252678E-2,-3.5519612E-3,8.778794E-3,7.481287E-2,-2.7200717E-2,2.9208353E-3,4.5219245E-3,-2.6542692E-2,-1.4559936E-2,2.7857473E-4,9.432634E-3,-5.1971927E-4],"categories":[],"categories_nodes":[],"categories_segments":[],"categories_sizes":[],"default_left":[0,0,0,0,0,0,0,0,0,0,0,0,0],"id":76,"left_children":[1,3,5,7,-1,9,11,-1,-1,-1,-1,-1,-1],"loss_changes":[1.2987547E-1,8.3648264E-1,2.0981619E-1,4.5603162E-1,0E0,3.652746E-1,2.3169853E-1,0E0,0E0,0E0,0E0,0E0,0E0],"parents":[2147483647,0,0,1,1,2,2,3,3,5,5,6,6],"right_children":[2,4,6,8,-1,10,12,-1,-1,-1,-1,-1,-1],"split_conditions":[5.2583332E1,5.065E1,1.909E2,3.1516666E1,7.481287E-2,2.7683332E1,3.0566668E1,4.5219245E-3,-2.6542692E-2,-1.4559936E-2,2.7857473E-4,9.432634E-3,-5.1971927E-4],"split_indices":[0,0,0,1,0,1,1,0,0,0,0,0,0],"split_type":[0,0,0,0,0,0,0,0,0,0,0,0,0],"sum_hessian":[1.617E3,3.43E2,1.274E3,3.36E2,7E0,2.93E2,9.81E2,3.13E2,2.3E1,1.32E2,1.61E2,1.27E2,8.54E2],"tree_param":{"num_deleted":"0","num_feature":"2","num_nodes":"13","size_leaf_vector":"1"}},{"base_weights":[-2.6421158E-3,2.5672983E-2,-7.02639E-3,3.4342788E-3,1.20178744E-1,3.198663E-2,-9.434298E-3,-6.814876E-4,4.91565E-3,-0E0,3.1224761E-2,-1.2731258E-2,-8.9713745E-4],"categories":[],"categories_nodes":[],"categories_segments":[],"categories_sizes":[],"default_left":[0,0,0,0,0,0,0,0,0,0,0,0,0],"id":77,"left_children":[1,3,5,7,-1,9,11,-1,-1,-1,-1,-1,-1],"loss_changes":[1.8910797E-1,1.9606161E0,1.1969509E-1,3.533209E-2,0E0,2.3259118E-1,3.123175E-1,0E0,0E0,0E0,0E0,0E0,0E0],"parents":[2147483647,0,0,1,1,2,2,3,3,5,5,6,6],"right_children":[2,4,6,8,-1,10,12,-1,-1,-1,-1,-1,-1],"split_conditions":[1.175E1,1.0933333E1,1.9E1,2.505E1,1.20178744E-1,9.015E1,2.52E1,-6.814876E-4,4.91565E-3,-0E0,3.1224761E-2,-1.2731258E-2,-8.9713745E-4],"split_indices":[0,0,1,1,0,0,1,0,0,0,0,0,0],"split_type":[0,0,0,0,0,0,0,0,0,0,0,0,0],"sum_hessian":[1.611E3,1.97E2,1.414E3,1.91E2,6E0,6.7E1,1.347E3,1.19E2,7.2E1,5.3E1,1.4E1,1.22E2,1.225E3],"tree_param":{"num_deleted":"0","num_feature":"2","num_nodes":"13","size_leaf_vector":"1"}},{"base_weights":[-8.61831E-3,-2.4582004E-2,-2.7575686E-3,-1.2204993E-2,-1.5888782E-1,6.58126E-4,-3.93707E-2,-5.777868E-4,-1.7072069E-2,-4.922684E-2,-0E0,-1.3538351E-2,9.009199E-4,-1.1087835E-2,7.288704E-3],"categories":[],"categories_nodes":[],"categories_segments":[],"categories_sizes":[],"default_left":[0,0,0,0,0,0,0,0,0,0,0,0,0,0,0],"id":78,"left_children":[1,3,5,7,9,11,13,-1,-1,-1,-1,-1,-1,-1,-1],"loss_changes":[1.3425213E-1,5.686385E-1,1.7420001E-1,1.8718715E-1,2.4399579E-1,1.9879092E-1,1.06381744E-1,0E0,0E0,0E0,0E0,0E0,0E0,0E0,0E0],"parents":[2147483647,0,0,1,1,2,2,3,3,4,4,5,5,6,6],"right_children":[2,4,6,8,10,12,14,-1,-1,-1,-1,-1,-1,-1,-1],"split_conditions":[6.938333E1,3.1516666E1,7.6768335E2,5.065E1,3.27E1,2.125E1,9.215833E2,-5.777868E-4,-1.7072069E-2,-4.922684E-2,-0E0,-1.3538351E-2,9.009199E-4,-1.1087835E-2,7.288704E-3],"split_indices":[0,1,0,0,1,1,0,0,0,0,0,0,0,0,0],"split_type":[0,0,0,0,0,0,0,0,0,0,0,0,0,0,0],"sum_hessian":[1.61E3,4.04E2,1.206E3,3.75E2,2.9E1,1.089E3,1.17E2,3.36E2,3.9E1,1.9E1,1E1,4.7E1,1.042E3,1.09E2,8E0],"tree_param":{"num_deleted":"0","num_feature":"2","num_nodes":"15","size_leaf_vector":"1"}},{"base_weights":[8.9157064E-4,1.5601523E-2,-1.7843775E-2,2.217658E-2,-1.8388578E-3,-2.9178226E-2,1.0532109E-2,2.5189826E-3,1.5416809E-2,-3.1550196E-3,1.39315985E-2,2.2440575E-2,-7.3706172E-3,9.452907E-3,-3.0596068E-3],"categories":[],"categories_nodes":[],"categories_segments":[],"categories_sizes":[],"default_left":[0,0,0,0,0,0,0,0,0,0,0,0,0,0,0],"id":79,"left_children":[1,3,5,7,9,11,13,-1,-1,-1,-1,-1,-1,-1,-1],"loss_changes":[4.409891E-1,1.1739722E-1,2.3277307E-1,3.0532122E-1,1.5645288E-1,2.4993959E-1,1.6230674E-1,0E0,0E0,0E0,0E0,0E0,0E0,0E0,0E0],"parents":[2147483647,0,0,1,1,2,2,3,3,4,4,5,5,6,6],"right_children":[2,4,6,8,10,12,14,-1,-1,-1,-1,-1,-1,-1,-1],"split_conditions":[3.706E2,3.2883335E1,7.3318335E2,2.9916666E1,3.3448334E2,2.6216667E1,4.545E1,2.5189826E-3,1.5416809E-2,-3.1550196E-3,1.39315985E-2,2.2440575E-2,-7.3706172E-3,9.452907E-3,-3.0596068E-3],"split_indices":[0,1,0,1,0,1,1,0,0,0,0,0,0,0,0],"split_type":[0,0,0,0,0,0,0,0,0,0,0,0,0,0,0],"sum_hessian":[1.603E3,9.16E2,6.87E2,6.9E2,2.26E2,5.06E2,1.81E2,5.75E2,1.15E2,1.98E2,2.8E1,1.1E1,4.95E2,8.8E1,9.3E1],"tree_param":{"num_deleted":"0","num_feature":"2","num_nodes":"15","size_leaf_vector":"1"}},{"base_weights":[-1.3014883E-3,-6.266203E-3,5.2656654E-2,-1.895421E-2,4.87425E-3,6.922988E-2,-0E0,-2.4281605E-3,-6.482408E-2,1.6444781E-3,-2.6503017E-2,8.5760355E-3,3.4099746E-2,-5.080596E-3,4.4769645E-3],"categories":[],"categories_nodes":[],"categories_segments":[],"categories_sizes":[],"default_left":[0,0,0,0,0,0,0,0,0,0,0,0,0,0,0],"id":80,"left_children":[1,3,5,7,9,11,13,-1,-1,-1,-1,-1,-1,-1,-1],"loss_changes":[4.051328E-1,2.191521E-1,1.01157874E-1,1.3892816E0,1.8377694E-1,1.2143648E-1,1.562953E-2,0E0,0E0,0E0,0E0,0E0,0E0,0E0,0E0],"parents":[2147483647,0,0,1,1,2,2,3,3,4,4,5,5,6,6],"right_children":[2,4,6,8,10,12,14,-1,-1,-1,-1,-1,-1,-1,-1],"split_conditions":[7.551E2,3.2033333E1,5.155E1,3.1716667E1,7.4648334E2,4.8716667E1,5.3983334E1,-2.4281605E-3,-6.482408E-2,1.6444781E-3,-2.6503017E-2,8.5760355E-3,3.4099746E-2,-5.080596E-3,4.4769645E-3],"split_indices":[0,1,1,1,0,1,1,0,0,0,0,0,0,0,0],"split_type":[0,0,0,0,0,0,0,0,0,0,0,0,0,0,0],"sum_hessian":[1.614E3,1.489E3,1.25E2,7.21E2,7.68E2,9.3E1,3.2E1,7.04E2,1.7E1,7.58E2,1E1,7.5E1,1.8E1,1.2E1,2E1],"tree_param":{"num_deleted":"0","num_feature":"2","num_nodes":"15","size_leaf_vector":"1"}},{"base_weights":[3.276632E-3,-1.289591E-2,1.6399292E-2,-4.7730636E-3,-5.783207E-2,1.4312543E-1,1.07568875E-2,-6.40488E-3,1.3655807E-3,-2.1721361E-2,1.7466031E-2,3.3063432E-3,-5.707886E-4],"categories":[],"categories_nodes":[],"categories_segments":[],"categories_sizes":[],"default_left":[0,0,0,0,0,0,0,0,0,0,0,0,0],"id":81,"left_children":[1,3,5,7,9,-1,11,-1,-1,-1,-1,-1,-1],"loss_changes":[3.4102744E-1,2.1584249E-1,2.8237865E0,1.7454724E-1,5.526426E-1,0E0,5.8604196E-2,0E0,0E0,0E0,0E0,0E0,0E0],"parents":[2147483647,0,0,1,1,2,2,3,3,4,4,6,6],"right_children":[2,4,6,8,10,-1,12,-1,-1,-1,-1,-1,-1],"split_conditions":[3.1716667E1,2.9731668E2,3.185E1,1.4916667E1,4.9901666E2,1.4312543E-1,7.1761664E2,-6.40488E-3,1.3655807E-3,-2.1721361E-2,1.7466031E-2,3.3063432E-3,-5.707886E-4],"split_indices":[1,0,1,0,0,0,0,0,0,0,0,0,0],"split_type":[0,0,0,0,0,0,0,0,0,0,0,0,0],"sum_hessian":[1.595E3,6.94E2,9.01E2,6E2,9.4E1,6E0,8.95E2,2.03E2,3.97E2,7.6E1,1.8E1,7.12E2,1.83E2],"tree_param":{"num_deleted":"0","num_feature":"2","num_nodes":"13","size_leaf_vector":"1"}},{"base_weights":[1.3730988E-2,-3.1757571E-3,2.2611298E-2,6.4571104E-3,-9.9321775E-2,7.312385E-2,1.221637E-2,4.2530387E-3,-3.981619E-3,-6.377354E-2,-5.5985427E-3,-5.5089215E-4,2.1912621E-2,-3.8128742E-3,5.181612E-3],"categories":[],"categories_nodes":[],"categories_segments":[],"categories_sizes":[],"default_left":[0,0,0,0,0,0,0,0,0,0,0,0,0,0,0],"id":82,"left_children":[1,3,5,7,9,11,13,-1,-1,-1,-1,-1,-1,-1,-1],"loss_changes":[2.5735745E-1,5.574137E-1,5.2338403E-1,1.55054E-1,5.776754E-1,4.1296E-1,3.1230792E-1,0E0,0E0,0E0,0E0,0E0,0E0,0E0,0E0],"parents":[2147483647,0,0,1,1,2,2,3,3,4,4,5,5,6,6],"right_children":[2,4,6,8,10,12,14,-1,-1,-1,-1,-1,-1,-1,-1],"split_conditions":[1.1098333E2,3.14E1,3.0066668E1,5.065E1,3.185E1,2.3066668E1,3.6183334E1,4.2530387E-3,-3.981619E-3,-6.377354E-2,-5.5985427E-3,-5.5089215E-4,2.1912621E-2,-3.8128742E-3,5.181612E-3],"split_indices":[0,1,1,0,1,1,1,0,0,0,0,0,0,0,0],"split_type":[0,0,0,0,0,0,0,0,0,0,0,0,0,0,0],"sum_hessian":[1.635E3,5.4E2,1.095E3,4.86E2,5.4E1,1.76E2,9.19E2,3.35E2,1.51E2,1.2E1,4.2E1,4E1,1.36E2,2.4E2,6.79E2],"tree_param":{"num_deleted":"0","num_feature":"2","num_nodes":"15","size_leaf_vector":"1"}},{"base_weights":[-0E0,2.1446642E-2,-1.1465431E-2,9.604743E-3,8.972814E-2,-6.2346067E-2,3.9342525E-3,4.8791635E-4,1.6239658E-2,1.264533E-1,-0E0,-2.235984E-2,8.31459E-3,1.1581654E-2,-0E0],"categories":[],"categories_nodes":[],"categories_segments":[],"categories_sizes":[],"default_left":[0,0,0,0,0,0,0,0,0,0,0,0,0,0,0],"id":83,"left_children":[1,3,5,7,9,11,13,-1,-1,-1,-1,-1,-1,-1,-1],"loss_changes":[4.080904E-1,4.133678E-1,8.611495E-1,1.9517499E-1,3.6589115E0,1.0414956E0,1.4557038E-1,0E0,0E0,0E0,0E0,0E0,0E0,0E0,0E0],"parents":[2147483647,0,0,1,1,2,2,3,3,4,4,5,5,6,6],"right_children":[2,4,6,8,10,12,14,-1,-1,-1,-1,-1,-1,-1,-1],"split_conditions":[1.5236667E2,3.1333334E1,3.3616665E1,1.1098333E2,3.185E1,4.1965E2,3.5033333E1,4.8791635E-4,1.6239658E-2,1.264533E-1,-0E0,-2.235984E-2,8.31459E-3,1.1581654E-2,-0E0],"split_indices":[0,1,1,0,1,0,1,0,0,0,0,0,0,0,0],"split_type":[0,0,0,0,0,0,0,0,0,0,0,0,0,0,0],"sum_hessian":[1.638E3,5.85E2,1.053E3,5.07E2,7.8E1,2.53E2,8E2,4.64E2,4.3E1,1.2E1,6.6E1,1.86E2,6.7E1,5.6E1,7.44E2],"tree_param":{"num_deleted":"0","num_feature":"2","num_nodes":"15","size_leaf_vector":"1"}},{"base_weights":[-2.094776E-3,1.7378235E-2,-1.0481774E-2,7.972043E-3,1.17074095E-1,8.125036E-2,-1.4360466E-2,4.4564875E-3,-9.193917E-3,1.7305008E-1,-1.3951345E-2,-0E0,6.089407E-2,-1.0674696E-2,-8.103284E-4],"categories":[],"categories_nodes":[],"categories_segments":[],"categories_sizes":[],"default_left":[0,0,0,0,0,0,0,0,0,0,0,0,0,0,0],"id":84,"left_children":[1,3,5,7,9,11,13,-1,-1,-1,-1,-1,-1,-1,-1],"loss_changes":[2.5653985E-1,3.5447007E-1,3.6557826E-1,2.4834825E-1,4.5923705E0,7.3190904E-1,3.689841E-1,0E0,0E0,0E0,0E0,0E0,0E0,0E0,0E0],"parents":[2147483647,0,0,1,1,2,2,3,3,4,4,5,5,6,6],"right_children":[2,4,6,8,10,12,14,-1,-1,-1,-1,-1,-1,-1,-1],"split_conditions":[9.015E1,3.1716667E1,2.21E1,2.8916666E1,3.2033333E1,1.614E2,3.2033333E1,4.4564875E-3,-9.193917E-3,1.7305008E-1,-1.3951345E-2,-0E0,6.089407E-2,-1.0674696E-2,-8.103284E-4],"split_indices":[0,1,1,1,1,0,1,0,0,0,0,0,0,0,0],"split_type":[0,0,0,0,0,0,0,0,0,0,0,0,0,0,0],"sum_hessian":[1.594E3,4.58E2,1.136E3,4.25E2,3.3E1,3.9E1,1.097E3,3.51E2,7.4E1,7E0,2.6E1,2.7E1,1.2E1,2.47E2,8.5E2],"tree_param":{"num_deleted":"0","num_feature":"2","num_nodes":"15","size_leaf_vector":"1"}},{"base_weights":[-6.4562224E-3,-2.9130938E-2,-2.2583364E-3,-1.8212909E-3,-1.775956E-1,1.1042851E-2,-1.0924021E-2,2.517443E-4,-3.008007E-3,-1.4468549E-1,-4.0567145E-3,-1.4346208E-4,8.3931135E-3,-1.8230788E-2,-1.1791652E-3],"categories":[],"categories_nodes":[],"categories_segments":[],"categories_sizes":[],"default_left":[0,0,0,0,0,0,0,0,0,0,0,0,0,0,0],"id":85,"left_children":[1,3,5,7,9,11,13,-1,-1,-1,-1,-1,-1,-1,-1],"loss_changes":[1.3368359E-1,8.164564E-1,1.5865247E-1,1.445659E-2,2.0271835E0,1.861077E-1,2.912821E-1,0E0,0E0,0E0,0E0,0E0,0E0,0E0,0E0],"parents":[2147483647,0,0,1,1,2,2,3,3,4,4,5,5,6,6],"right_children":[2,4,6,8,10,12,14,-1,-1,-1,-1,-1,-1,-1,-1],"split_conditions":[1.64E1,1.0933333E1,3.25E1,2.4766666E1,1.175E1,2.915E1,3.3283333E1,2.517443E-4,-3.008007E-3,-1.4468549E-1,-4.0567145E-3,-1.4346208E-4,8.3931135E-3,-1.8230788E-2,-1.1791652E-3],"split_indices":[0,0,1,1,0,1,1,0,0,0,0,0,0,0,0],"split_type":[0,0,0,0,0,0,0,0,0,0,0,0,0,0,0],"sum_hessian":[1.602E3,2.27E2,1.375E3,1.96E2,3.1E1,5.15E2,8.6E2,1.17E2,7.9E1,6E0,2.5E1,3.45E2,1.7E2,5.3E1,8.07E2],"tree_param":{"num_deleted":"0","num_feature":"2","num_nodes":"15","size_leaf_vector":"1"}},{"base_weights":[-5.561523E-3,-3.3944216E-2,-8.8054565E-4,-4.141838E-3,-1.8000153E-1,5.03394E-2,-3.8688881E-3,1.3713641E-3,-6.0756817E-3,-7.7715516E-2,-4.7780562E-4,-1.1730811E-3,1.6390918E-2,-3.2451298E-2,-3.3102653E-4],"categories":[],"categories_nodes":[],"categories_segments":[],"categories_sizes":[],"default_left":[0,0,0,0,0,0,0,0,0,0,0,0,0,0,0],"id":86,"left_children":[1,3,5,7,9,11,13,-1,-1,-1,-1,-1,-1,-1,-1],"loss_changes":[1.9789362E-1,8.246324E-1,1.9165134E-1,5.757347E-2,8.026799E-1,1.333803E-1,3.7425137E-1,0E0,0E0,0E0,0E0,0E0,0E0,0E0,0E0],"parents":[2147483647,0,0,1,1,2,2,3,3,4,4,5,5,6,6],"right_children":[2,4,6,8,10,12,14,-1,-1,-1,-1,-1,-1,-1,-1],"split_conditions":[1.4916667E1,9.966666E0,1.9E1,2.4916666E1,1.175E1,1.5E1,1.99E1,1.3713641E-3,-6.0756817E-3,-7.7715516E-2,-4.7780562E-4,-1.1730811E-3,1.6390918E-2,-3.2451298E-2,-3.3102653E-4],"split_indices":[0,0,1,1,0,1,1,0,0,0,0,0,0,0,0],"split_type":[0,0,0,0,0,0,0,0,0,0,0,0,0,0,0],"sum_hessian":[1.646E3,2.14E2,1.432E3,1.82E2,3.2E1,6.7E1,1.365E3,1.09E2,7.3E1,1.4E1,1.8E1,1.3E1,5.4E1,1.7E1,1.348E3],"tree_param":{"num_deleted":"0","num_feature":"2","num_nodes":"15","size_leaf_vector":"1"}},{"base_weights":[-0E0,-1.8941058E-2,4.408161E-3,-3.8920445E-3,-6.846046E-2,6.150599E-3,-3.3253353E-2,2.8037685E-3,-2.006033E-2,8.072465E-4,6.9858665E-3,-2.004397E-2,4.511024E-4],"categories":[],"categories_nodes":[],"categories_segments":[],"categories_sizes":[],"default_left":[0,0,0,0,0,0,0,0,0,0,0,0,0],"id":87,"left_children":[1,3,5,7,-1,9,11,-1,-1,-1,-1,-1,-1],"loss_changes":[1.4159659E-1,1.2434803E0,6.715266E-2,5.0276923E-1,0E0,5.6643758E-2,1.3736537E-1,0E0,0E0,0E0,0E0,0E0,0E0],"parents":[2147483647,0,0,1,1,2,2,3,3,5,5,6,6],"right_children":[2,4,6,8,-1,10,12,-1,-1,-1,-1,-1,-1],"split_conditions":[2.52E1,2.5E1,8.367833E2,1.4388333E2,-6.846046E-2,4.8066666E1,8.907167E2,2.8037685E-3,-2.006033E-2,8.072465E-4,6.9858665E-3,-2.004397E-2,4.511024E-4],"split_indices":[1,1,0,0,0,1,0,0,0,0,0,0,0],"split_type":[0,0,0,0,0,0,0,0,0,0,0,0,0],"sum_hessian":[1.592E3,3.25E2,1.267E3,3.12E2,1.3E1,1.227E3,4E1,2.57E2,5.5E1,1.141E3,8.6E1,2.1E1,1.9E1],"tree_param":{"num_deleted":"0","num_feature":"2","num_nodes":"13","size_leaf_vector":"1"}},{"base_weights":[-5.557642E-3,1.8149143E-2,-9.166439E-3,-2.3659001E-4,1.1353113E-1,-1.0871456E-2,2.525061E-2,-3.0299218E-3,2.8303037E-3,-1.8935513E-3,-1.8608313E-2,1.2515692E-2,-0E0],"categories":[],"categories_nodes":[],"categories_segments":[],"categories_sizes":[],"default_left":[0,0,0,0,0,0,0,0,0,0,0,0,0],"id":88,"left_children":[1,3,5,7,-1,9,11,-1,-1,-1,-1,-1,-1],"loss_changes":[1.3311592E-1,2.0672326E0,7.532704E-2,3.3529587E-2,0E0,1.7303056E-1,4.5156732E-2,0E0,0E0,0E0,0E0,0E0,0E0],"parents":[2147483647,0,0,1,1,2,2,3,3,5,5,6,6],"right_children":[2,4,6,8,-1,10,12,-1,-1,-1,-1,-1,-1],"split_conditions":[1.175E1,1.0933333E1,8.3195E2,2.505E1,1.1353113E-1,5.155E1,4.9933334E1,-3.0299218E-3,2.8303037E-3,-1.8935513E-3,-1.8608313E-2,1.2515692E-2,-0E0],"split_indices":[0,0,0,1,0,1,1,0,0,0,0,0,0],"split_type":[0,0,0,0,0,0,0,0,0,0,0,0,0],"sum_hessian":[1.616E3,1.91E2,1.425E3,1.84E2,7E0,1.375E3,5E1,1.13E2,7.1E1,1.343E3,3.2E1,2.3E1,2.7E1],"tree_param":{"num_deleted":"0","num_feature":"2","num_nodes":"13","size_leaf_vector":"1"}},{"base_weights":[7.847778E-3,1.6876832E-2,2.1774182E-3,9.1413E-3,7.974555E-2,-6.0914088E-2,8.56279E-3,4.9085785E-3,-1.2984907E-3,3.1970605E-2,-0E0,-7.792323E-2,-5.3330725E-3,3.3996295E-2,1.1734731E-3],"categories":[],"categories_nodes":[],"categories_segments":[],"categories_sizes":[],"default_left":[0,0,0,0,0,0,0,0,0,0,0,0,0,0,0],"id":89,"left_children":[1,3,5,7,9,11,13,-1,-1,-1,-1,-1,-1,-1,-1],"loss_changes":[7.3468156E-2,2.372464E-1,3.9654815E-1,1.1756178E-1,2.7106208E-1,7.215909E-1,3.6183074E-1,0E0,0E0,0E0,0E0,0E0,0E0,0E0,0E0],"parents":[2147483647,0,0,1,1,2,2,3,3,4,4,5,5,6,6],"right_children":[2,4,6,8,10,12,14,-1,-1,-1,-1,-1,-1,-1,-1],"split_conditions":[1.5236667E2,1.1665E2,2.655E1,2.6333334E1,3.095E1,1.6543333E2,2.7766666E1,4.9085785E-3,-1.2984907E-3,3.1970605E-2,-0E0,-7.792323E-2,-5.3330725E-3,3.3996295E-2,1.1734731E-3],"split_indices":[0,0,1,1,1,0,1,0,0,0,0,0,0,0,0],"split_type":[0,0,0,0,0,0,0,0,0,0,0,0,0,0,0],"sum_hessian":[1.658E3,5.98E2,1.06E3,5.42E2,5.6E1,8.8E1,9.72E2,3.1E2,2.32E2,2.9E1,2.7E1,7E0,8.1E1,1.6E1,